tree
version=v4
num_class=1
num_tree_per_iteration=1
label_index=0
max_feature_idx=2664
objective=regression
feature_names=Column_0 Column_1 Column_2 Column_3 Column_4 Column_5 Column_6 Column_7 Column_8 Column_9 Column_10 Column_11 Column_12 Column_13 Column_14 Column_15 Column_16 Column_17 Column_18 Column_19 Column_20 Column_21 Column_22 Column_23 Column_24 Column_25 Column_26 Column_27 Column_28 Column_29 Column_30 Column_31 Column_32 Column_33 Column_34 Column_35 Column_36 Column_37 Column_38 Column_39 Column_40 Column_41 Column_42 Column_43 Column_44 Column_45 Column_46 Column_47 Column_48 Column_49 Column_50 Column_51 Column_52 Column_53 Column_54 Column_55 Column_56 Column_57 Column_58 Column_59 Column_60 Column_61 Column_62 Column_63 Column_64 Column_65 Column_66 Column_67 Column_68 Column_69 Column_70 Column_71 Column_72 Column_73 Column_74 Column_75 Column_76 Column_77 Column_78 Column_79 Column_80 Column_81 Column_82 Column_83 Column_84 Column_85 Column_86 Column_87 Column_88 Column_89 Column_90 Column_91 Column_92 Column_93 Column_94 Column_95 Column_96 Column_97 Column_98 Column_99 Column_100 Column_101 Column_102 Column_103 Column_104 Column_105 Column_106 Column_107 Column_108 Column_109 Column_110 Column_111 Column_112 Column_113 Column_114 Column_115 Column_116 Column_117 Column_118 Column_119 Column_120 Column_121 Column_122 Column_123 Column_124 Column_125 Column_126 Column_127 Column_128 Column_129 Column_130 Column_131 Column_132 Column_133 Column_134 Column_135 Column_136 Column_137 Column_138 Column_139 Column_140 Column_141 Column_142 Column_143 Column_144 Column_145 Column_146 Column_147 Column_148 Column_149 Column_150 Column_151 Column_152 Column_153 Column_154 Column_155 Column_156 Column_157 Column_158 Column_159 Column_160 Column_161 Column_162 Column_163 Column_164 Column_165 Column_166 Column_167 Column_168 Column_169 Column_170 Column_171 Column_172 Column_173 Column_174 Column_175 Column_176 Column_177 Column_178 Column_179 Column_180 Column_181 Column_182 Column_183 Column_184 Column_185 Column_186 Column_187 Column_188 Column_189 Column_190 Column_191 Column_192 Column_193 Column_194 Column_195 Column_196 Column_197 Column_198 Column_199 Column_200 Column_201 Column_202 Column_203 Column_204 Column_205 Column_206 Column_207 Column_208 Column_209 Column_210 Column_211 Column_212 Column_213 Column_214 Column_215 Column_216 Column_217 Column_218 Column_219 Column_220 Column_221 Column_222 Column_223 Column_224 Column_225 Column_226 Column_227 Column_228 Column_229 Column_230 Column_231 Column_232 Column_233 Column_234 Column_235 Column_236 Column_237 Column_238 Column_239 Column_240 Column_241 Column_242 Column_243 Column_244 Column_245 Column_246 Column_247 Column_248 Column_249 Column_250 Column_251 Column_252 Column_253 Column_254 Column_255 Column_256 Column_257 Column_258 Column_259 Column_260 Column_261 Column_262 Column_263 Column_264 Column_265 Column_266 Column_267 Column_268 Column_269 Column_270 Column_271 Column_272 Column_273 Column_274 Column_275 Column_276 Column_277 Column_278 Column_279 Column_280 Column_281 Column_282 Column_283 Column_284 Column_285 Column_286 Column_287 Column_288 Column_289 Column_290 Column_291 Column_292 Column_293 Column_294 Column_295 Column_296 Column_297 Column_298 Column_299 Column_300 Column_301 Column_302 Column_303 Column_304 Column_305 Column_306 Column_307 Column_308 Column_309 Column_310 Column_311 Column_312 Column_313 Column_314 Column_315 Column_316 Column_317 Column_318 Column_319 Column_320 Column_321 Column_322 Column_323 Column_324 Column_325 Column_326 Column_327 Column_328 Column_329 Column_330 Column_331 Column_332 Column_333 Column_334 Column_335 Column_336 Column_337 Column_338 Column_339 Column_340 Column_341 Column_342 Column_343 Column_344 Column_345 Column_346 Column_347 Column_348 Column_349 Column_350 Column_351 Column_352 Column_353 Column_354 Column_355 Column_356 Column_357 Column_358 Column_359 Column_360 Column_361 Column_362 Column_363 Column_364 Column_365 Column_366 Column_367 Column_368 Column_369 Column_370 Column_371 Column_372 Column_373 Column_374 Column_375 Column_376 Column_377 Column_378 Column_379 Column_380 Column_381 Column_382 Column_383 Column_384 Column_385 Column_386 Column_387 Column_388 Column_389 Column_390 Column_391 Column_392 Column_393 Column_394 Column_395 Column_396 Column_397 Column_398 Column_399 Column_400 Column_401 Column_402 Column_403 Column_404 Column_405 Column_406 Column_407 Column_408 Column_409 Column_410 Column_411 Column_412 Column_413 Column_414 Column_415 Column_416 Column_417 Column_418 Column_419 Column_420 Column_421 Column_422 Column_423 Column_424 Column_425 Column_426 Column_427 Column_428 Column_429 Column_430 Column_431 Column_432 Column_433 Column_434 Column_435 Column_436 Column_437 Column_438 Column_439 Column_440 Column_441 Column_442 Column_443 Column_444 Column_445 Column_446 Column_447 Column_448 Column_449 Column_450 Column_451 Column_452 Column_453 Column_454 Column_455 Column_456 Column_457 Column_458 Column_459 Column_460 Column_461 Column_462 Column_463 Column_464 Column_465 Column_466 Column_467 Column_468 Column_469 Column_470 Column_471 Column_472 Column_473 Column_474 Column_475 Column_476 Column_477 Column_478 Column_479 Column_480 Column_481 Column_482 Column_483 Column_484 Column_485 Column_486 Column_487 Column_488 Column_489 Column_490 Column_491 Column_492 Column_493 Column_494 Column_495 Column_496 Column_497 Column_498 Column_499 Column_500 Column_501 Column_502 Column_503 Column_504 Column_505 Column_506 Column_507 Column_508 Column_509 Column_510 Column_511 Column_512 Column_513 Column_514 Column_515 Column_516 Column_517 Column_518 Column_519 Column_520 Column_521 Column_522 Column_523 Column_524 Column_525 Column_526 Column_527 Column_528 Column_529 Column_530 Column_531 Column_532 Column_533 Column_534 Column_535 Column_536 Column_537 Column_538 Column_539 Column_540 Column_541 Column_542 Column_543 Column_544 Column_545 Column_546 Column_547 Column_548 Column_549 Column_550 Column_551 Column_552 Column_553 Column_554 Column_555 Column_556 Column_557 Column_558 Column_559 Column_560 Column_561 Column_562 Column_563 Column_564 Column_565 Column_566 Column_567 Column_568 Column_569 Column_570 Column_571 Column_572 Column_573 Column_574 Column_575 Column_576 Column_577 Column_578 Column_579 Column_580 Column_581 Column_582 Column_583 Column_584 Column_585 Column_586 Column_587 Column_588 Column_589 Column_590 Column_591 Column_592 Column_593 Column_594 Column_595 Column_596 Column_597 Column_598 Column_599 Column_600 Column_601 Column_602 Column_603 Column_604 Column_605 Column_606 Column_607 Column_608 Column_609 Column_610 Column_611 Column_612 Column_613 Column_614 Column_615 Column_616 Column_617 Column_618 Column_619 Column_620 Column_621 Column_622 Column_623 Column_624 Column_625 Column_626 Column_627 Column_628 Column_629 Column_630 Column_631 Column_632 Column_633 Column_634 Column_635 Column_636 Column_637 Column_638 Column_639 Column_640 Column_641 Column_642 Column_643 Column_644 Column_645 Column_646 Column_647 Column_648 Column_649 Column_650 Column_651 Column_652 Column_653 Column_654 Column_655 Column_656 Column_657 Column_658 Column_659 Column_660 Column_661 Column_662 Column_663 Column_664 Column_665 Column_666 Column_667 Column_668 Column_669 Column_670 Column_671 Column_672 Column_673 Column_674 Column_675 Column_676 Column_677 Column_678 Column_679 Column_680 Column_681 Column_682 Column_683 Column_684 Column_685 Column_686 Column_687 Column_688 Column_689 Column_690 Column_691 Column_692 Column_693 Column_694 Column_695 Column_696 Column_697 Column_698 Column_699 Column_700 Column_701 Column_702 Column_703 Column_704 Column_705 Column_706 Column_707 Column_708 Column_709 Column_710 Column_711 Column_712 Column_713 Column_714 Column_715 Column_716 Column_717 Column_718 Column_719 Column_720 Column_721 Column_722 Column_723 Column_724 Column_725 Column_726 Column_727 Column_728 Column_729 Column_730 Column_731 Column_732 Column_733 Column_734 Column_735 Column_736 Column_737 Column_738 Column_739 Column_740 Column_741 Column_742 Column_743 Column_744 Column_745 Column_746 Column_747 Column_748 Column_749 Column_750 Column_751 Column_752 Column_753 Column_754 Column_755 Column_756 Column_757 Column_758 Column_759 Column_760 Column_761 Column_762 Column_763 Column_764 Column_765 Column_766 Column_767 Column_768 Column_769 Column_770 Column_771 Column_772 Column_773 Column_774 Column_775 Column_776 Column_777 Column_778 Column_779 Column_780 Column_781 Column_782 Column_783 Column_784 Column_785 Column_786 Column_787 Column_788 Column_789 Column_790 Column_791 Column_792 Column_793 Column_794 Column_795 Column_796 Column_797 Column_798 Column_799 Column_800 Column_801 Column_802 Column_803 Column_804 Column_805 Column_806 Column_807 Column_808 Column_809 Column_810 Column_811 Column_812 Column_813 Column_814 Column_815 Column_816 Column_817 Column_818 Column_819 Column_820 Column_821 Column_822 Column_823 Column_824 Column_825 Column_826 Column_827 Column_828 Column_829 Column_830 Column_831 Column_832 Column_833 Column_834 Column_835 Column_836 Column_837 Column_838 Column_839 Column_840 Column_841 Column_842 Column_843 Column_844 Column_845 Column_846 Column_847 Column_848 Column_849 Column_850 Column_851 Column_852 Column_853 Column_854 Column_855 Column_856 Column_857 Column_858 Column_859 Column_860 Column_861 Column_862 Column_863 Column_864 Column_865 Column_866 Column_867 Column_868 Column_869 Column_870 Column_871 Column_872 Column_873 Column_874 Column_875 Column_876 Column_877 Column_878 Column_879 Column_880 Column_881 Column_882 Column_883 Column_884 Column_885 Column_886 Column_887 Column_888 Column_889 Column_890 Column_891 Column_892 Column_893 Column_894 Column_895 Column_896 Column_897 Column_898 Column_899 Column_900 Column_901 Column_902 Column_903 Column_904 Column_905 Column_906 Column_907 Column_908 Column_909 Column_910 Column_911 Column_912 Column_913 Column_914 Column_915 Column_916 Column_917 Column_918 Column_919 Column_920 Column_921 Column_922 Column_923 Column_924 Column_925 Column_926 Column_927 Column_928 Column_929 Column_930 Column_931 Column_932 Column_933 Column_934 Column_935 Column_936 Column_937 Column_938 Column_939 Column_940 Column_941 Column_942 Column_943 Column_944 Column_945 Column_946 Column_947 Column_948 Column_949 Column_950 Column_951 Column_952 Column_953 Column_954 Column_955 Column_956 Column_957 Column_958 Column_959 Column_960 Column_961 Column_962 Column_963 Column_964 Column_965 Column_966 Column_967 Column_968 Column_969 Column_970 Column_971 Column_972 Column_973 Column_974 Column_975 Column_976 Column_977 Column_978 Column_979 Column_980 Column_981 Column_982 Column_983 Column_984 Column_985 Column_986 Column_987 Column_988 Column_989 Column_990 Column_991 Column_992 Column_993 Column_994 Column_995 Column_996 Column_997 Column_998 Column_999 Column_1000 Column_1001 Column_1002 Column_1003 Column_1004 Column_1005 Column_1006 Column_1007 Column_1008 Column_1009 Column_1010 Column_1011 Column_1012 Column_1013 Column_1014 Column_1015 Column_1016 Column_1017 Column_1018 Column_1019 Column_1020 Column_1021 Column_1022 Column_1023 Column_1024 Column_1025 Column_1026 Column_1027 Column_1028 Column_1029 Column_1030 Column_1031 Column_1032 Column_1033 Column_1034 Column_1035 Column_1036 Column_1037 Column_1038 Column_1039 Column_1040 Column_1041 Column_1042 Column_1043 Column_1044 Column_1045 Column_1046 Column_1047 Column_1048 Column_1049 Column_1050 Column_1051 Column_1052 Column_1053 Column_1054 Column_1055 Column_1056 Column_1057 Column_1058 Column_1059 Column_1060 Column_1061 Column_1062 Column_1063 Column_1064 Column_1065 Column_1066 Column_1067 Column_1068 Column_1069 Column_1070 Column_1071 Column_1072 Column_1073 Column_1074 Column_1075 Column_1076 Column_1077 Column_1078 Column_1079 Column_1080 Column_1081 Column_1082 Column_1083 Column_1084 Column_1085 Column_1086 Column_1087 Column_1088 Column_1089 Column_1090 Column_1091 Column_1092 Column_1093 Column_1094 Column_1095 Column_1096 Column_1097 Column_1098 Column_1099 Column_1100 Column_1101 Column_1102 Column_1103 Column_1104 Column_1105 Column_1106 Column_1107 Column_1108 Column_1109 Column_1110 Column_1111 Column_1112 Column_1113 Column_1114 Column_1115 Column_1116 Column_1117 Column_1118 Column_1119 Column_1120 Column_1121 Column_1122 Column_1123 Column_1124 Column_1125 Column_1126 Column_1127 Column_1128 Column_1129 Column_1130 Column_1131 Column_1132 Column_1133 Column_1134 Column_1135 Column_1136 Column_1137 Column_1138 Column_1139 Column_1140 Column_1141 Column_1142 Column_1143 Column_1144 Column_1145 Column_1146 Column_1147 Column_1148 Column_1149 Column_1150 Column_1151 Column_1152 Column_1153 Column_1154 Column_1155 Column_1156 Column_1157 Column_1158 Column_1159 Column_1160 Column_1161 Column_1162 Column_1163 Column_1164 Column_1165 Column_1166 Column_1167 Column_1168 Column_1169 Column_1170 Column_1171 Column_1172 Column_1173 Column_1174 Column_1175 Column_1176 Column_1177 Column_1178 Column_1179 Column_1180 Column_1181 Column_1182 Column_1183 Column_1184 Column_1185 Column_1186 Column_1187 Column_1188 Column_1189 Column_1190 Column_1191 Column_1192 Column_1193 Column_1194 Column_1195 Column_1196 Column_1197 Column_1198 Column_1199 Column_1200 Column_1201 Column_1202 Column_1203 Column_1204 Column_1205 Column_1206 Column_1207 Column_1208 Column_1209 Column_1210 Column_1211 Column_1212 Column_1213 Column_1214 Column_1215 Column_1216 Column_1217 Column_1218 Column_1219 Column_1220 Column_1221 Column_1222 Column_1223 Column_1224 Column_1225 Column_1226 Column_1227 Column_1228 Column_1229 Column_1230 Column_1231 Column_1232 Column_1233 Column_1234 Column_1235 Column_1236 Column_1237 Column_1238 Column_1239 Column_1240 Column_1241 Column_1242 Column_1243 Column_1244 Column_1245 Column_1246 Column_1247 Column_1248 Column_1249 Column_1250 Column_1251 Column_1252 Column_1253 Column_1254 Column_1255 Column_1256 Column_1257 Column_1258 Column_1259 Column_1260 Column_1261 Column_1262 Column_1263 Column_1264 Column_1265 Column_1266 Column_1267 Column_1268 Column_1269 Column_1270 Column_1271 Column_1272 Column_1273 Column_1274 Column_1275 Column_1276 Column_1277 Column_1278 Column_1279 Column_1280 Column_1281 Column_1282 Column_1283 Column_1284 Column_1285 Column_1286 Column_1287 Column_1288 Column_1289 Column_1290 Column_1291 Column_1292 Column_1293 Column_1294 Column_1295 Column_1296 Column_1297 Column_1298 Column_1299 Column_1300 Column_1301 Column_1302 Column_1303 Column_1304 Column_1305 Column_1306 Column_1307 Column_1308 Column_1309 Column_1310 Column_1311 Column_1312 Column_1313 Column_1314 Column_1315 Column_1316 Column_1317 Column_1318 Column_1319 Column_1320 Column_1321 Column_1322 Column_1323 Column_1324 Column_1325 Column_1326 Column_1327 Column_1328 Column_1329 Column_1330 Column_1331 Column_1332 Column_1333 Column_1334 Column_1335 Column_1336 Column_1337 Column_1338 Column_1339 Column_1340 Column_1341 Column_1342 Column_1343 Column_1344 Column_1345 Column_1346 Column_1347 Column_1348 Column_1349 Column_1350 Column_1351 Column_1352 Column_1353 Column_1354 Column_1355 Column_1356 Column_1357 Column_1358 Column_1359 Column_1360 Column_1361 Column_1362 Column_1363 Column_1364 Column_1365 Column_1366 Column_1367 Column_1368 Column_1369 Column_1370 Column_1371 Column_1372 Column_1373 Column_1374 Column_1375 Column_1376 Column_1377 Column_1378 Column_1379 Column_1380 Column_1381 Column_1382 Column_1383 Column_1384 Column_1385 Column_1386 Column_1387 Column_1388 Column_1389 Column_1390 Column_1391 Column_1392 Column_1393 Column_1394 Column_1395 Column_1396 Column_1397 Column_1398 Column_1399 Column_1400 Column_1401 Column_1402 Column_1403 Column_1404 Column_1405 Column_1406 Column_1407 Column_1408 Column_1409 Column_1410 Column_1411 Column_1412 Column_1413 Column_1414 Column_1415 Column_1416 Column_1417 Column_1418 Column_1419 Column_1420 Column_1421 Column_1422 Column_1423 Column_1424 Column_1425 Column_1426 Column_1427 Column_1428 Column_1429 Column_1430 Column_1431 Column_1432 Column_1433 Column_1434 Column_1435 Column_1436 Column_1437 Column_1438 Column_1439 Column_1440 Column_1441 Column_1442 Column_1443 Column_1444 Column_1445 Column_1446 Column_1447 Column_1448 Column_1449 Column_1450 Column_1451 Column_1452 Column_1453 Column_1454 Column_1455 Column_1456 Column_1457 Column_1458 Column_1459 Column_1460 Column_1461 Column_1462 Column_1463 Column_1464 Column_1465 Column_1466 Column_1467 Column_1468 Column_1469 Column_1470 Column_1471 Column_1472 Column_1473 Column_1474 Column_1475 Column_1476 Column_1477 Column_1478 Column_1479 Column_1480 Column_1481 Column_1482 Column_1483 Column_1484 Column_1485 Column_1486 Column_1487 Column_1488 Column_1489 Column_1490 Column_1491 Column_1492 Column_1493 Column_1494 Column_1495 Column_1496 Column_1497 Column_1498 Column_1499 Column_1500 Column_1501 Column_1502 Column_1503 Column_1504 Column_1505 Column_1506 Column_1507 Column_1508 Column_1509 Column_1510 Column_1511 Column_1512 Column_1513 Column_1514 Column_1515 Column_1516 Column_1517 Column_1518 Column_1519 Column_1520 Column_1521 Column_1522 Column_1523 Column_1524 Column_1525 Column_1526 Column_1527 Column_1528 Column_1529 Column_1530 Column_1531 Column_1532 Column_1533 Column_1534 Column_1535 Column_1536 Column_1537 Column_1538 Column_1539 Column_1540 Column_1541 Column_1542 Column_1543 Column_1544 Column_1545 Column_1546 Column_1547 Column_1548 Column_1549 Column_1550 Column_1551 Column_1552 Column_1553 Column_1554 Column_1555 Column_1556 Column_1557 Column_1558 Column_1559 Column_1560 Column_1561 Column_1562 Column_1563 Column_1564 Column_1565 Column_1566 Column_1567 Column_1568 Column_1569 Column_1570 Column_1571 Column_1572 Column_1573 Column_1574 Column_1575 Column_1576 Column_1577 Column_1578 Column_1579 Column_1580 Column_1581 Column_1582 Column_1583 Column_1584 Column_1585 Column_1586 Column_1587 Column_1588 Column_1589 Column_1590 Column_1591 Column_1592 Column_1593 Column_1594 Column_1595 Column_1596 Column_1597 Column_1598 Column_1599 Column_1600 Column_1601 Column_1602 Column_1603 Column_1604 Column_1605 Column_1606 Column_1607 Column_1608 Column_1609 Column_1610 Column_1611 Column_1612 Column_1613 Column_1614 Column_1615 Column_1616 Column_1617 Column_1618 Column_1619 Column_1620 Column_1621 Column_1622 Column_1623 Column_1624 Column_1625 Column_1626 Column_1627 Column_1628 Column_1629 Column_1630 Column_1631 Column_1632 Column_1633 Column_1634 Column_1635 Column_1636 Column_1637 Column_1638 Column_1639 Column_1640 Column_1641 Column_1642 Column_1643 Column_1644 Column_1645 Column_1646 Column_1647 Column_1648 Column_1649 Column_1650 Column_1651 Column_1652 Column_1653 Column_1654 Column_1655 Column_1656 Column_1657 Column_1658 Column_1659 Column_1660 Column_1661 Column_1662 Column_1663 Column_1664 Column_1665 Column_1666 Column_1667 Column_1668 Column_1669 Column_1670 Column_1671 Column_1672 Column_1673 Column_1674 Column_1675 Column_1676 Column_1677 Column_1678 Column_1679 Column_1680 Column_1681 Column_1682 Column_1683 Column_1684 Column_1685 Column_1686 Column_1687 Column_1688 Column_1689 Column_1690 Column_1691 Column_1692 Column_1693 Column_1694 Column_1695 Column_1696 Column_1697 Column_1698 Column_1699 Column_1700 Column_1701 Column_1702 Column_1703 Column_1704 Column_1705 Column_1706 Column_1707 Column_1708 Column_1709 Column_1710 Column_1711 Column_1712 Column_1713 Column_1714 Column_1715 Column_1716 Column_1717 Column_1718 Column_1719 Column_1720 Column_1721 Column_1722 Column_1723 Column_1724 Column_1725 Column_1726 Column_1727 Column_1728 Column_1729 Column_1730 Column_1731 Column_1732 Column_1733 Column_1734 Column_1735 Column_1736 Column_1737 Column_1738 Column_1739 Column_1740 Column_1741 Column_1742 Column_1743 Column_1744 Column_1745 Column_1746 Column_1747 Column_1748 Column_1749 Column_1750 Column_1751 Column_1752 Column_1753 Column_1754 Column_1755 Column_1756 Column_1757 Column_1758 Column_1759 Column_1760 Column_1761 Column_1762 Column_1763 Column_1764 Column_1765 Column_1766 Column_1767 Column_1768 Column_1769 Column_1770 Column_1771 Column_1772 Column_1773 Column_1774 Column_1775 Column_1776 Column_1777 Column_1778 Column_1779 Column_1780 Column_1781 Column_1782 Column_1783 Column_1784 Column_1785 Column_1786 Column_1787 Column_1788 Column_1789 Column_1790 Column_1791 Column_1792 Column_1793 Column_1794 Column_1795 Column_1796 Column_1797 Column_1798 Column_1799 Column_1800 Column_1801 Column_1802 Column_1803 Column_1804 Column_1805 Column_1806 Column_1807 Column_1808 Column_1809 Column_1810 Column_1811 Column_1812 Column_1813 Column_1814 Column_1815 Column_1816 Column_1817 Column_1818 Column_1819 Column_1820 Column_1821 Column_1822 Column_1823 Column_1824 Column_1825 Column_1826 Column_1827 Column_1828 Column_1829 Column_1830 Column_1831 Column_1832 Column_1833 Column_1834 Column_1835 Column_1836 Column_1837 Column_1838 Column_1839 Column_1840 Column_1841 Column_1842 Column_1843 Column_1844 Column_1845 Column_1846 Column_1847 Column_1848 Column_1849 Column_1850 Column_1851 Column_1852 Column_1853 Column_1854 Column_1855 Column_1856 Column_1857 Column_1858 Column_1859 Column_1860 Column_1861 Column_1862 Column_1863 Column_1864 Column_1865 Column_1866 Column_1867 Column_1868 Column_1869 Column_1870 Column_1871 Column_1872 Column_1873 Column_1874 Column_1875 Column_1876 Column_1877 Column_1878 Column_1879 Column_1880 Column_1881 Column_1882 Column_1883 Column_1884 Column_1885 Column_1886 Column_1887 Column_1888 Column_1889 Column_1890 Column_1891 Column_1892 Column_1893 Column_1894 Column_1895 Column_1896 Column_1897 Column_1898 Column_1899 Column_1900 Column_1901 Column_1902 Column_1903 Column_1904 Column_1905 Column_1906 Column_1907 Column_1908 Column_1909 Column_1910 Column_1911 Column_1912 Column_1913 Column_1914 Column_1915 Column_1916 Column_1917 Column_1918 Column_1919 Column_1920 Column_1921 Column_1922 Column_1923 Column_1924 Column_1925 Column_1926 Column_1927 Column_1928 Column_1929 Column_1930 Column_1931 Column_1932 Column_1933 Column_1934 Column_1935 Column_1936 Column_1937 Column_1938 Column_1939 Column_1940 Column_1941 Column_1942 Column_1943 Column_1944 Column_1945 Column_1946 Column_1947 Column_1948 Column_1949 Column_1950 Column_1951 Column_1952 Column_1953 Column_1954 Column_1955 Column_1956 Column_1957 Column_1958 Column_1959 Column_1960 Column_1961 Column_1962 Column_1963 Column_1964 Column_1965 Column_1966 Column_1967 Column_1968 Column_1969 Column_1970 Column_1971 Column_1972 Column_1973 Column_1974 Column_1975 Column_1976 Column_1977 Column_1978 Column_1979 Column_1980 Column_1981 Column_1982 Column_1983 Column_1984 Column_1985 Column_1986 Column_1987 Column_1988 Column_1989 Column_1990 Column_1991 Column_1992 Column_1993 Column_1994 Column_1995 Column_1996 Column_1997 Column_1998 Column_1999 Column_2000 Column_2001 Column_2002 Column_2003 Column_2004 Column_2005 Column_2006 Column_2007 Column_2008 Column_2009 Column_2010 Column_2011 Column_2012 Column_2013 Column_2014 Column_2015 Column_2016 Column_2017 Column_2018 Column_2019 Column_2020 Column_2021 Column_2022 Column_2023 Column_2024 Column_2025 Column_2026 Column_2027 Column_2028 Column_2029 Column_2030 Column_2031 Column_2032 Column_2033 Column_2034 Column_2035 Column_2036 Column_2037 Column_2038 Column_2039 Column_2040 Column_2041 Column_2042 Column_2043 Column_2044 Column_2045 Column_2046 Column_2047 Column_2048 Column_2049 Column_2050 Column_2051 Column_2052 Column_2053 Column_2054 Column_2055 Column_2056 Column_2057 Column_2058 Column_2059 Column_2060 Column_2061 Column_2062 Column_2063 Column_2064 Column_2065 Column_2066 Column_2067 Column_2068 Column_2069 Column_2070 Column_2071 Column_2072 Column_2073 Column_2074 Column_2075 Column_2076 Column_2077 Column_2078 Column_2079 Column_2080 Column_2081 Column_2082 Column_2083 Column_2084 Column_2085 Column_2086 Column_2087 Column_2088 Column_2089 Column_2090 Column_2091 Column_2092 Column_2093 Column_2094 Column_2095 Column_2096 Column_2097 Column_2098 Column_2099 Column_2100 Column_2101 Column_2102 Column_2103 Column_2104 Column_2105 Column_2106 Column_2107 Column_2108 Column_2109 Column_2110 Column_2111 Column_2112 Column_2113 Column_2114 Column_2115 Column_2116 Column_2117 Column_2118 Column_2119 Column_2120 Column_2121 Column_2122 Column_2123 Column_2124 Column_2125 Column_2126 Column_2127 Column_2128 Column_2129 Column_2130 Column_2131 Column_2132 Column_2133 Column_2134 Column_2135 Column_2136 Column_2137 Column_2138 Column_2139 Column_2140 Column_2141 Column_2142 Column_2143 Column_2144 Column_2145 Column_2146 Column_2147 Column_2148 Column_2149 Column_2150 Column_2151 Column_2152 Column_2153 Column_2154 Column_2155 Column_2156 Column_2157 Column_2158 Column_2159 Column_2160 Column_2161 Column_2162 Column_2163 Column_2164 Column_2165 Column_2166 Column_2167 Column_2168 Column_2169 Column_2170 Column_2171 Column_2172 Column_2173 Column_2174 Column_2175 Column_2176 Column_2177 Column_2178 Column_2179 Column_2180 Column_2181 Column_2182 Column_2183 Column_2184 Column_2185 Column_2186 Column_2187 Column_2188 Column_2189 Column_2190 Column_2191 Column_2192 Column_2193 Column_2194 Column_2195 Column_2196 Column_2197 Column_2198 Column_2199 Column_2200 Column_2201 Column_2202 Column_2203 Column_2204 Column_2205 Column_2206 Column_2207 Column_2208 Column_2209 Column_2210 Column_2211 Column_2212 Column_2213 Column_2214 Column_2215 Column_2216 Column_2217 Column_2218 Column_2219 Column_2220 Column_2221 Column_2222 Column_2223 Column_2224 Column_2225 Column_2226 Column_2227 Column_2228 Column_2229 Column_2230 Column_2231 Column_2232 Column_2233 Column_2234 Column_2235 Column_2236 Column_2237 Column_2238 Column_2239 Column_2240 Column_2241 Column_2242 Column_2243 Column_2244 Column_2245 Column_2246 Column_2247 Column_2248 Column_2249 Column_2250 Column_2251 Column_2252 Column_2253 Column_2254 Column_2255 Column_2256 Column_2257 Column_2258 Column_2259 Column_2260 Column_2261 Column_2262 Column_2263 Column_2264 Column_2265 Column_2266 Column_2267 Column_2268 Column_2269 Column_2270 Column_2271 Column_2272 Column_2273 Column_2274 Column_2275 Column_2276 Column_2277 Column_2278 Column_2279 Column_2280 Column_2281 Column_2282 Column_2283 Column_2284 Column_2285 Column_2286 Column_2287 Column_2288 Column_2289 Column_2290 Column_2291 Column_2292 Column_2293 Column_2294 Column_2295 Column_2296 Column_2297 Column_2298 Column_2299 Column_2300 Column_2301 Column_2302 Column_2303 Column_2304 Column_2305 Column_2306 Column_2307 Column_2308 Column_2309 Column_2310 Column_2311 Column_2312 Column_2313 Column_2314 Column_2315 Column_2316 Column_2317 Column_2318 Column_2319 Column_2320 Column_2321 Column_2322 Column_2323 Column_2324 Column_2325 Column_2326 Column_2327 Column_2328 Column_2329 Column_2330 Column_2331 Column_2332 Column_2333 Column_2334 Column_2335 Column_2336 Column_2337 Column_2338 Column_2339 Column_2340 Column_2341 Column_2342 Column_2343 Column_2344 Column_2345 Column_2346 Column_2347 Column_2348 Column_2349 Column_2350 Column_2351 Column_2352 Column_2353 Column_2354 Column_2355 Column_2356 Column_2357 Column_2358 Column_2359 Column_2360 Column_2361 Column_2362 Column_2363 Column_2364 Column_2365 Column_2366 Column_2367 Column_2368 Column_2369 Column_2370 Column_2371 Column_2372 Column_2373 Column_2374 Column_2375 Column_2376 Column_2377 Column_2378 Column_2379 Column_2380 Column_2381 Column_2382 Column_2383 Column_2384 Column_2385 Column_2386 Column_2387 Column_2388 Column_2389 Column_2390 Column_2391 Column_2392 Column_2393 Column_2394 Column_2395 Column_2396 Column_2397 Column_2398 Column_2399 Column_2400 Column_2401 Column_2402 Column_2403 Column_2404 Column_2405 Column_2406 Column_2407 Column_2408 Column_2409 Column_2410 Column_2411 Column_2412 Column_2413 Column_2414 Column_2415 Column_2416 Column_2417 Column_2418 Column_2419 Column_2420 Column_2421 Column_2422 Column_2423 Column_2424 Column_2425 Column_2426 Column_2427 Column_2428 Column_2429 Column_2430 Column_2431 Column_2432 Column_2433 Column_2434 Column_2435 Column_2436 Column_2437 Column_2438 Column_2439 Column_2440 Column_2441 Column_2442 Column_2443 Column_2444 Column_2445 Column_2446 Column_2447 Column_2448 Column_2449 Column_2450 Column_2451 Column_2452 Column_2453 Column_2454 Column_2455 Column_2456 Column_2457 Column_2458 Column_2459 Column_2460 Column_2461 Column_2462 Column_2463 Column_2464 Column_2465 Column_2466 Column_2467 Column_2468 Column_2469 Column_2470 Column_2471 Column_2472 Column_2473 Column_2474 Column_2475 Column_2476 Column_2477 Column_2478 Column_2479 Column_2480 Column_2481 Column_2482 Column_2483 Column_2484 Column_2485 Column_2486 Column_2487 Column_2488 Column_2489 Column_2490 Column_2491 Column_2492 Column_2493 Column_2494 Column_2495 Column_2496 Column_2497 Column_2498 Column_2499 Column_2500 Column_2501 Column_2502 Column_2503 Column_2504 Column_2505 Column_2506 Column_2507 Column_2508 Column_2509 Column_2510 Column_2511 Column_2512 Column_2513 Column_2514 Column_2515 Column_2516 Column_2517 Column_2518 Column_2519 Column_2520 Column_2521 Column_2522 Column_2523 Column_2524 Column_2525 Column_2526 Column_2527 Column_2528 Column_2529 Column_2530 Column_2531 Column_2532 Column_2533 Column_2534 Column_2535 Column_2536 Column_2537 Column_2538 Column_2539 Column_2540 Column_2541 Column_2542 Column_2543 Column_2544 Column_2545 Column_2546 Column_2547 Column_2548 Column_2549 Column_2550 Column_2551 Column_2552 Column_2553 Column_2554 Column_2555 Column_2556 Column_2557 Column_2558 Column_2559 Column_2560 Column_2561 Column_2562 Column_2563 Column_2564 Column_2565 Column_2566 Column_2567 Column_2568 Column_2569 Column_2570 Column_2571 Column_2572 Column_2573 Column_2574 Column_2575 Column_2576 Column_2577 Column_2578 Column_2579 Column_2580 Column_2581 Column_2582 Column_2583 Column_2584 Column_2585 Column_2586 Column_2587 Column_2588 Column_2589 Column_2590 Column_2591 Column_2592 Column_2593 Column_2594 Column_2595 Column_2596 Column_2597 Column_2598 Column_2599 Column_2600 Column_2601 Column_2602 Column_2603 Column_2604 Column_2605 Column_2606 Column_2607 Column_2608 Column_2609 Column_2610 Column_2611 Column_2612 Column_2613 Column_2614 Column_2615 Column_2616 Column_2617 Column_2618 Column_2619 Column_2620 Column_2621 Column_2622 Column_2623 Column_2624 Column_2625 Column_2626 Column_2627 Column_2628 Column_2629 Column_2630 Column_2631 Column_2632 Column_2633 Column_2634 Column_2635 Column_2636 Column_2637 Column_2638 Column_2639 Column_2640 Column_2641 Column_2642 Column_2643 Column_2644 Column_2645 Column_2646 Column_2647 Column_2648 Column_2649 Column_2650 Column_2651 Column_2652 Column_2653 Column_2654 Column_2655 Column_2656 Column_2657 Column_2658 Column_2659 Column_2660 Column_2661 Column_2662 Column_2663 Column_2664
feature_infos=[12.478389739990234:23.958324432373047] [0.4609927237033844:1] [0.44927239418029785:0.97943294048309326] [0.4233611524105072:0.96672654151916504] [0.41626060009002686:0.96009880304336548] [0.40679007768630981:0.87863636016845703] [0.40446853637695312:0.86443179845809937] [0.39404818415641785:0.86355471611022949] [0.38980671763420105:0.86169427633285522] [0.3881155252456665:0.85792392492294312] [0.37872278690338135:0.8567923903465271] [0.36510545015335083:0.85575592517852783] [0.361683189868927:0.84873437881469727] [0.35159125924110413:0.83877080678939819] [0.34892475605010986:0.83787274360656738] [0.34472677111625671:0.8361775279045105] [0.3432464599609375:0.83542084693908691] [0.33949452638626099:0.83441376686096191] [0.32513990998268127:0.83400565385818481] [0.31859460473060608:0.8286135196685791] [0.31662255525588989:0.82439625263214111] [0.31616222858428955:0.82407218217849731] [0.31562456488609314:0.82145452499389648] [0.31489250063896179:0.8166925311088562] [0.29095107316970825:0.81357896327972412] [0.28820601105690002:0.81245577335357666] [0.28665238618850708:0.81218492984771729] [0.28011149168014526:0.80857062339782715] [0.27272087335586548:0.80592751502990723] [0.27142643928527832:0.80418616533279419] [0.27109920978546143:0.79719460010528564] [0.26894697546958923:0.79581618309020996] [0.26802575588226318:0.79493224620819092] [0.26628080010414124:0.78826844692230225] [0.26606395840644836:0.78554689884185791] [0.26236146688461304:0.78461134433746338] [0.26082813739776611:0.78284037113189697] [0.26074069738388062:0.78214740753173828] [0.24896441400051117:0.78113424777984619] [0.24675332009792328:0.77968621253967285] [0.24477274715900421:0.77966809272766113] [0.24243748188018799:0.77549052238464355] [0.23437508940696716:0.77515816688537598] [0.23416362702846527:0.77401584386825562] [0.2305227518081665:0.76915955543518066] [0.22672268748283386:0.76732075214385986] [0.22517785429954529:0.76595741510391235] [0.22050322592258453:0.76534813642501831] [0.21961031854152679:0.7644687294960022] [0.21942093968391418:0.76405042409896851] [0.21939559280872345:0.76288992166519165] [0.21605528891086578:0.76288282871246338] [0.21601390838623047:0.76062691211700439] [0.21546284854412079:0.76021420955657959] [0.21264566481113434:0.75980818271636963] [0.21221277117729187:0.75941848754882812] [0.21134240925312042:0.75623536109924316] [0.20976755023002625:0.75428807735443115] [0.20596930384635925:0.75303322076797485] [0.20584353804588318:0.75291061401367188] [0.20435827970504761:0.75143426656723022] [0.20262175798416138:0.75106579065322876] [0.20260098576545715:0.74989938735961914] [0.20095694065093994:0.74900674819946289] [0.20006892085075378:0.74806642532348633] [0.19604411721229553:0.74799740314483643] [0.19437330961227417:0.74783051013946533] [0.19129398465156555:0.74771851301193237] [0.19076827168464661:0.74749338626861572] [0.18814502656459808:0.7472413182258606] [0.18620038032531738:0.74701637029647827] [0.18421050906181335:0.74573636054992676] [0.18396487832069397:0.7445824146270752] [0.18030872941017151:0.74421060085296631] [0.17757818102836609:0.74391591548919678] [0.17533862590789795:0.73720598220825195] [0.1743524968624115:0.73674631118774414] [0.17424127459526062:0.73656058311462402] [0.17051826417446136:0.73229598999023438] [0.17047572135925293:0.73198223114013672] [0.1661878228187561:0.7303890585899353] [0.16546328365802765:0.73037391901016235] [0.16290028393268585:0.72986620664596558] [0.16134718060493469:0.72925496101379395] [0.16120694577693939:0.72776442766189575] [0.15927159786224365:0.72726458311080933] [0.15816198289394379:0.72651076316833496] [0.15738192200660706:0.72559177875518799] [0.15727764368057251:0.72534692287445068] [0.15564258396625519:0.72352814674377441] [0.15512663125991821:0.72262108325958252] [0.15430419147014618:0.72247350215911865] [0.15349346399307251:0.72063851356506348] [0.15058180689811707:0.71932488679885864] [0.14619196951389313:0.71669501066207886] [0.14249785244464874:0.71492445468902588] [0.14181429147720337:0.71445721387863159] [0.14174291491508484:0.71422141790390015] [0.13523231446743011:0.71221423149108887] [0.13516411185264587:0.71079361438751221] [0.13190051913261414:0.70914357900619507] [0.13146829605102539:0.70827245712280273] [0.13132801651954651:0.70785462856292725] [0.12778393924236298:0.70588535070419312] [0.12431074678897858:0.70531833171844482] [0.12402680516242981:0.70502829551696777] [0.12329807877540588:0.70501655340194702] [0.12289919704198837:0.70409214496612549] [0.12250435352325439:0.70331180095672607] [0.1193811371922493:0.70304572582244873] [0.1165960505604744:0.7005997896194458] [0.1163068413734436:0.69816595315933228] [0.11575150489807129:0.69731253385543823] [0.11573120951652527:0.69566130638122559] [0.11475649476051331:0.69469964504241943] [0.11408575624227524:0.69382196664810181] [0.11249392479658127:0.69319534301757812] [0.11243294924497604:0.69301998615264893] [0.10881418734788895:0.69138455390930176] [0.10682886838912964:0.68931961059570312] [0.10636090487241745:0.68922322988510132] [0.10629619657993317:0.68715006113052368] [0.10555665194988251:0.68588912487030029] [0.10547716170549393:0.68404614925384521] [0.10366597771644592:0.68190014362335205] [0.10313016176223755:0.68185591697692871] [0.1001209169626236:0.68064218759536743] [0.097332403063774109:0.67848551273345947] [0.096914157271385193:0.67830312252044678] [0.096326977014541626:0.67786890268325806] [0.096229270100593567:0.67723941802978516] [0.095987819135189056:0.67715328931808472] [0.095946900546550751:0.67676007747650146] [0.095824010670185089:0.67519909143447876] [0.095566853880882263:0.67214089632034302] [0.095313817262649536:0.67139792442321777] [0.094961583614349365:0.6712384819984436] [0.094521015882492065:0.66830742359161377] [0.094141945242881775:0.66562366485595703] [0.092326872050762177:0.66543221473693848] [0.092305645346641541:0.66529309749603271] [0.09167836606502533:0.66474080085754395] [0.09142351895570755:0.66420876979827881] [0.091344684362411499:0.66172897815704346] [0.091234609484672546:0.66126060485839844] [0.089172840118408203:0.66007113456726074] [0.088943369686603546:0.65987902879714966] [0.087150245904922485:0.65987813472747803] [0.084326386451721191:0.65836524963378906] [0.0840616375207901:0.657356858253479] [0.082992605865001678:0.65673667192459106] [0.082364216446876526:0.65655636787414551] [0.082049697637557983:0.65621435642242432] [0.08189857006072998:0.65569305419921875] [0.079975351691246033:0.65531802177429199] [0.079851798713207245:0.65485000610351562] [0.077746227383613586:0.65439903736114502] [0.074592940509319305:0.65381252765655518] [0.073120370507240295:0.65283685922622681] [0.072689071297645569:0.65271496772766113] [0.071229584515094757:0.65260732173919678] [0.070638515055179596:0.65237802267074585] [0.069941654801368713:0.65237069129943848] [0.069631658494472504:0.65172922611236572] [0.068985432386398315:0.65128064155578613] [0.067917048931121826:0.65105700492858887] [0.067606866359710693:0.64855742454528809] [0.063658222556114197:0.64829641580581665] [0.060628995299339294:0.64803844690322876] [0.06012444943189621:0.64795076847076416] [0.059919435530900955:0.64743852615356445] [0.059718795120716095:0.64725708961486816] [0.059708390384912491:0.64673322439193726] [0.058777164667844772:0.64593791961669922] [0.058063067495822906:0.64455288648605347] [0.057633101940155029:0.64384520053863525] [0.057392552495002747:0.64367550611495972] [0.057078555226325989:0.64315855503082275] [0.056323960423469543:0.64284980297088623] [0.055591803044080734:0.64253318309783936] [0.054817140102386475:0.64130616188049316] [0.054387189447879791:0.64128768444061279] [0.053345143795013428:0.64107745885848999] [0.053087130188941956:0.64097809791564941] [0.051707662642002106:0.64083176851272583] [0.050944700837135315:0.64031928777694702] [0.049647733569145203:0.64006108045578003] [0.049186643213033676:0.64005863666534424] [0.048826862126588821:0.63945639133453369] [0.04864400252699852:0.6387021541595459] [0.04739866778254509:0.6385807991027832] [0.046620909124612808:0.63814032077789307] [0.045807529240846634:0.63719666004180908] [0.045794449746608734:0.6367642879486084] [0.045686066150665283:0.63548028469085693] [0.045323189347982407:0.63486981391906738] [0.045161906629800797:0.63425678014755249] [0.045016065239906311:0.63356524705886841] [0.044965922832489014:0.63348686695098877] [0.043638750910758972:0.63324260711669922] [0.043075632303953171:0.63314676284790039] [0.04305112361907959:0.63303530216217041] [0.042322449386119843:0.63300490379333496] [0.041622884571552277:0.6328015923500061] [0.041430309414863586:0.63194596767425537] [0.037397421896457672:0.63184726238250732] [0.036966901272535324:0.63060623407363892] [0.036923129111528397:0.62958240509033203] [0.036428108811378479:0.6286359429359436] [0.036200203001499176:0.62839514017105103] [0.036071047186851501:0.62826603651046753] [0.035788886249065399:0.62790966033935547] [0.035014696419239044:0.62623953819274902] [0.03487575426697731:0.62591803073883057] [0.034083910286426544:0.62572234869003296] [0.032919488847255707:0.62548339366912842] [0.031571470201015472:0.62520813941955566] [0.030755296349525452:0.62456011772155762] [0.030323274433612823:0.62309885025024414] [0.029376599937677383:0.62298357486724854] [0.029112232849001884:0.62133884429931641] [0.029029743745923042:0.62015450000762939] [0.029026884585618973:0.61953580379486084] [0.028588900342583656:0.61904966831207275] [0.027926623821258545:0.61893355846405029] [0.025846688076853752:0.61773431301116943] [0.025314196944236755:0.61770963668823242] [0.024441247805953026:0.61725878715515137] [0.024292889982461929:0.61689245700836182] [0.024116447195410728:0.61527419090270996] [0.024044496938586235:0.61444437503814697] [0.023799309507012367:0.61433529853820801] [0.023193772882223129:0.61420744657516479] [0.021724086254835129:0.61414456367492676] [0.021109338849782944:0.61411654949188232] [0.020396023988723755:0.61356836557388306] [0.019727706909179688:0.61353874206542969] [0.018471010029315948:0.61257052421569824] [0.017515335232019424:0.61256605386734009] [0.017488140612840652:0.61177480220794678] [0.017112014815211296:0.60993731021881104] [0.015988364815711975:0.60891664028167725] [0.014942631125450134:0.60878074169158936] [0.014838069677352905:0.60875582695007324] [0.013934964314103127:0.60782802104949951] [0.013900158926844597:0.60724872350692749] [0.012109484523534775:0.60722392797470093] [0.011594083160161972:0.60690295696258545] [0.011251671239733696:0.60601049661636353] [0.011012338101863861:0.60478878021240234] [0.010147335007786751:0.60438787937164307] [0.0096351858228445053:0.60284250974655151] [0.0088524371385574341:0.60272538661956787] [0.0073511227965354919:0.60226142406463623] [0.0071129631251096725:0.60200506448745728] [0.0063960384577512741:0.60186713933944702] [0.0057115443050861359:0.60158169269561768] [0.0055825598537921906:0.60046839714050293] [0.0055198026821017265:0.60021519660949707] [0.0051886513829231262:0.59923774003982544] [0.0051815994083881378:0.5987740159034729] [0.0051742112264037132:0.59844124317169189] [0.0036887917667627335:0.59795039892196655] [0.0031264908611774445:0.59706860780715942] [0.0029930374585092068:0.59646844863891602] [-7.534027099609375e-05:0.59590768814086914] [-0.001751970499753952:0.59553706645965576] [-0.0018096957355737686:0.59540605545043945] [-0.0020477734506130219:0.59436488151550293] [-0.0021239947527647018:0.59386914968490601] [-0.0036048144102096558:0.59366440773010254] [-0.0044316183775663376:0.5934179425239563] [-0.0049499925225973129:0.59314930438995361] [-0.0049661174416542053:0.59249591827392578] [-0.005214029923081398:0.59241616725921631] [-0.006322275847196579:0.59152907133102417] [-0.006687563844025135:0.59149169921875] [-0.0067997965961694717:0.59146493673324585] [-0.0068676918745040894:0.59121930599212646] [-0.0078922836109995842:0.59105092287063599] [-0.0088257389143109322:0.59048169851303101] [-0.0090610384941101074:0.58998572826385498] [-0.0093201678246259689:0.58956664800643921] [-0.010693660005927086:0.58943736553192139] [-0.013599557802081108:0.58874821662902832] [-0.014608986675739288:0.58701008558273315] [-0.014732403680682182:0.58669787645339966] [-0.014740088954567909:0.58625626564025879] [-0.015145569108426571:0.58611065149307251] [-0.015431351959705353:0.58591914176940918] [-0.016380941495299339:0.58584439754486084] [-0.016572285443544388:0.58337128162384033] [-0.016662364825606346:0.58307468891143799] [-0.016911163926124573:0.582874596118927] [-0.017759853973984718:0.58258819580078125] [-0.017930770292878151:0.58224058151245117] [-0.017988361418247223:0.58210861682891846] [-0.018575921654701233:0.58184242248535156] [-0.019392993301153183:0.58127033710479736] [-0.019852740690112114:0.58022814989089966] [-0.021552909165620804:0.5802074670791626] [-0.021674524992704391:0.57894706726074219] [-0.021773282438516617:0.57806360721588135] [-0.022096265107393265:0.57741570472717285] [-0.022297937422990799:0.57706546783447266] [-0.022627633064985275:0.57605993747711182] [-0.025267602875828743:0.57565551996231079] [-0.026000512763857841:0.57552808523178101] [-0.026225684210658073:0.57548230886459351] [-0.027799956500530243:0.57367813587188721] [-0.02797234058380127:0.57353854179382324] [-0.028894297778606415:0.57170915603637695] [-0.028991708531975746:0.57119190692901611] [-0.030096046626567841:0.57059156894683838] [-0.031022191047668457:0.56996738910675049] [-0.032819971442222595:0.56995981931686401] [-0.032899957150220871:0.56980264186859131] [-0.033471837639808655:0.56760478019714355] [-0.033471867442131042:0.56748998165130615] [-0.034169293940067291:0.56701529026031494] [-0.035637181252241135:0.56649714708328247] [-0.035793866962194443:0.56622481346130371] [-0.035886641591787338:0.56620967388153076] [-0.036361627280712128:0.56555831432342529] [-0.03671269491314888:0.56515204906463623] [-0.036776654422283173:0.56492328643798828] [-0.037559855729341507:0.56437087059020996] [-0.038180820643901825:0.56397676467895508] [-0.039435598999261856:0.56390058994293213] [-0.040829215198755264:0.56376451253890991] [-0.042579516768455505:0.56309473514556885] [-0.043152954429388046:0.56297731399536133] [-0.04344712570309639:0.56182277202606201] [-0.043685935437679291:0.56172287464141846] [-0.043869838118553162:0.56133449077606201] [-0.045074284076690674:0.56034517288208008] [-0.04584059864282608:0.55999815464019775] [-0.047001577913761139:0.55987566709518433] [-0.04841044545173645:0.55972576141357422] [-0.048843234777450562:0.55965781211853027] [-0.049437474459409714:0.55956846475601196] [-0.049957133829593658:0.55865204334259033] [-0.050790563225746155:0.55769383907318115] [-0.051339566707611084:0.55684900283813477] [-0.052252009510993958:0.55627322196960449] [-0.052715227007865906:0.55617815256118774] [-0.053730163723230362:0.55593025684356689] [-0.053837750107049942:0.55542105436325073] [-0.054507125169038773:0.5551261305809021] [-0.055914685130119324:0.55506181716918945] [-0.056921228766441345:0.55478924512863159] [-0.057463057339191437:0.55429685115814209] [-0.057805944234132767:0.55310523509979248] [-0.05821797251701355:0.55252933502197266] [-0.058659225702285767:0.55025863647460938] [-0.059256888926029205:0.54979228973388672] [-0.060162175446748734:0.54957515001296997] [-0.060184616595506668:0.54771071672439575] [-0.060198765248060226:0.54683351516723633] [-0.062404200434684753:0.54581892490386963] [-0.062601387500762939:0.54460650682449341] [-0.063093073666095734:0.5441928505897522] [-0.063119411468505859:0.54409503936767578] [-0.063620880246162415:0.54405516386032104] [-0.06365744024515152:0.54405057430267334] [-0.063763134181499481:0.54381120204925537] [-0.064286567270755768:0.54337859153747559] [-0.064633660018444061:0.54337280988693237] [-0.064694806933403015:0.54333806037902832] [-0.065742373466491699:0.54318761825561523] [-0.065909825265407562:0.54241478443145752] [-0.067073211073875427:0.54219567775726318] [-0.067476600408554077:0.54200255870819092] [-0.067546337842941284:0.54161751270294189] [-0.067638233304023743:0.54151248931884766] [-0.068500742316246033:0.54131519794464111] [-0.068646371364593506:0.53915202617645264] [-0.068762533366680145:0.53881782293319702] [-0.068808466196060181:0.53847134113311768] [-0.069565378129482269:0.53767108917236328] [-0.070041343569755554:0.53711557388305664] [-0.070548549294471741:0.53646314144134521] [-0.071278125047683716:0.53642845153808594] [-0.071516111493110657:0.53586935997009277] [-0.07181674987077713:0.53585624694824219] [-0.07362007349729538:0.53565514087677002] [-0.073664583265781403:0.53480559587478638] [-0.073781378567218781:0.5345834493637085] [-0.075961999595165253:0.53453987836837769] [-0.076362907886505127:0.53400349617004395] [-0.076566219329833984:0.53361576795578003] [-0.07684943825006485:0.53215873241424561] [-0.078218810260295868:0.53185474872589111] [-0.08012525737285614:0.53161072731018066] [-0.080740377306938171:0.53151166439056396] [-0.080949351191520691:0.53110945224761963] [-0.083092689514160156:0.53068101406097412] [-0.083581380546092987:0.53033894300460815] [-0.083730340003967285:0.52990341186523438] [-0.084139898419380188:0.52957695722579956] [-0.084587611258029938:0.5294569730758667] [-0.085039436817169189:0.52815032005310059] [-0.085706561803817749:0.52781033515930176] [-0.08656475692987442:0.52659463882446289] [-0.08657112717628479:0.52564907073974609] [-0.086609624326229095:0.52530872821807861] [-0.087267227470874786:0.5251460075378418] [-0.087415963411331177:0.52428734302520752] [-0.087996743619441986:0.52409040927886963] [-0.088119566440582275:0.52303719520568848] [-0.088769771158695221:0.52235746383666992] [-0.089993156492710114:0.52195221185684204] [-0.090467862784862518:0.5211450457572937] [-0.090649738907814026:0.52080237865447998] [-0.091121882200241089:0.52066820859909058] [-0.09190986305475235:0.52062141895294189] [-0.092250391840934753:0.52056610584259033] [-0.093238949775695801:0.5202065110206604] [-0.09373939037322998:0.51804018020629883] [-0.094974733889102936:0.51778113842010498] [-0.095137864351272583:0.51624417304992676] [-0.096590153872966766:0.51500183343887329] [-0.096854791045188904:0.51470506191253662] [-0.096901118755340576:0.51435625553131104] [-0.096916846930980682:0.51331371068954468] [-0.097399845719337463:0.51312065124511719] [-0.098235562443733215:0.51299381256103516] [-0.098449155688285828:0.51249396800994873] [-0.098931193351745605:0.51201713085174561] [-0.099000856280326843:0.5116499662399292] [-0.099007770419120789:0.51123905181884766] [-0.099944517016410828:0.51088607311248779] [-0.10043683648109436:0.50912004709243774] [-0.10213231295347214:0.50903517007827759] [-0.10266414284706116:0.50899690389633179] [-0.10424914956092834:0.50879907608032227] [-0.10504290461540222:0.50825875997543335] [-0.10531772673130035:0.50767463445663452] [-0.10628591477870941:0.50640779733657837] [-0.10690440237522125:0.50520437955856323] [-0.10705529153347015:0.50484001636505127] [-0.10729771107435226:0.50473207235336304] [-0.10746584087610245:0.50359916687011719] [-0.10820238292217255:0.50347065925598145] [-0.10841138660907745:0.50339823961257935] [-0.10858277976512909:0.50305634737014771] [-0.10877542197704315:0.50226098299026489] [-0.10904727876186371:0.50204139947891235] [-0.10907554626464844:0.50146448612213135] [-0.11005639284849167:0.5012744665145874] [-0.11044475436210632:0.50096595287322998] [-0.11063198745250702:0.50073611736297607] [-0.11068461835384369:0.50041115283966064] [-0.111468106508255:0.49968945980072021] [-0.1118946373462677:0.49956533312797546] [-0.11263478547334671:0.4994831383228302] [-0.11267896741628647:0.49941438436508179] [-0.11280664801597595:0.49893298745155334] [-0.11294597387313843:0.49847209453582764] [-0.11416220664978027:0.4983677864074707] [-0.11424365639686584:0.49771374464035034] [-0.11671490967273712:0.49724942445755005] [-0.11782613396644592:0.49666747450828552] [-0.11805333942174911:0.49650269746780396] [-0.11879924684762955:0.49619543552398682] [-0.11947940289974213:0.49580106139183044] [-0.12050818651914597:0.49500563740730286] [-0.12076279520988464:0.4940020740032196] [-0.12098431587219238:0.4929373562335968] [-0.12122467905282974:0.49280408024787903] [-0.12193361669778824:0.49280345439910889] [-0.12262405455112457:0.49247777462005615] [-0.12300886958837509:0.49220180511474609] [-0.12346068024635315:0.4911961555480957] [-0.1239193007349968:0.49079784750938416] [-0.12504972517490387:0.49068361520767212] [-0.12541314959526062:0.48985138535499573] [-0.12566107511520386:0.48753732442855835] [-0.12648817896842957:0.4870130717754364] [-0.12679716944694519:0.48603963851928711] [-0.12700280547142029:0.48586198687553406] [-0.12740728259086609:0.48470842838287354] [-0.1278097927570343:0.48418837785720825] [-0.12787213921546936:0.48409914970397949] [-0.12822479009628296:0.48407205939292908] [-0.12889657914638519:0.4837195873260498] [-0.12893089652061462:0.4830729067325592] [-0.12919020652770996:0.48300290107727051] [-0.12920376658439636:0.48262867331504822] [-0.12953650951385498:0.4825369119644165] [-0.12963847815990448:0.48199009895324707] [-0.13011680543422699:0.48170268535614014] [-0.1317247599363327:0.48122763633728027] [-0.1320100724697113:0.48112195730209351] [-0.13321554660797119:0.48071837425231934] [-0.13337497413158417:0.48015183210372925] [-0.13390356302261353:0.47924011945724487] [-0.13391996920108795:0.4787156879901886] [-0.13547392189502716:0.478615403175354] [-0.13583008944988251:0.47741344571113586] [-0.13583679497241974:0.47740167379379272] [-0.13662508130073547:0.47726020216941833] [-0.13733842968940735:0.47543740272521973] [-0.13745859265327454:0.47507739067077637] [-0.13745962083339691:0.47482496500015259] [-0.1375289112329483:0.47470712661743164] [-0.13770663738250732:0.47402435541152954] [-0.13800720870494843:0.47364723682403564] [-0.13818454742431641:0.47329169511795044] [-0.13859818875789642:0.47328794002532959] [-0.13890525698661804:0.4724389910697937] [-0.13899096846580505:0.47237282991409302] [-0.13910555839538574:0.47220069169998169] [-0.1391696035861969:0.4719175398349762] [-0.13924601674079895:0.47185662388801575] [-0.1392948180437088:0.47184610366821289] [-0.13961052894592285:0.47028088569641113] [-0.14020253717899323:0.47027641534805298] [-0.14051201939582825:0.46900299191474915] [-0.14270558953285217:0.46787461638450623] [-0.14284786581993103:0.46698278188705444] [-0.14307394623756409:0.46605443954467773] [-0.14309573173522949:0.46539276838302612] [-0.14406229555606842:0.46505901217460632] [-0.14423161745071411:0.46454659104347229] [-0.14448687434196472:0.46387630701065063] [-0.14471456408500671:0.46359860897064209] [-0.14492341876029968:0.46359056234359741] [-0.144980788230896:0.46327835321426392] [-0.14557245373725891:0.46286267042160034] [-0.14672133326530457:0.46246176958084106] [-0.14672864973545074:0.46233993768692017] [-0.14778557419776917:0.46174755692481995] [-0.14869245886802673:0.46080562472343445] [-0.14873480796813965:0.4605356752872467] [-0.14883999526500702:0.46044632792472839] [-0.14900419116020203:0.46034026145935059] [-0.15099146962165833:0.45986881852149963] [-0.1512470543384552:0.45922821760177612] [-0.1517803966999054:0.45919165015220642] [-0.15258298814296722:0.45850631594657898] [-0.1527617871761322:0.45849204063415527] [-0.15280231833457947:0.45846828818321228] [-0.15299606323242188:0.45802175998687744] [-0.15360242128372192:0.45763492584228516] [-0.15394240617752075:0.45643582940101624] [-0.15424749255180359:0.4552064836025238] [-0.1542818695306778:0.455177903175354] [-0.15497741103172302:0.4551539421081543] [-0.1552857905626297:0.45490983128547668] [-0.15547525882720947:0.45485222339630127] [-0.15548418462276459:0.45428481698036194] [-0.15567179024219513:0.45410650968551636] [-0.15577244758605957:0.45375695824623108] [-0.15584075450897217:0.45357304811477661] [-0.15604725480079651:0.45300543308258057] [-0.15688842535018921:0.452909916639328] [-0.15770567953586578:0.45268180966377258] [-0.15778034925460815:0.45264345407485962] [-0.15838877856731415:0.45246702432632446] [-0.15850280225276947:0.45131969451904297] [-0.15853515267372131:0.45119443535804749] [-0.15922927856445312:0.45088407397270203] [-0.15993008017539978:0.45064625144004822] [-0.15993854403495789:0.4506252110004425] [-0.1605425626039505:0.45039269328117371] [-0.16061070561408997:0.45033130049705505] [-0.16090629994869232:0.450309157371521] [-0.1610129326581955:0.44990569353103638] [-0.16205969452857971:0.44984501600265503] [-0.16206060349941254:0.44846248626708984] [-0.16218912601470947:0.44839537143707275] [-0.16277414560317993:0.44837132096290588] [-0.16383823752403259:0.44820079207420349] [-0.16386374831199646:0.44797712564468384] [-0.16399812698364258:0.44692862033843994] [-0.16438703238964081:0.44669929146766663] [-0.16451159119606018:0.44599753618240356] [-0.16481009125709534:0.44585639238357544] [-0.16491802036762238:0.44465214014053345] [-0.16507485508918762:0.44384688138961792] [-0.16522379219532013:0.44376912713050842] [-0.16536717116832733:0.44311463832855225] [-0.16600048542022705:0.44273912906646729] [-0.16622427105903625:0.44267800450325012] [-0.16699433326721191:0.44237715005874634] [-0.16712871193885803:0.44188645482063293] [-0.16718821227550507:0.44177418947219849] [-0.16721589863300323:0.44054082036018372] [-0.16764762997627258:0.4403979480266571] [-0.16766296327114105:0.44030028581619263] [-0.16839718818664551:0.4397297203540802] [-0.16874474287033081:0.43966773152351379] [-0.16889141499996185:0.43958425521850586] [-0.16981141269207001:0.43898236751556396] [-0.16993418335914612:0.43883609771728516] [-0.17018961906433105:0.43796846270561218] [-0.17074677348136902:0.43781870603561401] [-0.17127035558223724:0.43689426779747009] [-0.17129883170127869:0.43473276495933533] [-0.17146225273609161:0.43469732999801636] [-0.17223942279815674:0.43387052416801453] [-0.17274868488311768:0.43353167176246643] [-0.17283955216407776:0.43320047855377197] [-0.17294323444366455:0.43266752362251282] [-0.17318207025527954:0.43220227956771851] [-0.17329713702201843:0.43177330493927002] [-0.17363494634628296:0.43065887689590454] [-0.17376676201820374:0.43055087327957153] [-0.17454913258552551:0.43026000261306763] [-0.17534603178501129:0.4291873574256897] [-0.17587777972221375:0.42868512868881226] [-0.17685204744338989:0.42721790075302124] [-0.17873167991638184:0.42689016461372375] [-0.17914429306983948:0.42630442976951599] [-0.17915621399879456:0.42579632997512817] [-0.17915999889373779:0.42496150732040405] [-0.17945504188537598:0.42481726408004761] [-0.18009957671165466:0.42472511529922485] [-0.18018874526023865:0.4243047833442688] [-0.18095308542251587:0.42395442724227905] [-0.18108998239040375:0.4230404794216156] [-0.18186177313327789:0.422984778881073] [-0.18204742670059204:0.42279869318008423] [-0.18244987726211548:0.42264235019683838] [-0.18299958109855652:0.42260116338729858] [-0.1832868903875351:0.42249566316604614] [-0.18344590067863464:0.42215552926063538] [-0.18386930227279663:0.42100998759269714] [-0.18390169739723206:0.42097362875938416] [-0.18395191431045532:0.42041462659835815] [-0.18399035930633545:0.42004954814910889] [-0.18406462669372559:0.42002493143081665] [-0.18412600457668304:0.41962099075317383] [-0.18427307903766632:0.41929590702056885] [-0.18458247184753418:0.41914200782775879] [-0.18463250994682312:0.41837048530578613] [-0.18500515818595886:0.41832393407821655] [-0.18532858788967133:0.41823011636734009] [-0.1853821873664856:0.41750925779342651] [-0.18545717000961304:0.4170529842376709] [-0.18564409017562866:0.41679659485816956] [-0.18574115633964539:0.41593250632286072] [-0.18595227599143982:0.41537594795227051] [-0.18907646834850311:0.4152144193649292] [-0.18916898965835571:0.41395118832588196] [-0.18932253122329712:0.41367548704147339] [-0.19158975780010223:0.41339856386184692] [-0.19208633899688721:0.41314524412155151] [-0.19258978962898254:0.41305398941040039] [-0.19261996448040009:0.41280335187911987] [-0.19268308579921722:0.41272914409637451] [-0.19306850433349609:0.41165125370025635] [-0.19310609996318817:0.41045680642127991] [-0.19328208267688751:0.40991944074630737] [-0.19357317686080933:0.40937241911888123] [-0.19370509684085846:0.40912559628486633] [-0.19413803517818451:0.40859586000442505] [-0.19416230916976929:0.4083627462387085] [-0.19421392679214478:0.40732383728027344] [-0.19456483423709869:0.40721732378005981] [-0.19494417309761047:0.40656989812850952] [-0.19509568810462952:0.4058927595615387] [-0.1952613890171051:0.4058610200881958] [-0.19593310356140137:0.40540724992752075] [-0.19628623127937317:0.40485754609107971] [-0.19639649987220764:0.4045550525188446] [-0.19661809504032135:0.40440419316291809] [-0.19672670960426331:0.40360826253890991] [-0.19693954288959503:0.40353977680206299] [-0.19816708564758301:0.40233680605888367] [-0.19830372929573059:0.4020613431930542] [-0.19867393374443054:0.40027666091918945] [-0.19897125661373138:0.39971178770065308] [-0.19945381581783295:0.39854145050048828] [-0.19950881600379944:0.39827293157577515] [-0.20019325613975525:0.39814117550849915] [-0.20022961497306824:0.39807614684104919] [-0.20118457078933716:0.39791983366012573] [-0.20143908262252808:0.39728367328643799] [-0.20161205530166626:0.39693525433540344] [-0.20245000720024109:0.39643198251724243] [-0.20248019695281982:0.39635372161865234] [-0.20254600048065186:0.39593550562858582] [-0.20274657011032104:0.39588785171508789] [-0.20292294025421143:0.39494922757148743] [-0.20390570163726807:0.39441603422164917] [-0.20400264859199524:0.39436429738998413] [-0.20419612526893616:0.39376726746559143] [-0.20440530776977539:0.39365381002426147] [-0.20504230260848999:0.39348858594894409] [-0.20564368367195129:0.39221206307411194] [-0.20582401752471924:0.39190006256103516] [-0.2060469388961792:0.39165794849395752] [-0.20626264810562134:0.39142554998397827] [-0.20652547478675842:0.3911798894405365] [-0.20725095272064209:0.39060986042022705] [-0.20728792250156403:0.39056023955345154] [-0.20805364847183228:0.39045655727386475] [-0.20815286040306091:0.39040040969848633] [-0.20827317237854004:0.3900163471698761] [-0.20827341079711914:0.38875496387481689] [-0.20967477560043335:0.38849711418151855] [-0.210706427693367:0.38820713758468628] [-0.21075692772865295:0.38790223002433777] [-0.21120142936706543:0.38758206367492676] [-0.21128711104393005:0.38755238056182861] [-0.21223476529121399:0.38751044869422913] [-0.21239329874515533:0.38743489980697632] [-0.21246854960918427:0.38717365264892578] [-0.21307861804962158:0.38675951957702637] [-0.21338164806365967:0.38652849197387695] [-0.21357789635658264:0.38497591018676758] [-0.21367749571800232:0.38474079966545105] [-0.21389353275299072:0.38443315029144287] [-0.21416312456130981:0.38394534587860107] [-0.21473985910415649:0.38374543190002441] [-0.21517622470855713:0.38336265087127686] [-0.21535438299179077:0.38335156440734863] [-0.21544039249420166:0.38332033157348633] [-0.21573355793952942:0.38286274671554565] [-0.21587735414505005:0.38183069229125977] [-0.21591469645500183:0.38181018829345703] [-0.21613448858261108:0.38118484616279602] [-0.21619525551795959:0.38116145133972168] [-0.21620038151741028:0.38098278641700745] [-0.21627363562583923:0.38029980659484863] [-0.21670621633529663:0.37980899214744568] [-0.21690386533737183:0.37952837347984314] [-0.21693111956119537:0.37896862626075745] [-0.21726003289222717:0.37879365682601929] [-0.21743559837341309:0.37848576903343201] [-0.21762597560882568:0.37840571999549866] [-0.21769687533378601:0.37840193510055542] [-0.21787971258163452:0.37802252173423767] [-0.21803903579711914:0.37785530090332031] [-0.21820777654647827:0.37763309478759766] [-0.21850931644439697:0.37663695216178894] [-0.21859195828437805:0.37605506181716919] [-0.21897745132446289:0.37578418850898743] [-0.21912799775600433:0.37491181492805481] [-0.21921312808990479:0.37449648976325989] [-0.219400554895401:0.37434816360473633] [-0.21948207914829254:0.3737640380859375] [-0.22013193368911743:0.37342110276222229] [-0.22105428576469421:0.37215161323547363] [-0.22106960415840149:0.37191873788833618] [-0.22114846110343933:0.37165281176567078] [-0.22146512567996979:0.3716425895690918] [-0.22157666087150574:0.37102201581001282] [-0.22268646955490112:0.37072858214378357] [-0.22272628545761108:0.3705483078956604] [-0.22282108664512634:0.37022924423217773] [-0.22331191599369049:0.36992913484573364] [-0.22335240244865417:0.36974060535430908] [-0.22356146574020386:0.36970686912536621] [-0.2235848605632782:0.36967411637306213] [-0.22379046678543091:0.36964127421379089] [-0.22416695952415466:0.36946484446525574] [-0.22417332231998444:0.36920791864395142] [-0.22438609600067139:0.36871740221977234] [-0.22470632195472717:0.3682597279548645] [-0.22513169050216675:0.36818596720695496] [-0.22534196078777313:0.36798956990242004] [-0.2255738377571106:0.36793601512908936] [-0.22591926157474518:0.36732169985771179] [-0.22615936398506165:0.36660662293434143] [-0.22621910274028778:0.36521142721176147] [-0.22629740834236145:0.36481207609176636] [-0.22655218839645386:0.36379149556159973] [-0.22667109966278076:0.36290934681892395] [-0.22679093480110168:0.36276829242706299] [-0.2270721048116684:0.36255806684494019] [-0.22718480229377747:0.36086809635162354] [-0.2273811548948288:0.36060628294944763] [-0.22829535603523254:0.36055967211723328] [-0.22918884456157684:0.36048579216003418] [-0.22949942946434021:0.36024433374404907] [-0.22988852858543396:0.35990574955940247] [-0.23001694679260254:0.3588891327381134] [-0.23002192378044128:0.3588569164276123] [-0.23035258054733276:0.35801857709884644] [-0.23038715124130249:0.35764634609222412] [-0.23095104098320007:0.35669761896133423] [-0.23101037740707397:0.35663634538650513] [-0.23110255599021912:0.35587823390960693] [-0.23119044303894043:0.35549595952033997] [-0.2311965674161911:0.35476666688919067] [-0.2312004417181015:0.35439258813858032] [-0.23151096701622009:0.35366356372833252] [-0.23170122504234314:0.35275983810424805] [-0.23235785961151123:0.35275828838348389] [-0.23240223526954651:0.35263291001319885] [-0.23267006874084473:0.35191673040390015] [-0.23286062479019165:0.35180521011352539] [-0.23337177932262421:0.35172036290168762] [-0.23340620100498199:0.35107624530792236] [-0.23375803232192993:0.3509770929813385] [-0.2341640293598175:0.35015609860420227] [-0.23444421589374542:0.35011976957321167] [-0.23445755243301392:0.35000172257423401] [-0.23457320034503937:0.34980499744415283] [-0.234732985496521:0.34938827157020569] [-0.23535794019699097:0.3493117094039917] [-0.2354532778263092:0.34924626350402832] [-0.23572781682014465:0.34907239675521851] [-0.23584276437759399:0.34882235527038574] [-0.23587167263031006:0.34863176941871643] [-0.23602220416069031:0.34854143857955933] [-0.23609814047813416:0.34851843118667603] [-0.23614925146102905:0.3478131890296936] [-0.23621067404747009:0.34716871380805969] [-0.23624028265476227:0.34702503681182861] [-0.23663690686225891:0.34557598829269409] [-0.23669886589050293:0.34543365240097046] [-0.23677411675453186:0.34527891874313354] [-0.23678258061408997:0.34518083930015564] [-0.23753161728382111:0.3446803092956543] [-0.23797836899757385:0.34447973966598511] [-0.23800702393054962:0.3444061279296875] [-0.23818539083003998:0.34348714351654053] [-0.23862466216087341:0.34289500117301941] [-0.23885340988636017:0.34277191758155823] [-0.23951038718223572:0.34135487675666809] [-0.23979723453521729:0.34082126617431641] [-0.24014304578304291:0.34063661098480225] [-0.24093027412891388:0.33834749460220337] [-0.24162952601909637:0.33760157227516174] [-0.24180187284946442:0.33757901191711426] [-0.24217915534973145:0.33738729357719421] [-0.24226763844490051:0.33655095100402832] [-0.24230316281318665:0.33634349703788757] [-0.2427477091550827:0.33602029085159302] [-0.24309919774532318:0.33587533235549927] [-0.24345982074737549:0.3353792130947113] [-0.24350151419639587:0.33533072471618652] [-0.24394354224205017:0.33504194021224976] [-0.24467706680297852:0.33416357636451721] [-0.24484401941299438:0.33351379632949829] [-0.24492791295051575:0.33346617221832275] [-0.24502217769622803:0.33283066749572754] [-0.24552109837532043:0.33280360698699951] [-0.24569444358348846:0.33258995413780212] [-0.2459276020526886:0.33217912912368774] [-0.24618768692016602:0.33211022615432739] [-0.24636808037757874:0.33164319396018982] [-0.24638953804969788:0.331184983253479] [-0.24644112586975098:0.33083567023277283] [-0.24689193069934845:0.33066922426223755] [-0.24694898724555969:0.32996287941932678] [-0.2471109926700592:0.32994884252548218] [-0.24824856221675873:0.32961571216583252] [-0.24879065155982971:0.329537034034729] [-0.24920199811458588:0.32914656400680542] [-0.24940203130245209:0.32817402482032776] [-0.24951325356960297:0.32804334163665771] [-0.24961754679679871:0.3277093768119812] [-0.24963432550430298:0.3267788290977478] [-0.25003111362457275:0.32637795805931091] [-0.25019180774688721:0.32607981562614441] [-0.25021204352378845:0.32591301202774048] [-0.25026383996009827:0.32528460025787354] [-0.2505040168762207:0.32349991798400879] [-0.25079560279846191:0.32301214337348938] [-0.25266540050506592:0.32281357049942017] [-0.25275623798370361:0.32275760173797607] [-0.25276041030883789:0.321635901927948] [-0.25278937816619873:0.32124072313308716] [-0.25281289219856262:0.32066076993942261] [-0.25335931777954102:0.32041558623313904] [-0.25336316227912903:0.32013490796089172] [-0.25338724255561829:0.31972062587738037] [-0.25349408388137817:0.3196258544921875] [-0.25355258584022522:0.31838491559028625] [-0.25371506810188293:0.31821447610855103] [-0.25419914722442627:0.31742942333221436] [-0.25447461009025574:0.31741645932197571] [-0.25472068786621094:0.31696790456771851] [-0.25502946972846985:0.31655225157737732] [-0.25506430864334106:0.31631478667259216] [-0.25535571575164795:0.31631171703338623] [-0.25545048713684082:0.31609529256820679] [-0.25553905963897705:0.31558623909950256] [-0.2558828592300415:0.31497633457183838] [-0.25602605938911438:0.31496509909629822] [-0.25641095638275146:0.31409457325935364] [-0.25659137964248657:0.31390193104743958] [-0.25664374232292175:0.31322810053825378] [-0.25673514604568481:0.31314811110496521] [-0.25690647959709167:0.31188279390335083] [-0.25704666972160339:0.3111993670463562] [-0.25740313529968262:0.31101685762405396] [-0.25747841596603394:0.31081962585449219] [-0.25776121020317078:0.31074744462966919] [-0.2579384446144104:0.31049090623855591] [-0.25800970196723938:0.31035271286964417] [-0.25824779272079468:0.30970439314842224] [-0.25866109132766724:0.30877244472503662] [-0.25896519422531128:0.30841487646102905] [-0.2591765820980072:0.30836975574493408] [-0.25974071025848389:0.30834865570068359] [-0.26013141870498657:0.30796396732330322] [-0.26031279563903809:0.30779838562011719] [-0.26070785522460938:0.30754655599594116] [-0.26095631718635559:0.3074626624584198] [-0.2610226571559906:0.30735766887664795] [-0.2614777684211731:0.30709841847419739] [-0.26185232400894165:0.3062397837638855] [-0.26189395785331726:0.30577945709228516] [-0.26209753751754761:0.30567201972007751] [-0.26211172342300415:0.30482441186904907] [-0.26219817996025085:0.30446165800094604] [-0.26262235641479492:0.30400204658508301] [-0.26281040906906128:0.30355870723724365] [-0.26290467381477356:0.30249875783920288] [-0.26294991374015808:0.30115613341331482] [-0.26314947009086609:0.30081272125244141] [-0.26319089531898499:0.30056563019752502] [-0.26385259628295898:0.3003842830657959] [-0.26409637928009033:0.30038100481033325] [-0.26410818099975586:0.30018961429595947] [-0.26557475328445435:0.29942840337753296] [-0.26581487059593201:0.29913985729217529] [-0.26586836576461792:0.29888719320297241] [-0.26635357737541199:0.29749369621276855] [-0.26690471172332764:0.29698818922042847] [-0.26691216230392456:0.29657560586929321] [-0.26702627539634705:0.296539306640625] [-0.26718425750732422:0.29631447792053223] [-0.26767271757125854:0.29612326622009277] [-0.26771509647369385:0.29526636004447937] [-0.26802331209182739:0.29520601034164429] [-0.26830658316612244:0.29262852668762207] [-0.26836004853248596:0.29243645071983337] [-0.2689494788646698:0.2923358678817749] [-0.26931348443031311:0.29220223426818848] [-0.26963073015213013:0.29210826754570007] [-0.26968368887901306:0.29028940200805664] [-0.26987707614898682:0.28935548663139343] [-0.27031823992729187:0.28841805458068848] [-0.27045908570289612:0.28833162784576416] [-0.27053079009056091:0.2873786985874176] [-0.27082458138465881:0.28721931576728821] [-0.27098169922828674:0.28718289732933044] [-0.27124670147895813:0.28714853525161743] [-0.27150106430053711:0.286751389503479] [-0.27160555124282837:0.28588211536407471] [-0.27172249555587769:0.28573960065841675] [-0.27195620536804199:0.285483717918396] [-0.27226138114929199:0.28534454107284546] [-0.27283316850662231:0.28533944487571716] [-0.27307847142219543:0.28514787554740906] [-0.27356868982315063:0.28473469614982605] [-0.27368110418319702:0.28460383415222168] [-0.27376589179039001:0.28384894132614136] [-0.27383318543434143:0.28355422616004944] [-0.27391237020492554:0.28344804048538208] [-0.27412697672843933:0.28293982148170471] [-0.27435764670372009:0.28254780173301697] [-0.27435889840126038:0.2824939489364624] [-0.27436989545822144:0.28229343891143799] [-0.274544358253479:0.28145170211791992] [-0.27478647232055664:0.28108373284339905] [-0.27495148777961731:0.28104245662689209] [-0.27539259195327759:0.2803618311882019] [-0.2758382260799408:0.27985492348670959] [-0.2759697437286377:0.27946382761001587] [-0.27636343240737915:0.27939629554748535] [-0.27644100785255432:0.27925378084182739] [-0.2770124077796936:0.27889218926429749] [-0.2772732675075531:0.27843946218490601] [-0.2777441143989563:0.27750200033187866] [-0.27780979871749878:0.2772991955280304] [-0.27790623903274536:0.27655729651451111] [-0.27799588441848755:0.27640795707702637] [-0.27810901403427124:0.27629303932189941] [-0.27905797958374023:0.27626809477806091] [-0.27992898225784302:0.27554765343666077] [-0.28008723258972168:0.2744295597076416] [-0.2801777720451355:0.27440339326858521] [-0.28025031089782715:0.27412539720535278] [-0.28079670667648315:0.27303269505500793] [-0.28093397617340088:0.27288398146629333] [-0.28146204352378845:0.27146920561790466] [-0.2817760705947876:0.2705681324005127] [-0.28188449144363403:0.27050992846488953] [-0.28199031949043274:0.27028340101242065] [-0.28220003843307495:0.27009844779968262] [-0.28262725472450256:0.26953557133674622] [-0.28262794017791748:0.26950615644454956] [-0.28274792432785034:0.269427090883255] [-0.28342172503471375:0.26855200529098511] [-0.28347915410995483:0.26840069890022278] [-0.28380286693572998:0.2679382860660553] [-0.28381234407424927:0.26769387722015381] [-0.28402477502822876:0.26656705141067505] [-0.28451889753341675:0.26609161496162415] [-0.28471428155899048:0.26605457067489624] [-0.28485912084579468:0.26540544629096985] [-0.28494063019752502:0.26492905616760254] [-0.28524225950241089:0.2649151086807251] [-0.28572380542755127:0.26422080397605896] [-0.28575438261032104:0.26376396417617798] [-0.28637412190437317:0.26321309804916382] [-0.28666222095489502:0.26315832138061523] [-0.28715258836746216:0.26274806261062622] [-0.28742173314094543:0.26220870018005371] [-0.28757262229919434:0.26132547855377197] [-0.2876003086566925:0.26098233461380005] [-0.28768157958984375:0.26082277297973633] [-0.2877199649810791:0.25941962003707886] [-0.28807264566421509:0.25758355855941772] [-0.28818786144256592:0.25753244757652283] [-0.28843700885772705:0.25604215264320374] [-0.28879797458648682:0.25541913509368896] [-0.28944098949432373:0.25535351037979126] [-0.28968960046768188:0.25526899099349976] [-0.28976482152938843:0.25460797548294067] [-0.2900090217590332:0.2540343701839447] [-0.29168963432312012:0.25400444865226746] [-0.29199331998825073:0.25396257638931274] [-0.29248693585395813:0.25351643562316895] [-0.2931877076625824:0.25268465280532837] [-0.29393815994262695:0.25263506174087524] [-0.2939409613609314:0.25151520967483521] [-0.2939867377281189:0.25145041942596436] [-0.29402557015419006:0.25081068277359009] [-0.29421752691268921:0.25056406855583191] [-0.29441434144973755:0.25024443864822388] [-0.29488182067871094:0.24785852432250977] [-0.29596704244613647:0.24564370512962341] [-0.29618561267852783:0.24409590661525726] [-0.29621902108192444:0.24388113617897034] [-0.29675248265266418:0.24387834966182709] [-0.2968064546585083:0.24344532191753387] [-0.296852707862854:0.24336504936218262] [-0.29708179831504822:0.24292513728141785] [-0.29712638258934021:0.24196067452430725] [-0.29775941371917725:0.24107466638088226] [-0.2981889545917511:0.2402622401714325] [-0.29879465699195862:0.24023029208183289] [-0.29894310235977173:0.23963996767997742] [-0.29923450946807861:0.23863863945007324] [-0.29979762434959412:0.23851779103279114] [-0.3000149130821228:0.23811066150665283] [-0.30057400465011597:0.23757383227348328] [-0.30104833841323853:0.23676398396492004] [-0.30119192600250244:0.23627400398254395] [-0.30127060413360596:0.23614761233329773] [-0.30145722627639771:0.23555856943130493] [-0.30178272724151611:0.23508717119693756] [-0.30193424224853516:0.23495282232761383] [-0.30208811163902283:0.23427893221378326] [-0.30255341529846191:0.23366852104663849] [-0.30299839377403259:0.233542799949646] [-0.30310279130935669:0.23303471505641937] [-0.30333191156387329:0.23248034715652466] [-0.30370712280273438:0.23194146156311035] [-0.30371475219726562:0.23048609495162964] [-0.30371600389480591:0.23041567206382751] [-0.30438536405563354:0.22985836863517761] [-0.30450716614723206:0.22936913371086121] [-0.3052101731300354:0.22906243801116943] [-0.30536654591560364:0.22690647840499878] [-0.30542957782745361:0.22672443091869354] [-0.30547785758972168:0.22565293312072754] [-0.30585426092147827:0.22551019489765167] [-0.30615058541297913:0.2245839536190033] [-0.30666631460189819:0.22427213191986084] [-0.30712264776229858:0.22372618317604065] [-0.30727624893188477:0.22346851229667664] [-0.30748894810676575:0.22330528497695923] [-0.30757260322570801:0.22155913710594177] [-0.30763480067253113:0.22122398018836975] [-0.30765306949615479:0.22102724015712738] [-0.30774140357971191:0.22098548710346222] [-0.30780506134033203:0.2209208756685257] [-0.30787184834480286:0.220879927277565] [-0.30797126889228821:0.22076702117919922] [-0.30804219841957092:0.22047972679138184] [-0.30853396654129028:0.22035232186317444] [-0.30889564752578735:0.21901321411132812] [-0.30932769179344177:0.21869134902954102] [-0.30985468626022339:0.21833528578281403] [-0.3103385865688324:0.21766193211078644] [-0.31103891134262085:0.21719300746917725] [-0.3113882839679718:0.21556809544563293] [-0.31141766905784607:0.21402312815189362] [-0.31245878338813782:0.21376638114452362] [-0.31279060244560242:0.21315646171569824] [-0.31286859512329102:0.2124963104724884] [-0.31304579973220825:0.21198374032974243] [-0.31331634521484375:0.21191062033176422] [-0.31346487998962402:0.21102039515972137] [-0.31358110904693604:0.21019084751605988] [-0.31431615352630615:0.20988768339157104] [-0.31440836191177368:0.20924265682697296] [-0.31455278396606445:0.20901414752006531] [-0.3147428035736084:0.20893238484859467] [-0.31477716565132141:0.20866651833057404] [-0.31486529111862183:0.20830070972442627] [-0.31490522623062134:0.20829468965530396] [-0.31497853994369507:0.20776860415935516] [-0.31527715921401978:0.20646992325782776] [-0.31552159786224365:0.20646257698535919] [-0.31552711129188538:0.20589098334312439] [-0.31556174159049988:0.20582202076911926] [-0.31571730971336365:0.2058074027299881] [-0.31590467691421509:0.20499241352081299] [-0.31605303287506104:0.20448562502861023] [-0.31617134809494019:0.20444270968437195] [-0.31660538911819458:0.2038385421037674] [-0.31671127676963806:0.20324072241783142] [-0.31699606776237488:0.20231176912784576] [-0.3177376389503479:0.20223009586334229] [-0.31793609261512756:0.20214745402336121] [-0.31803399324417114:0.20192521810531616] [-0.31852012872695923:0.20014934241771698] [-0.31877702474594116:0.19935178756713867] [-0.31934875249862671:0.19929210841655731] [-0.32024627923965454:0.19885186851024628] [-0.32029357552528381:0.19805961847305298] [-0.32052099704742432:0.19712910056114197] [-0.32104840874671936:0.19709563255310059] [-0.32131251692771912:0.19647637009620667] [-0.32162377238273621:0.19571390748023987] [-0.32197567820549011:0.1949881911277771] [-0.32217583060264587:0.19402804970741272] [-0.32259562611579895:0.19346517324447632] [-0.32292693853378296:0.19336734712123871] [-0.32314550876617432:0.19184398651123047] [-0.32329279184341431:0.19174063205718994] [-0.32354182004928589:0.19171616435050964] [-0.32405433058738708:0.19093462824821472] [-0.3247377872467041:0.19080504775047302] [-0.3252539336681366:0.19061419367790222] [-0.32557079195976257:0.1899452805519104] [-0.3257080614566803:0.18848651647567749] [-0.3258826732635498:0.18806567788124084] [-0.32611170411109924:0.1876923143863678] [-0.32619276642799377:0.18571871519088745] [-0.32674747705459595:0.18486033380031586] [-0.32757538557052612:0.18377676606178284] [-0.32761269807815552:0.18353670835494995] [-0.3279280960559845:0.18350036442279816] [-0.32796061038970947:0.18198847770690918] [-0.32847708463668823:0.1810595840215683] [-0.32900413870811462:0.18044966459274292] [-0.32932117581367493:0.18017138540744781] [-0.32952880859375:0.17884035408496857] [-0.32988566160202026:0.17854240536689758] [-0.33020386099815369:0.17728665471076965] [-0.3302934467792511:0.17478352785110474] [-0.33035391569137573:0.17391811311244965] [-0.33043473958969116:0.17336015403270721] [-0.33043497800827026:0.17281666398048401] [-0.33062759041786194:0.17171594500541687] [-0.33074530959129333:0.17065314948558807] [-0.33094477653503418:0.17062228918075562] [-0.33100250363349915:0.16999399662017822] [-0.33111804723739624:0.16936537623405457] [-0.33131781220436096:0.16904230415821075] [-0.33161890506744385:0.16894041001796722] [-0.3320000171661377:0.16715219616889954] [-0.33230143785476685:0.16634070873260498] [-0.33251267671585083:0.16437587141990662] [-0.33264791965484619:0.16272637248039246] [-0.33334210515022278:0.16251496970653534] [-0.33341029286384583:0.1622183620929718] [-0.33343556523323059:0.16107547283172607] [-0.33344724774360657:0.16066974401473999] [-0.33356988430023193:0.16040194034576416] [-0.33383595943450928:0.15377208590507507] [-0.33392989635467529:0.15376070141792297] [-0.3349880576133728:0.15369510650634766] [-0.33508756756782532:0.15342137217521667] [-0.33509689569473267:0.15233021974563599] [-0.33537974953651428:0.15136989951133728] [-0.33613932132720947:0.15001210570335388] [-0.33647406101226807:0.15001052618026733] [-0.33664467930793762:0.14977447688579559] [-0.3367655873298645:0.14893147349357605] [-0.33709484338760376:0.14845757186412811] [-0.33777341246604919:0.14664827287197113] [-0.33824253082275391:0.14612875878810883] [-0.33859536051750183:0.14595352113246918] [-0.339180588722229:0.14515373110771179] [-0.33923643827438354:0.14473803341388702] [-0.33929568529129028:0.14446675777435303] [-0.33946323394775391:0.14345759153366089] [-0.34061315655708313:0.14156557619571686] [-0.34065097570419312:0.1411665678024292] [-0.34087085723876953:0.1410890519618988] [-0.34338176250457764:0.14000029861927032] [-0.34397867321968079:0.1389809250831604] [-0.34409984946250916:0.13682785630226135] [-0.34411388635635376:0.13618278503417969] [-0.34418502449989319:0.13525784015655518] [-0.34466913342475891:0.13388241827487946] [-0.34467011690139771:0.13199687004089355] [-0.34480145573616028:0.13105969130992889] [-0.34518224000930786:0.1310591995716095] [-0.3460204005241394:0.13081997632980347] [-0.34726846218109131:0.1297154426574707] [-0.34756374359130859:0.12830239534378052] [-0.34765291213989258:0.12787771224975586] [-0.34781238436698914:0.1244574710726738] [-0.34807246923446655:0.12441731989383698] [-0.34814602136611938:0.12331404536962509] [-0.34869921207427979:0.12089270353317261] [-0.34957042336463928:0.12020913511514664] [-0.34957095980644226:0.11944982409477234] [-0.34992647171020508:0.11877177655696869] [-0.34998732805252075:0.11453432589769363] [-0.35017681121826172:0.11256654560565948] [-0.35083410143852234:0.11204087734222412] [-0.35174059867858887:0.11170667409896851] [-0.35184183716773987:0.11043831706047058] [-0.35195434093475342:0.11019577085971832] [-0.35204857587814331:0.10905800759792328] [-0.35222172737121582:0.10787762701511383] [-0.35230559110641479:0.10734695196151733] [-0.35231432318687439:0.10734375566244125] [-0.35260468721389771:0.10709889233112335] [-0.35270732641220093:0.10675919055938721] [-0.35279756784439087:0.10665804147720337] [-0.35282048583030701:0.10626901686191559] [-0.3529738187789917:0.1028498038649559] [-0.35582602024078369:0.10193540155887604] [-0.35601526498794556:0.09884856641292572] [-0.3562103807926178:0.098711997270584106] [-0.35621568560600281:0.097322933375835419] [-0.35659283399581909:0.095005497336387634] [-0.35692855715751648:0.093934118747711182] [-0.35713118314743042:0.093208834528923035] [-0.35734987258911133:0.092664547264575958] [-0.35757017135620117:0.091567978262901306] [-0.35874372720718384:0.089776270091533661] [-0.35929954051971436:0.089629814028739929] [-0.35931873321533203:0.089581727981567383] [-0.35987809300422668:0.089399471879005432] [-0.36181405186653137:0.088740333914756775] [-0.36189514398574829:0.087730877101421356] [-0.36203140020370483:0.087385311722755432] [-0.36215090751647949:0.085205338895320892] [-0.36262243986129761:0.085152775049209595] [-0.36264199018478394:0.084285169839859009] [-0.36321994662284851:0.083740770816802979] [-0.36355313658714294:0.083223365247249603] [-0.36376002430915833:0.08300374448299408] [-0.36415129899978638:0.082895725965499878] [-0.36463502049446106:0.08226621150970459] [-0.3647175133228302:0.082056999206542969] [-0.36486420035362244:0.080656498670578003] [-0.36503815650939941:0.079897850751876831] [-0.3658636212348938:0.079474911093711853] [-0.36644855141639709:0.079152032732963562] [-0.36671382188796997:0.078891612589359283] [-0.36721086502075195:0.078841425478458405] [-0.36899662017822266:0.078785300254821777] [-0.37061703205108643:0.077452190220355988] [-0.37173035740852356:0.076611347496509552] [-0.37194925546646118:0.075906433165073395] [-0.37215876579284668:0.075754530727863312] [-0.37349623441696167:0.073270894587039948] [-0.37433940172195435:0.07266603410243988] [-0.37442120909690857:0.071784928441047668] [-0.37487548589706421:0.070185884833335876] [-0.37553906440734863:0.070036903023719788] [-0.37664765119552612:0.068629980087280273] [-0.37667995691299438:0.067677915096282959] [-0.37714964151382446:0.066295206546783447] [-0.37850445508956909:0.066192537546157837] [-0.37894538044929504:0.06551063060760498] [-0.38027063012123108:0.063129857182502747] [-0.38136285543441772:0.062955185770988464] [-0.3837069571018219:0.062915556132793427] [-0.38471919298171997:0.062698028981685638] [-0.38472431898117065:0.062504813075065613] [-0.38493096828460693:0.062202319502830505] [-0.38501393795013428:0.061666592955589294] [-0.38718444108963013:0.061589978635311127] [-0.3878900408744812:0.060748253017663956] [-0.39064571261405945:0.059977516531944275] [-0.39307785034179688:0.059424884617328644] [-0.39358344674110413:0.056209728121757507] [-0.39358487725257874:0.056108247488737106] [-0.39364129304885864:0.054920416325330734] [-0.39386475086212158:0.05454549565911293] [-0.39506480097770691:0.054404262453317642] [-0.39521384239196777:0.053153254091739655] [-0.39559978246688843:0.049290139228105545] [-0.39560571312904358:0.046064287424087524] [-0.39699873328208923:0.045944444835186005] [-0.39796361327171326:0.041100051254034042] [-0.398368239402771:0.039148550480604172] [-0.39909577369689941:0.038151249289512634] [-0.40026956796646118:0.036833859980106354] [-0.40292221307754517:0.036044344305992126] [-0.40334591269493103:0.035811003297567368] [-0.4085635244846344:0.03130042552947998] [-0.40954685211181641:0.03053014725446701] [-0.40970104932785034:0.029982293024659157] [-0.40999102592468262:0.028440836817026138] [-0.41049754619598389:0.027728654444217682] [-0.41426175832748413:0.026915373280644417] [-0.41434335708618164:0.024232406169176102] [-0.415580153465271:0.018611792474985123] [-0.41710123419761658:0.018267206847667694] [-0.41784626245498657:0.016207048669457436] [-0.41914340853691101:0.013217732310295105] [-0.42360496520996094:0.011717041954398155] [-0.42556190490722656:0.010276935994625092] [-0.42611220479011536:0.0091641079634428024] [-0.42777267098426819:0.0089905913919210434] [-0.42806020379066467:0.0052679628133773804] [-0.4284818172454834:0.0037900526076555252] [-0.43000799417495728:-0.00011689541861414909] [-0.43355709314346313:-0.0035779736936092377] [-0.44135349988937378:-0.0042314231395721436] [-0.44222664833068848:-0.011417180299758911] [-0.44443094730377197:-0.024077016860246658] [-0.44768372178077698:-0.024242397397756577] [-0.4492938220500946:-0.02879718691110611] [-0.44980475306510925:-0.042261630296707153] [-0.45365065336227417:-0.049839526414871216] [-0.45835050940513611:-0.052262607961893082] [-0.46531647443771362:-0.058657966554164886] [-0.48333001136779785:-0.073417924344539642] [-0.48632964491844177:-0.084973946213722229] [-0.48947113752365112:-0.091646917164325714] [-0.52881264686584473:-0.10499833524227142] [-0.5457080602645874:-0.13340151309967041] [0:26.934473037719727] [5.7131104469299316:27.562620162963867] [7.2794637680053711:27.768356323242188] [8.0315160751342773:27.658329010009766] [12.93309211730957:28.32081413269043] [13.905411720275879:28.161520004272461] [14.483180046081543:28.132318496704102] [13.667965888977051:28.198858261108398] [13.501609802246094:28.764547348022461] [14.195498466491699:28.632591247558594] [14.924043655395508:28.466197967529297] [14.37181568145752:28.925302505493164] [14.760190963745117:28.935710906982422] [15.642480850219727:29.4444580078125] [15.875321388244629:28.994869232177734] [15.312019348144531:29.006542205810547] [16.040882110595703:29.465486526489258] [16.005365371704102:29.423690795898438] [15.025530815124512:29.499399185180664] [14.880240440368652:29.563915252685547] [15.612818717956543:29.754785537719727] [16.372806549072266:29.6710205078125] [16.153934478759766:29.813163757324219] [16.484855651855469:30.038698196411133] [15.673861503601074:29.993566513061523] [16.187591552734375:30.063632965087891] [16.146110534667969:30.403690338134766] [15.078304290771484:30.695531845092773] [17.089147567749023:30.222600936889648] [17.280776977539062:30.177034378051758] [14.90296459197998:30.253652572631836] [16.775396347045898:30.9443359375] [16.214822769165039:30.396995544433594] [17.054450988769531:30.469089508056641] [16.162765502929688:30.731111526489258] [17.137445449829102:30.61235237121582] [16.465242385864258:31.189266204833984] [15.449198722839355:31.148464202880859] [17.329822540283203:30.998708724975586] [17.742891311645508:30.840770721435547] [17.780818939208984:31.071203231811523] [16.230009078979492:30.693008422851562] [16.217496871948242:31.532705307006836] [17.504331588745117:31.293859481811523] [15.01705265045166:31.341764450073242] [17.756023406982422:31.082290649414062] [15.885897636413574:31.515796661376953] [16.551145553588867:31.772886276245117] [17.700395584106445:31.531223297119141] [16.652545928955078:31.615205764770508] [18.066530227661133:31.329259872436523] [18.27421760559082:31.67271614074707] [15.914112091064453:31.356115341186523] [16.172407150268555:31.401346206665039] [18.451534271240234:31.789403915405273] [16.334295272827148:31.676364898681641] [18.269840240478516:31.534341812133789] [18.609643936157227:32.471126556396484] [17.187244415283203:32.198902130126953] [17.793691635131836:32.012424468994141] [17.738100051879883:31.745794296264648] [17.89610481262207:32.020847320556641] [18.121620178222656:31.748468399047852] [16.939489364624023:32.139289855957031] [17.203277587890625:32.041282653808594] [15.406453132629395:31.866533279418945] [18.150112152099609:32.046176910400391] [16.29142951965332:32.23956298828125] [18.042118072509766:31.922210693359375] [18.277641296386719:32.344554901123047] [18.537137985229492:32.638832092285156] [17.599695205688477:32.502628326416016] [18.008127212524414:32.492954254150391] [17.832000732421875:32.243518829345703] [17.269863128662109:32.670097351074219] [16.918062210083008:32.374172210693359] [17.208681106567383:32.531082153320312] [16.795560836791992:32.160987854003906] [18.85871696472168:32.463237762451172] [17.974695205688477:32.193336486816406] [16.971977233886719:32.490547180175781] [18.882171630859375:32.518684387207031] [16.562417984008789:32.371658325195312] [17.562240600585938:32.207839965820312] [18.640375137329102:32.380489349365234] [16.629766464233398:31.983842849731445] [18.733974456787109:32.873336791992188] [19.102798461914062:32.545402526855469] [17.912322998046875:32.519538879394531] [18.53892707824707:32.791969299316406] [18.315711975097656:32.414344787597656] [18.637725830078125:32.50927734375] [18.063564300537109:32.725746154785156] [18.142801284790039:32.648330688476562] [16.660129547119141:32.682525634765625] [19.091114044189453:32.799911499023438] [17.391704559326172:32.750961303710938] [19.595952987670898:32.903606414794922] [18.489604949951172:32.697891235351562] [17.581218719482422:32.712654113769531] [18.889230728149414:32.698268890380859] [17.428001403808594:32.786853790283203] [19.361112594604492:33.098075866699219] [18.994186401367188:32.723304748535156] [19.728916168212891:33.263286590576172] [18.155508041381836:32.906299591064453] [18.854511260986328:32.545658111572266] [17.002542495727539:32.978607177734375] [18.026639938354492:32.652347564697266] [16.775764465332031:32.983974456787109] [17.200092315673828:33.054924011230469] [19.014106750488281:32.85870361328125] [19.7525634765625:32.655574798583984] [19.080635070800781:32.8665771484375] [19.162506103515625:33.234027862548828] [19.100814819335938:33.08795166015625] [17.989612579345703:33.322673797607422] [19.317127227783203:33.487922668457031] [19.0028076171875:32.985755920410156] [19.465457916259766:32.793430328369141] [19.496397018432617:33.22222900390625] [17.811468124389648:33.009670257568359] [17.902011871337891:33.189807891845703] [19.007869720458984:33.585529327392578] [18.631261825561523:33.127059936523438] [20.034923553466797:33.167030334472656] [17.686929702758789:33.012035369873047] [18.655141830444336:33.545997619628906] [19.114452362060547:33.597476959228516] [18.593076705932617:33.162689208984375] [19.782114028930664:33.152050018310547] [20.116540908813477:33.4542236328125] [18.671770095825195:33.137279510498047] [17.951210021972656:33.484195709228516] [20.165750503540039:33.230068206787109] [19.60258674621582:33.540416717529297] [19.249208450317383:33.519168853759766] [18.899333953857422:33.615894317626953] [18.474466323852539:33.620986938476562] [19.130485534667969:33.267093658447266] [19.262102127075195:33.599658966064453] [20.060447692871094:33.360984802246094] [19.509637832641602:33.377731323242188] [17.410406112670898:33.21856689453125] [16.605535507202148:33.519378662109375] [18.025064468383789:33.292205810546875] [19.836322784423828:33.261196136474609] [19.490148544311523:33.425220489501953] [18.565637588500977:33.838146209716797] [19.959951400756836:33.436443328857422] [19.172842025756836:33.0906982421875] [20.222820281982422:33.356906890869141] [19.846994400024414:33.448280334472656] [20.268268585205078:33.202667236328125] [17.777894973754883:33.366523742675781] [19.8336181640625:33.778182983398438] [19.313047409057617:33.546749114990234] [19.727384567260742:33.477554321289062] [17.603582382202148:33.210006713867188] [19.734275817871094:33.559665679931641] [19.94163703918457:33.684806823730469] [20.181114196777344:33.578643798828125] [20.568576812744141:33.561626434326172] [20.161018371582031:33.583183288574219] [19.007699966430664:33.698722839355469] [19.996528625488281:33.541595458984375] [18.838058471679688:33.762538909912109] [20.196569442749023:34.066635131835938] [19.757827758789062:33.611537933349609] [19.460367202758789:33.610321044921875] [20.429403305053711:33.667137145996094] [19.57440185546875:33.429134368896484] [19.622858047485352:33.72686767578125] [19.23780632019043:33.665153503417969] [19.508079528808594:33.884296417236328] [18.832836151123047:33.774456024169922] [20.694658279418945:34.115699768066406] [20.212690353393555:33.807788848876953] [20.853309631347656:33.846450805664062] [19.490238189697266:34.085186004638672] [18.864475250244141:33.949443817138672] [19.52867317199707:33.916549682617188] [20.112705230712891:34.042964935302734] [20.613876342773438:33.9307861328125] [20.397575378417969:33.843574523925781] [20.177776336669922:34.188972473144531] [20.359481811523438:33.583763122558594] [19.13612174987793:33.753978729248047] [19.822378158569336:33.971263885498047] [19.650640487670898:33.654350280761719] [18.382307052612305:34.108665466308594] [20.934684753417969:33.991756439208984] [19.122970581054688:33.779354095458984] [20.884042739868164:33.909969329833984] [20.139291763305664:33.964359283447266] [20.72880744934082:34.278301239013672] [19.238164901733398:33.787666320800781] [19.973184585571289:34.03265380859375] [20.486560821533203:34.161750793457031] [20.230318069458008:34.319576263427734] [20.854839324951172:34.281452178955078] [19.661182403564453:33.970813751220703] [20.78169059753418:33.884845733642578] [19.702795028686523:33.897407531738281] [20.517059326171875:33.831741333007812] [19.004709243774414:33.992378234863281] [20.551532745361328:34.650638580322266] [20.795724868774414:34.258022308349609] [20.179418563842773:34.031963348388672] [19.407264709472656:34.013065338134766] [19.524019241333008:34.345119476318359] [19.833505630493164:34.577388763427734] [21.21319580078125:33.866840362548828] [21.042364120483398:34.312519073486328] [20.946775436401367:34.179706573486328] [20.817838668823242:34.360744476318359] [20.298519134521484:33.889442443847656] [20.925703048706055:34.164821624755859] [19.585086822509766:34.086887359619141] [21.124601364135742:34.435111999511719] [19.60365104675293:33.966182708740234] [19.019323348999023:34.456352233886719] [18.11149787902832:34.043807983398438] [18.748163223266602:34.094974517822266] [21.052764892578125:34.107444763183594] [20.962417602539062:34.561477661132812] [20.206707000732422:34.362537384033203] [20.469490051269531:34.212497711181641] [20.795352935791016:34.373008728027344] [19.862424850463867:34.397853851318359] [20.616506576538086:33.9927978515625] [19.423801422119141:34.19781494140625] [21.117500305175781:34.255264282226562] [20.626836776733398:34.298515319824219] [21.25958251953125:34.768775939941406] [20.617668151855469:34.337078094482422] [19.785013198852539:34.303661346435547] [17.043796539306641:34.754737854003906] [20.586669921875:34.328128814697266] [18.560028076171875:34.610816955566406] [18.955228805541992:34.147800445556641] [21.141263961791992:34.408843994140625] [18.923837661743164:34.480613708496094] [19.782426834106445:34.351581573486328] [21.435136795043945:34.352108001708984] [17.879617691040039:34.339267730712891] [19.89390754699707:34.553455352783203] [20.318449020385742:34.150882720947266] [20.857486724853516:34.254615783691406] [20.89234733581543:34.311695098876953] [17.27202033996582:34.295158386230469] [20.267683029174805:34.473934173583984] [20.80096435546875:34.662845611572266] [21.076536178588867:34.84796142578125] [21.185041427612305:34.396163940429688] [20.599990844726562:34.564197540283203] [20.863224029541016:34.85516357421875] [20.766841888427734:34.906398773193359] [20.94793701171875:34.707550048828125] [21.206819534301758:34.435695648193359] [18.323280334472656:34.393344879150391] [21.412443161010742:34.476287841796875] [20.654354095458984:34.538299560546875] [20.141656875610352:34.605491638183594] [21.380922317504883:34.532718658447266] [20.58195686340332:34.530643463134766] [21.398876190185547:34.427459716796875] [19.58277702331543:34.782943725585938] [20.004179000854492:34.840824127197266] [21.151939392089844:34.349712371826172] [18.962104797363281:34.810230255126953] [21.134916305541992:34.848934173583984] [20.667562484741211:34.508815765380859] [20.968238830566406:34.857711791992188] [20.706546783447266:34.429851531982422] [21.46580696105957:34.66839599609375] [20.612567901611328:34.719249725341797] [18.281356811523438:34.547206878662109] [19.284303665161133:35.076946258544922] [19.485271453857422:34.760246276855469] [21.063295364379883:34.93988037109375] [20.832448959350586:34.905452728271484] [20.228658676147461:34.745033264160156] [20.965166091918945:35.096900939941406] [21.720575332641602:34.271251678466797] [19.584053039550781:34.613933563232422] [20.142017364501953:34.891777038574219] [21.047140121459961:35.12457275390625] [20.742389678955078:34.868473052978516] [20.831624984741211:34.623439788818359] [16.563692092895508:34.913112640380859] [21.610240936279297:34.837665557861328] [18.690267562866211:34.645057678222656] [20.034509658813477:34.647735595703125] [20.438737869262695:34.876976013183594] [19.885747909545898:34.84649658203125] [19.890584945678711:34.304523468017578] 