tree
version=v4
num_class=1
num_tree_per_iteration=1
label_index=0
max_feature_idx=998
objective=regression
feature_names=Column_0 Column_1 Column_2 Column_3 Column_4 Column_5 Column_6 Column_7 Column_8 Column_9 Column_10 Column_11 Column_12 Column_13 Column_14 Column_15 Column_16 Column_17 Column_18 Column_19 Column_20 Column_21 Column_22 Column_23 Column_24 Column_25 Column_26 Column_27 Column_28 Column_29 Column_30 Column_31 Column_32 Column_33 Column_34 Column_35 Column_36 Column_37 Column_38 Column_39 Column_40 Column_41 Column_42 Column_43 Column_44 Column_45 Column_46 Column_47 Column_48 Column_49 Column_50 Column_51 Column_52 Column_53 Column_54 Column_55 Column_56 Column_57 Column_58 Column_59 Column_60 Column_61 Column_62 Column_63 Column_64 Column_65 Column_66 Column_67 Column_68 Column_69 Column_70 Column_71 Column_72 Column_73 Column_74 Column_75 Column_76 Column_77 Column_78 Column_79 Column_80 Column_81 Column_82 Column_83 Column_84 Column_85 Column_86 Column_87 Column_88 Column_89 Column_90 Column_91 Column_92 Column_93 Column_94 Column_95 Column_96 Column_97 Column_98 Column_99 Column_100 Column_101 Column_102 Column_103 Column_104 Column_105 Column_106 Column_107 Column_108 Column_109 Column_110 Column_111 Column_112 Column_113 Column_114 Column_115 Column_116 Column_117 Column_118 Column_119 Column_120 Column_121 Column_122 Column_123 Column_124 Column_125 Column_126 Column_127 Column_128 Column_129 Column_130 Column_131 Column_132 Column_133 Column_134 Column_135 Column_136 Column_137 Column_138 Column_139 Column_140 Column_141 Column_142 Column_143 Column_144 Column_145 Column_146 Column_147 Column_148 Column_149 Column_150 Column_151 Column_152 Column_153 Column_154 Column_155 Column_156 Column_157 Column_158 Column_159 Column_160 Column_161 Column_162 Column_163 Column_164 Column_165 Column_166 Column_167 Column_168 Column_169 Column_170 Column_171 Column_172 Column_173 Column_174 Column_175 Column_176 Column_177 Column_178 Column_179 Column_180 Column_181 Column_182 Column_183 Column_184 Column_185 Column_186 Column_187 Column_188 Column_189 Column_190 Column_191 Column_192 Column_193 Column_194 Column_195 Column_196 Column_197 Column_198 Column_199 Column_200 Column_201 Column_202 Column_203 Column_204 Column_205 Column_206 Column_207 Column_208 Column_209 Column_210 Column_211 Column_212 Column_213 Column_214 Column_215 Column_216 Column_217 Column_218 Column_219 Column_220 Column_221 Column_222 Column_223 Column_224 Column_225 Column_226 Column_227 Column_228 Column_229 Column_230 Column_231 Column_232 Column_233 Column_234 Column_235 Column_236 Column_237 Column_238 Column_239 Column_240 Column_241 Column_242 Column_243 Column_244 Column_245 Column_246 Column_247 Column_248 Column_249 Column_250 Column_251 Column_252 Column_253 Column_254 Column_255 Column_256 Column_257 Column_258 Column_259 Column_260 Column_261 Column_262 Column_263 Column_264 Column_265 Column_266 Column_267 Column_268 Column_269 Column_270 Column_271 Column_272 Column_273 Column_274 Column_275 Column_276 Column_277 Column_278 Column_279 Column_280 Column_281 Column_282 Column_283 Column_284 Column_285 Column_286 Column_287 Column_288 Column_289 Column_290 Column_291 Column_292 Column_293 Column_294 Column_295 Column_296 Column_297 Column_298 Column_299 Column_300 Column_301 Column_302 Column_303 Column_304 Column_305 Column_306 Column_307 Column_308 Column_309 Column_310 Column_311 Column_312 Column_313 Column_314 Column_315 Column_316 Column_317 Column_318 Column_319 Column_320 Column_321 Column_322 Column_323 Column_324 Column_325 Column_326 Column_327 Column_328 Column_329 Column_330 Column_331 Column_332 Column_333 Column_334 Column_335 Column_336 Column_337 Column_338 Column_339 Column_340 Column_341 Column_342 Column_343 Column_344 Column_345 Column_346 Column_347 Column_348 Column_349 Column_350 Column_351 Column_352 Column_353 Column_354 Column_355 Column_356 Column_357 Column_358 Column_359 Column_360 Column_361 Column_362 Column_363 Column_364 Column_365 Column_366 Column_367 Column_368 Column_369 Column_370 Column_371 Column_372 Column_373 Column_374 Column_375 Column_376 Column_377 Column_378 Column_379 Column_380 Column_381 Column_382 Column_383 Column_384 Column_385 Column_386 Column_387 Column_388 Column_389 Column_390 Column_391 Column_392 Column_393 Column_394 Column_395 Column_396 Column_397 Column_398 Column_399 Column_400 Column_401 Column_402 Column_403 Column_404 Column_405 Column_406 Column_407 Column_408 Column_409 Column_410 Column_411 Column_412 Column_413 Column_414 Column_415 Column_416 Column_417 Column_418 Column_419 Column_420 Column_421 Column_422 Column_423 Column_424 Column_425 Column_426 Column_427 Column_428 Column_429 Column_430 Column_431 Column_432 Column_433 Column_434 Column_435 Column_436 Column_437 Column_438 Column_439 Column_440 Column_441 Column_442 Column_443 Column_444 Column_445 Column_446 Column_447 Column_448 Column_449 Column_450 Column_451 Column_452 Column_453 Column_454 Column_455 Column_456 Column_457 Column_458 Column_459 Column_460 Column_461 Column_462 Column_463 Column_464 Column_465 Column_466 Column_467 Column_468 Column_469 Column_470 Column_471 Column_472 Column_473 Column_474 Column_475 Column_476 Column_477 Column_478 Column_479 Column_480 Column_481 Column_482 Column_483 Column_484 Column_485 Column_486 Column_487 Column_488 Column_489 Column_490 Column_491 Column_492 Column_493 Column_494 Column_495 Column_496 Column_497 Column_498 Column_499 Column_500 Column_501 Column_502 Column_503 Column_504 Column_505 Column_506 Column_507 Column_508 Column_509 Column_510 Column_511 Column_512 Column_513 Column_514 Column_515 Column_516 Column_517 Column_518 Column_519 Column_520 Column_521 Column_522 Column_523 Column_524 Column_525 Column_526 Column_527 Column_528 Column_529 Column_530 Column_531 Column_532 Column_533 Column_534 Column_535 Column_536 Column_537 Column_538 Column_539 Column_540 Column_541 Column_542 Column_543 Column_544 Column_545 Column_546 Column_547 Column_548 Column_549 Column_550 Column_551 Column_552 Column_553 Column_554 Column_555 Column_556 Column_557 Column_558 Column_559 Column_560 Column_561 Column_562 Column_563 Column_564 Column_565 Column_566 Column_567 Column_568 Column_569 Column_570 Column_571 Column_572 Column_573 Column_574 Column_575 Column_576 Column_577 Column_578 Column_579 Column_580 Column_581 Column_582 Column_583 Column_584 Column_585 Column_586 Column_587 Column_588 Column_589 Column_590 Column_591 Column_592 Column_593 Column_594 Column_595 Column_596 Column_597 Column_598 Column_599 Column_600 Column_601 Column_602 Column_603 Column_604 Column_605 Column_606 Column_607 Column_608 Column_609 Column_610 Column_611 Column_612 Column_613 Column_614 Column_615 Column_616 Column_617 Column_618 Column_619 Column_620 Column_621 Column_622 Column_623 Column_624 Column_625 Column_626 Column_627 Column_628 Column_629 Column_630 Column_631 Column_632 Column_633 Column_634 Column_635 Column_636 Column_637 Column_638 Column_639 Column_640 Column_641 Column_642 Column_643 Column_644 Column_645 Column_646 Column_647 Column_648 Column_649 Column_650 Column_651 Column_652 Column_653 Column_654 Column_655 Column_656 Column_657 Column_658 Column_659 Column_660 Column_661 Column_662 Column_663 Column_664 Column_665 Column_666 Column_667 Column_668 Column_669 Column_670 Column_671 Column_672 Column_673 Column_674 Column_675 Column_676 Column_677 Column_678 Column_679 Column_680 Column_681 Column_682 Column_683 Column_684 Column_685 Column_686 Column_687 Column_688 Column_689 Column_690 Column_691 Column_692 Column_693 Column_694 Column_695 Column_696 Column_697 Column_698 Column_699 Column_700 Column_701 Column_702 Column_703 Column_704 Column_705 Column_706 Column_707 Column_708 Column_709 Column_710 Column_711 Column_712 Column_713 Column_714 Column_715 Column_716 Column_717 Column_718 Column_719 Column_720 Column_721 Column_722 Column_723 Column_724 Column_725 Column_726 Column_727 Column_728 Column_729 Column_730 Column_731 Column_732 Column_733 Column_734 Column_735 Column_736 Column_737 Column_738 Column_739 Column_740 Column_741 Column_742 Column_743 Column_744 Column_745 Column_746 Column_747 Column_748 Column_749 Column_750 Column_751 Column_752 Column_753 Column_754 Column_755 Column_756 Column_757 Column_758 Column_759 Column_760 Column_761 Column_762 Column_763 Column_764 Column_765 Column_766 Column_767 Column_768 Column_769 Column_770 Column_771 Column_772 Column_773 Column_774 Column_775 Column_776 Column_777 Column_778 Column_779 Column_780 Column_781 Column_782 Column_783 Column_784 Column_785 Column_786 Column_787 Column_788 Column_789 Column_790 Column_791 Column_792 Column_793 Column_794 Column_795 Column_796 Column_797 Column_798 Column_799 Column_800 Column_801 Column_802 Column_803 Column_804 Column_805 Column_806 Column_807 Column_808 Column_809 Column_810 Column_811 Column_812 Column_813 Column_814 Column_815 Column_816 Column_817 Column_818 Column_819 Column_820 Column_821 Column_822 Column_823 Column_824 Column_825 Column_826 Column_827 Column_828 Column_829 Column_830 Column_831 Column_832 Column_833 Column_834 Column_835 Column_836 Column_837 Column_838 Column_839 Column_840 Column_841 Column_842 Column_843 Column_844 Column_845 Column_846 Column_847 Column_848 Column_849 Column_850 Column_851 Column_852 Column_853 Column_854 Column_855 Column_856 Column_857 Column_858 Column_859 Column_860 Column_861 Column_862 Column_863 Column_864 Column_865 Column_866 Column_867 Column_868 Column_869 Column_870 Column_871 Column_872 Column_873 Column_874 Column_875 Column_876 Column_877 Column_878 Column_879 Column_880 Column_881 Column_882 Column_883 Column_884 Column_885 Column_886 Column_887 Column_888 Column_889 Column_890 Column_891 Column_892 Column_893 Column_894 Column_895 Column_896 Column_897 Column_898 Column_899 Column_900 Column_901 Column_902 Column_903 Column_904 Column_905 Column_906 Column_907 Column_908 Column_909 Column_910 Column_911 Column_912 Column_913 Column_914 Column_915 Column_916 Column_917 Column_918 Column_919 Column_920 Column_921 Column_922 Column_923 Column_924 Column_925 Column_926 Column_927 Column_928 Column_929 Column_930 Column_931 Column_932 Column_933 Column_934 Column_935 Column_936 Column_937 Column_938 Column_939 Column_940 Column_941 Column_942 Column_943 Column_944 Column_945 Column_946 Column_947 Column_948 Column_949 Column_950 Column_951 Column_952 Column_953 Column_954 Column_955 Column_956 Column_957 Column_958 Column_959 Column_960 Column_961 Column_962 Column_963 Column_964 Column_965 Column_966 Column_967 Column_968 Column_969 Column_970 Column_971 Column_972 Column_973 Column_974 Column_975 Column_976 Column_977 Column_978 Column_979 Column_980 Column_981 Column_982 Column_983 Column_984 Column_985 Column_986 Column_987 Column_988 Column_989 Column_990 Column_991 Column_992 Column_993 Column_994 Column_995 Column_996 Column_997 Column_998
feature_infos=[0.41152471303939819:1.0000009536743164] [0.37265473604202271:1.0000005960464478] [0.36418583989143372:1.0000001192092896] [0.35882112383842468:0.92209261655807495] [0.35185864567756653:0.92209261655807495] [0.34555569291114807:0.92209261655807495] [0.33650690317153931:0.92209261655807495] [0.33131113648414612:0.92209261655807495] [0.32181316614151001:0.92209255695343018] [0.321218341588974:0.92209255695343018] [0.31892964243888855:0.92209255695343018] [0.29412871599197388:0.92209255695343018] [0.28904452919960022:0.78580594062805176] [0.28895676136016846:0.78328412771224976] [0.28864783048629761:0.78014403581619263] [0.28540685772895813:0.77546316385269165] [0.28151315450668335:0.77467721700668335] [0.28051546216011047:0.77215373516082764] [0.27760070562362671:0.77017122507095337] [0.27406522631645203:0.74260503053665161] [0.2707175612449646:0.74206787347793579] [0.26646587252616882:0.73948210477828979] [0.26293644309043884:0.73851251602172852] [0.26228940486907959:0.73828375339508057] [0.26007243990898132:0.73582124710083008] [0.25910013914108276:0.73570901155471802] [0.25686353445053101:0.73553824424743652] [0.25492772459983826:0.73187589645385742] [0.25185868144035339:0.73005145788192749] [0.2513238787651062:0.72981780767440796] [0.24717700481414795:0.72526854276657104] [0.24698440730571747:0.72514832019805908] [0.24688908457756042:0.72194182872772217] [0.24647030234336853:0.72052431106567383] [0.24591431021690369:0.71848911046981812] [0.24545653164386749:0.71695929765701294] [0.2452210932970047:0.71654176712036133] [0.24442636966705322:0.71446037292480469] [0.24373246729373932:0.7128911018371582] [0.24028480052947998:0.71023362874984741] [0.23971697688102722:0.70926523208618164] [0.23652026057243347:0.70768696069717407] [0.23568391799926758:0.70472991466522217] [0.23566929996013641:0.70394355058670044] [0.23557576537132263:0.70312505960464478] [0.23292721807956696:0.70115548372268677] [0.23277345299720764:0.70107293128967285] [0.23199306428432465:0.6995241641998291] [0.23016758263111115:0.69939494132995605] [0.22978891432285309:0.69828861951828003] [0.22938902676105499:0.6959959864616394] [0.22787922620773315:0.69527816772460938] [0.22664929926395416:0.69484978914260864] [0.22432452440261841:0.69224077463150024] [0.22402362525463104:0.69125938415527344] [0.22395123541355133:0.68998706340789795] [0.22297203540802002:0.68882066011428833] [0.22145207226276398:0.68878597021102905] [0.22143074870109558:0.68540745973587036] [0.22134298086166382:0.68458402156829834] [0.22091160714626312:0.68345129489898682] [0.22083169221878052:0.68138617277145386] [0.22081062197685242:0.67949312925338745] [0.22076313197612762:0.67473208904266357] [0.21931096911430359:0.6732749342918396] [0.21877437829971313:0.67182588577270508] [0.21700935065746307:0.66871637105941772] [0.21617609262466431:0.66871637105941772] [0.21611858904361725:0.66810482740402222] [0.21498855948448181:0.66792416572570801] [0.21476922929286957:0.66759741306304932] [0.21443681418895721:0.66743135452270508] [0.21433757245540619:0.66726279258728027] [0.21388773620128632:0.66591614484786987] [0.21372349560260773:0.66423773765563965] [0.21365565061569214:0.66389572620391846] [0.2132418155670166:0.66245514154434204] [0.21312649548053741:0.66228586435317993] [0.21268759667873383:0.66225945949554443] [0.21156622469425201:0.66027945280075073] [0.21140028536319733:0.65979504585266113] [0.21088229119777679:0.65942990779876709] [0.2108151912689209:0.65880441665649414] [0.21055381000041962:0.65715694427490234] [0.20964723825454712:0.65709984302520752] [0.20873726904392242:0.6535879373550415] [0.20844033360481262:0.65357357263565063] [0.20811019837856293:0.65285849571228027] [0.20777598023414612:0.65281730890274048] [0.20775589346885681:0.65254098176956177] [0.20765171945095062:0.65203642845153809] [0.20752903819084167:0.65175580978393555] [0.20687621831893921:0.64909768104553223] [0.20673163235187531:0.64840704202651978] [0.20489321649074554:0.64719623327255249] [0.20488162338733673:0.64471918344497681] [0.2046826183795929:0.64258831739425659] [0.20464028418064117:0.64128446578979492] [0.20446547865867615:0.63918542861938477] [0.2036350816488266:0.63845860958099365] [0.20325016975402832:0.63632208108901978] [0.20255991816520691:0.63553255796432495] [0.20243479311466217:0.6347510814666748] [0.20222705602645874:0.63454926013946533] [0.20207010209560394:0.63329106569290161] [0.2018931657075882:0.63271600008010864] [0.20161338150501251:0.63161420822143555] [0.20158064365386963:0.63128316402435303] [0.2003665417432785:0.63073694705963135] [0.20026412606239319:0.62979006767272949] [0.20015124976634979:0.62967550754547119] [0.20008876919746399:0.62958931922912598] [0.20008876919746399:0.62720930576324463] [0.20001839101314545:0.62663334608078003] [0.19951131939888:0.62597543001174927] [0.1994505375623703:0.62540274858474731] [0.1991024911403656:0.62453269958496094] [0.19887235760688782:0.62422811985015869] [0.19855761528015137:0.62378287315368652] [0.19839367270469666:0.62252634763717651] [0.19836123287677765:0.62244707345962524] [0.19833959639072418:0.62200355529785156] [0.19824273884296417:0.6214868426322937] [0.197983518242836:0.61996233463287354] [0.19765152037143707:0.6197628378868103] [0.19718602299690247:0.61938285827636719] [0.19669860601425171:0.61676430702209473] [0.19661641120910645:0.61631304025650024] [0.1966107189655304:0.61626499891281128] [0.19655407965183258:0.61597204208374023] [0.19644847512245178:0.61593478918075562] [0.19641786813735962:0.61580055952072144] [0.19593252241611481:0.61553794145584106] [0.19582635164260864:0.61437612771987915] [0.195786252617836:0.6140936017036438] [0.19543145596981049:0.6133924126625061] [0.19526425004005432:0.61296075582504272] [0.19513377547264099:0.61221224069595337] [0.1950298547744751:0.61197316646575928] [0.19498518109321594:0.61187773942947388] [0.19488067924976349:0.61187076568603516] [0.19483004510402679:0.61066067218780518] [0.19426502287387848:0.61048221588134766] [0.1940823495388031:0.60983067750930786] [0.19382445514202118:0.60951113700866699] [0.19371861219406128:0.60907930135726929] [0.19357092678546906:0.60868674516677856] [0.1933831125497818:0.60841798782348633] [0.19330397248268127:0.60818666219711304] [0.19304563105106354:0.60754275321960449] [0.19303062558174133:0.60702013969421387] [0.19281975924968719:0.60658299922943115] [0.19222606718540192:0.60607743263244629] [0.19208997488021851:0.60581934452056885] [0.19203291833400726:0.60577678680419922] [0.19181627035140991:0.60545903444290161] [0.19181627035140991:0.60491400957107544] [0.19123181700706482:0.60483509302139282] [0.19095981121063232:0.60446983575820923] [0.19078618288040161:0.60423511266708374] [0.19060517847537994:0.60310971736907959] [0.19051423668861389:0.60264801979064941] [0.19032669067382812:0.60258090496063232] [0.19028376042842865:0.60258084535598755] [0.19007645547389984:0.60255962610244751] [0.18999120593070984:0.60241228342056274] [0.18997955322265625:0.60236763954162598] [0.18993671238422394:0.60230588912963867] [0.18960978090763092:0.60229778289794922] [0.18954448401927948:0.60190778970718384] [0.18952034413814545:0.60157495737075806] [0.18948587775230408:0.60153365135192871] [0.1892487108707428:0.6011512279510498] [0.18914598226547241:0.60097098350524902] [0.18909960985183716:0.6005866527557373] [0.18900911509990692:0.60016047954559326] [0.18881116807460785:0.59995836019515991] [0.18876461684703827:0.59988594055175781] [0.18863044679164886:0.5998496413230896] [0.18836624920368195:0.59956634044647217] [0.18835064768791199:0.59939301013946533] [0.18821002542972565:0.59882068634033203] [0.18808819353580475:0.59856724739074707] [0.18747623264789581:0.59805083274841309] [0.18734121322631836:0.59772562980651855] [0.18730966746807098:0.59682893753051758] [0.18720553815364838:0.59663224220275879] [0.18700756132602692:0.59661132097244263] [0.18700122833251953:0.59637242555618286] [0.18658795952796936:0.59575903415679932] [0.18655282258987427:0.5957491397857666] [0.18648985028266907:0.59493881464004517] [0.18644694983959198:0.59478938579559326] [0.18630807101726532:0.59466588497161865] [0.18580281734466553:0.59445828199386597] [0.18570747971534729:0.59389948844909668] [0.18563474714756012:0.59347128868103027] [0.18561697006225586:0.59342646598815918] [0.18519124388694763:0.59332889318466187] [0.18459697067737579:0.59280532598495483] [0.18451885879039764:0.5926395058631897] [0.18451879918575287:0.59255945682525635] [0.18448439240455627:0.59244692325592041] [0.18429514765739441:0.59243983030319214] [0.18423621356487274:0.59205782413482666] [0.1842319518327713:0.59173709154129028] [0.18365463614463806:0.59170496463775635] [0.18342109024524689:0.59170085191726685] [0.18332526087760925:0.59168273210525513] [0.18298783898353577:0.59167271852493286] [0.18283669650554657:0.59162861108779907] [0.18280887603759766:0.59151393175125122] [0.18274950981140137:0.59143179655075073] [0.1826946884393692:0.5912129282951355] [0.18269063532352448:0.59083861112594604] [0.18236248195171356:0.59081351757049561] [0.1820988804101944:0.59067249298095703] [0.18192094564437866:0.59058290719985962] [0.18179577589035034:0.5905078649520874] [0.18160757422447205:0.59046047925949097] [0.1812073290348053:0.59041512012481689] [0.18119063973426819:0.59020364284515381] [0.18111409246921539:0.58993130922317505] [0.18100763857364655:0.58966845273971558] [0.18094806373119354:0.5895005464553833] [0.1808570921421051:0.58934116363525391] [0.18067435920238495:0.58903121948242188] [0.18066519498825073:0.58880257606506348] [0.18061967194080353:0.58849078416824341] [0.18057933449745178:0.58820831775665283] [0.18049591779708862:0.58815014362335205] [0.18038003146648407:0.58794325590133667] [0.18030180037021637:0.58739721775054932] [0.1801670640707016:0.58709019422531128] [0.18012888729572296:0.58655589818954468] [0.18000733852386475:0.58649611473083496] [0.17995055019855499:0.58628582954406738] [0.17992886900901794:0.58608603477478027] [0.17982888221740723:0.58604514598846436] [0.17962333559989929:0.58604365587234497] [0.17947039008140564:0.58603274822235107] [0.17943395674228668:0.5856248140335083] [0.17925989627838135:0.58449441194534302] [0.17924635112285614:0.58428514003753662] [0.17918860912322998:0.58409297466278076] [0.17918087542057037:0.58406150341033936] [0.17914566397666931:0.58399409055709839] [0.17905795574188232:0.58397960662841797] [0.17899486422538757:0.58396333456039429] [0.17871521413326263:0.58372038602828979] [0.17870886623859406:0.58366191387176514] [0.17869307100772858:0.5835576057434082] [0.17846423387527466:0.5831296443939209] [0.17843952775001526:0.58312809467315674] [0.1784369945526123:0.58299505710601807] [0.17810972034931183:0.58293020725250244] [0.17809557914733887:0.58277463912963867] [0.17802941799163818:0.5825384259223938] [0.17794322967529297:0.58219116926193237] [0.17781773209571838:0.58216756582260132] [0.17774508893489838:0.58192265033721924] [0.17760737240314484:0.5816185474395752] [0.17736336588859558:0.58122140169143677] [0.1772519052028656:0.58121585845947266] [0.17723041772842407:0.58080601692199707] [0.17718206346035004:0.58072018623352051] [0.17686325311660767:0.58059430122375488] [0.17683999240398407:0.58054101467132568] [0.17665210366249084:0.58053267002105713] [0.17659375071525574:0.5804293155670166] [0.17627887427806854:0.58022862672805786] [0.17614889144897461:0.58013784885406494] [0.17614889144897461:0.58013629913330078] [0.17609038949012756:0.57999175786972046] [0.1759871244430542:0.579914391040802] [0.17595607042312622:0.57988566160202026] [0.17595034837722778:0.57977735996246338] [0.17592979967594147:0.57972007989883423] [0.17588447034358978:0.57966840267181396] [0.1758234053850174:0.5795472264289856] [0.17582027614116669:0.57953846454620361] [0.17572575807571411:0.57946336269378662] [0.17541840672492981:0.57939779758453369] [0.17539651691913605:0.57938182353973389] [0.17522870004177094:0.57930433750152588] [0.17513036727905273:0.57925325632095337] [0.17507888376712799:0.57924544811248779] [0.17502035200595856:0.57891547679901123] [0.17484253644943237:0.57889354228973389] [0.17479954659938812:0.57876366376876831] [0.17465436458587646:0.5785253643989563] [0.17445328831672668:0.5781894326210022] [0.17443031072616577:0.57812702655792236] [0.17435882985591888:0.57778984308242798] [0.17422132194042206:0.57770395278930664] [0.17414411902427673:0.57761198282241821] [0.17393602430820465:0.57760065793991089] [0.17383630573749542:0.57750672101974487] [0.17379148304462433:0.57740378379821777] [0.17378690838813782:0.57736623287200928] [0.17378638684749603:0.57734197378158569] [0.17378003895282745:0.57713878154754639] [0.17376247048377991:0.57711440324783325] [0.17373472452163696:0.57698827981948853] [0.17351865768432617:0.57691192626953125] [0.17331878840923309:0.57657116651535034] [0.17311687767505646:0.57649815082550049] [0.17299951612949371:0.57649785280227661] [0.17296960949897766:0.57608354091644287] [0.17280584573745728:0.57599681615829468] [0.17278707027435303:0.57589918375015259] [0.17263802886009216:0.57579916715621948] [0.17256459593772888:0.57553493976593018] [0.17249098420143127:0.57546591758728027] [0.17222112417221069:0.57544988393783569] [0.17206142842769623:0.57507443428039551] [0.17200824618339539:0.57502233982086182] [0.17163652181625366:0.57494735717773438] [0.17133833467960358:0.57474035024642944] [0.1711706817150116:0.57472723722457886] [0.17103393375873566:0.57465499639511108] [0.17078264057636261:0.57456094026565552] [0.17059031128883362:0.57452666759490967] [0.17054173350334167:0.57447868585586548] [0.17039763927459717:0.57445895671844482] [0.17038668692111969:0.5744062066078186] [0.17024150490760803:0.57419627904891968] [0.17006337642669678:0.57413327693939209] [0.16947019100189209:0.57413327693939209] [0.16939318180084229:0.57411503791809082] [0.16895048320293427:0.57411330938339233] [0.16887988150119781:0.57408744096755981] [0.16887988150119781:0.57387393712997437] [0.1687522828578949:0.57385265827178955] [0.16875174641609192:0.57382434606552124] [0.16866560280323029:0.57357203960418701] [0.16845859587192535:0.57337749004364014] [0.16841988265514374:0.5733528733253479] [0.16837172210216522:0.57326811552047729] [0.16812026500701904:0.57326209545135498] [0.16812022030353546:0.57317215204238892] [0.16805708408355713:0.57301837205886841] [0.16803166270256042:0.57278901338577271] [0.1679883599281311:0.57258504629135132] [0.16793879866600037:0.57252156734466553] [0.16778747737407684:0.57244980335235596] [0.16760919988155365:0.57238811254501343] [0.16759197413921356:0.57230925559997559] [0.16749109327793121:0.57217133045196533] [0.16745574772357941:0.5721588134765625] [0.16719613969326019:0.57212495803833008] [0.16714911162853241:0.57211548089981079] [0.16701610386371613:0.57206302881240845] [0.16673591732978821:0.57171392440795898] [0.16662026941776276:0.57165038585662842] [0.16661183536052704:0.57161062955856323] [0.16660617291927338:0.57147961854934692] [0.166489377617836:0.5714794397354126] [0.16618615388870239:0.57144355773925781] [0.16617262363433838:0.57118070125579834] [0.16610904037952423:0.57114315032958984] [0.1660807877779007:0.57112568616867065] [0.16608074307441711:0.57110393047332764] [0.16605144739151001:0.57090824842453003] [0.16593004763126373:0.57086771726608276] [0.16586171090602875:0.57085996866226196] [0.16564421355724335:0.57085800170898438] [0.16548044979572296:0.5708577036857605] [0.16546739637851715:0.57081729173660278] [0.16540457308292389:0.57080072164535522] [0.16529315710067749:0.57073599100112915] [0.16506850719451904:0.57066649198532104] [0.16504153609275818:0.57066172361373901] [0.16503766179084778:0.57056665420532227] [0.16499155759811401:0.57042968273162842] [0.16492980718612671:0.57042455673217773] [0.16484293341636658:0.57039296627044678] [0.16473832726478577:0.57022130489349365] [0.16445180773735046:0.57012832164764404] [0.16426600515842438:0.56995517015457153] [0.16419859230518341:0.56978070735931396] [0.16407632827758789:0.56963670253753662] [0.16407184302806854:0.56962043046951294] [0.16407094895839691:0.56948256492614746] [0.16399170458316803:0.56934845447540283] [0.16390892863273621:0.56913715600967407] [0.16389061510562897:0.56906259059906006] [0.1637737900018692:0.56903946399688721] [0.16376446187496185:0.56903308629989624] [0.16372330486774445:0.56873041391372681] [0.1637159138917923:0.56866854429244995] [0.16368396580219269:0.56859010457992554] [0.16365192830562592:0.56851679086685181] [0.16364860534667969:0.568409264087677] [0.16364370286464691:0.5683857798576355] [0.16362634301185608:0.56821078062057495] [0.16359794139862061:0.56815642118453979] [0.16350625455379486:0.56813836097717285] [0.16342218220233917:0.56807941198348999] [0.16325931251049042:0.56799823045730591] [0.16322451829910278:0.56791633367538452] [0.16320183873176575:0.56777846813201904] [0.16300806403160095:0.56776368618011475] [0.16285744309425354:0.56739187240600586] [0.16284693777561188:0.5673820972442627] [0.16284257173538208:0.56736081838607788] [0.16268622875213623:0.56729757785797119] [0.16264228522777557:0.56717634201049805] [0.16260808706283569:0.56717520952224731] [0.16260400414466858:0.56700724363327026] [0.16259488463401794:0.56699150800704956] [0.16257254779338837:0.56683558225631714] [0.16245092451572418:0.56681042909622192] [0.16230279207229614:0.56677311658859253] [0.16208845376968384:0.5666041374206543] [0.16205880045890808:0.56644916534423828] [0.16203837096691132:0.56632035970687866] [0.16202376782894135:0.5662391185760498] [0.16202105581760406:0.56621247529983521] [0.16182103753089905:0.56614232063293457] [0.16166999936103821:0.56601309776306152] [0.16159133613109589:0.56597030162811279] [0.16156628727912903:0.56596601009368896] [0.16154201328754425:0.56585949659347534] [0.16152054071426392:0.56573742628097534] [0.1614220142364502:0.56568968296051025] [0.16122078895568848:0.56568557024002075] [0.16113176941871643:0.5656546950340271] [0.16113133728504181:0.56559991836547852] [0.16105154156684875:0.56557565927505493] [0.16105154156684875:0.56543576717376709] [0.16098257899284363:0.56522852182388306] [0.16093350946903229:0.56511503458023071] [0.16090831160545349:0.56490713357925415] [0.16090312600135803:0.5648084282875061] [0.1608743816614151:0.56480199098587036] [0.16076101362705231:0.56477755308151245] [0.16061230003833771:0.56476098299026489] [0.16056045889854431:0.56468868255615234] [0.16045354306697845:0.56456679105758667] [0.16044680774211884:0.56449896097183228] [0.16044428944587708:0.56432110071182251] [0.16043762862682343:0.56425386667251587] [0.16041363775730133:0.56413853168487549] [0.16041067242622375:0.56412196159362793] [0.16028639674186707:0.56385719776153564] [0.16018380224704742:0.56380146741867065] [0.16017936170101166:0.56355857849121094] [0.16013471782207489:0.5634649395942688] [0.16013471782207489:0.56340473890304565] [0.16011726856231689:0.56315082311630249] [0.15987376868724823:0.56312787532806396] [0.15979942679405212:0.5629459023475647] [0.15974108874797821:0.56282162666320801] [0.15972927212715149:0.56279975175857544] [0.15967740118503571:0.5627937912940979] [0.15955235064029694:0.56273311376571655] [0.15950548648834229:0.56269598007202148] [0.15926806628704071:0.56259560585021973] [0.15920382738113403:0.56259423494338989] [0.15915772318840027:0.56230920553207397] [0.15903981029987335:0.56217390298843384] [0.15903742611408234:0.56213974952697754] [0.15895742177963257:0.56197917461395264] [0.15894898772239685:0.5619577169418335] [0.15894350409507751:0.56194579601287842] [0.15885739028453827:0.56186157464981079] [0.15884968638420105:0.56177765130996704] [0.15874272584915161:0.56176090240478516] [0.15868920087814331:0.56142014265060425] [0.15860408544540405:0.56142014265060425] [0.15850065648555756:0.56125402450561523] [0.15844753384590149:0.56124532222747803] [0.1583629697561264:0.56119084358215332] [0.15833395719528198:0.56101030111312866] [0.15823204815387726:0.56097781658172607] [0.15819439291954041:0.56086331605911255] [0.15818466246128082:0.56085205078125] [0.15816178917884827:0.56082439422607422] [0.15804925560951233:0.56061065196990967] [0.15780133008956909:0.5605742335319519] [0.15770553052425385:0.56049782037734985] [0.15764567255973816:0.56025278568267822] [0.15761572122573853:0.56022441387176514] [0.15752355754375458:0.5600886344909668] [0.15743571519851685:0.55996096134185791] [0.15741924941539764:0.5597655177116394] [0.15735672414302826:0.55971509218215942] [0.15729957818984985:0.55967289209365845] [0.15729150176048279:0.55959254503250122] [0.15726965665817261:0.55957490205764771] [0.15717522799968719:0.55951732397079468] [0.15713852643966675:0.55944788455963135] [0.15701885521411896:0.55944782495498657] [0.15699104964733124:0.55943137407302856] [0.15689030289649963:0.55932033061981201] [0.15681342780590057:0.55912798643112183] [0.15673555433750153:0.55899626016616821] [0.15662133693695068:0.55891877412796021] [0.15661467611789703:0.55858933925628662] [0.1565595418214798:0.55854684114456177] [0.15651883184909821:0.55840808153152466] [0.15650075674057007:0.55834335088729858] [0.15647017955780029:0.55833405256271362] [0.15639303624629974:0.55825042724609375] [0.15638765692710876:0.55823534727096558] [0.15628586709499359:0.55823367834091187] [0.15615682303905487:0.55817157030105591] [0.15614227950572968:0.55806863307952881] [0.15610204637050629:0.55796980857849121] [0.15608716011047363:0.55794054269790649] [0.15607357025146484:0.55764037370681763] [0.15606135129928589:0.55758160352706909] [0.1560559868812561:0.55741184949874878] [0.15602953732013702:0.5573996901512146] [0.15596286952495575:0.55734175443649292] [0.15591587126255035:0.55729275941848755] [0.15586763620376587:0.55710840225219727] [0.15586014091968536:0.55703270435333252] [0.15583489835262299:0.55690479278564453] [0.15576629340648651:0.55658376216888428] [0.15575350821018219:0.55657005310058594] [0.15575073659420013:0.55649614334106445] [0.15572376549243927:0.55646759271621704] [0.15565861761569977:0.55638760328292847] [0.15565541386604309:0.55635344982147217] [0.15558363497257233:0.55626857280731201] [0.1554780900478363:0.55622661113739014] [0.15543113648891449:0.55612212419509888] [0.15535971522331238:0.55611062049865723] [0.15524044632911682:0.55570560693740845] [0.15521787106990814:0.55560356378555298] [0.15519101917743683:0.55553334951400757] [0.15518219769001007:0.5554879903793335] [0.15517120063304901:0.5554739236831665] [0.15515753626823425:0.55533969402313232] [0.15507915616035461:0.55531859397888184] [0.15500889718532562:0.55530035495758057] [0.15492796897888184:0.55513924360275269] [0.15491494536399841:0.55502825975418091] [0.15489351749420166:0.55495226383209229] [0.15483593940734863:0.55471473932266235] [0.15469610691070557:0.55467981100082397] [0.15452662110328674:0.55463898181915283] [0.1544899046421051:0.55443936586380005] [0.15443733334541321:0.55410981178283691] [0.15431278944015503:0.55403560400009155] [0.15428236126899719:0.5539281964302063] [0.15427577495574951:0.553902268409729] [0.15426671504974365:0.553902268409729] [0.15421092510223389:0.55387198925018311] [0.15418983995914459:0.55386590957641602] [0.15407299995422363:0.55379539728164673] [0.15406280755996704:0.55373620986938477] [0.15402832627296448:0.55370795726776123] [0.15401342511177063:0.55364155769348145] [0.15387570858001709:0.55360525846481323] [0.15386964380741119:0.55353242158889771] [0.15383148193359375:0.55349969863891602] [0.15378299355506897:0.55343329906463623] [0.15377581119537354:0.55332350730895996] [0.15368743240833282:0.55323600769042969] [0.15362480282783508:0.55323147773742676] [0.15361955761909485:0.5531165599822998] [0.15359707176685333:0.55308794975280762] [0.15359371900558472:0.5530698299407959] [0.15350368618965149:0.55302870273590088] [0.15350253880023956:0.55295801162719727] [0.15347346663475037:0.55286628007888794] [0.15335644781589508:0.55285918712615967] [0.1533263772726059:0.5527881383895874] [0.15331181883811951:0.55267351865768433] [0.15329360961914062:0.55266380310058594] [0.15328837931156158:0.55253905057907104] [0.15324819087982178:0.55251920223236084] [0.15320943295955658:0.55250489711761475] [0.15318505465984344:0.55246448516845703] [0.15317049622535706:0.55244553089141846] [0.15316691994667053:0.55240124464035034] [0.15316472947597504:0.55218356847763062] [0.15314421057701111:0.55213332176208496] [0.15311872959136963:0.55205953121185303] [0.15310655534267426:0.55201488733291626] [0.15297894179821014:0.55195999145507812] [0.15295828878879547:0.55190110206604004] [0.1529197096824646:0.55184465646743774] [0.15290485322475433:0.55184239149093628] [0.15290276706218719:0.5517774224281311] [0.15280133485794067:0.55175739526748657] [0.15279537439346313:0.55165195465087891] [0.15270663797855377:0.55164092779159546] [0.15252803266048431:0.5516054630279541] [0.15245518088340759:0.55141228437423706] [0.15237800776958466:0.55134236812591553] [0.15233173966407776:0.55133140087127686] [0.15228398144245148:0.55132550001144409] [0.15227405726909637:0.55115091800689697] [0.15226902067661285:0.55091685056686401] [0.15224052965641022:0.55086010694503784] [0.15223683416843414:0.55080682039260864] [0.15210919082164764:0.5507282018661499] [0.15206465125083923:0.55059337615966797] [0.15206159651279449:0.55051892995834351] [0.15204717218875885:0.55050873756408691] [0.15204432606697083:0.55050867795944214] [0.15202280879020691:0.55049198865890503] [0.15196923911571503:0.55048346519470215] [0.15185880661010742:0.55047124624252319] [0.15185624361038208:0.55045908689498901] [0.15185421705245972:0.55023622512817383] [0.15180449187755585:0.55010831356048584] [0.15179546177387238:0.54999899864196777] [0.15177358686923981:0.54999178647994995] [0.15159134566783905:0.54983395338058472] [0.15155375003814697:0.54979008436203003] [0.15155059099197388:0.54969823360443115] [0.15149308741092682:0.54967117309570312] [0.15146498382091522:0.54964917898178101] [0.15142436325550079:0.54958868026733398] [0.15135037899017334:0.54951262474060059] [0.15123432874679565:0.54941684007644653] [0.1511530727148056:0.54935920238494873] [0.15108005702495575:0.54931831359863281] [0.1507658064365387:0.5492209792137146] [0.15074737370014191:0.54919105768203735] [0.15073856711387634:0.54912000894546509] [0.15063641965389252:0.54909110069274902] [0.15062214434146881:0.54906481504440308] [0.15059344470500946:0.54906392097473145] [0.15050022304058075:0.54905229806900024] [0.15047867596149445:0.54903829097747803] [0.15046462416648865:0.54899555444717407] [0.15036466717720032:0.54899191856384277] [0.15032772719860077:0.54897505044937134] [0.15029469132423401:0.54892158508300781] [0.15028205513954163:0.54880839586257935] [0.15022358298301697:0.54865986108779907] [0.15019762516021729:0.54849153757095337] [0.1501786857843399:0.54848259687423706] [0.1501767486333847:0.54846411943435669] [0.15017645061016083:0.54843401908874512] [0.15014238655567169:0.54829943180084229] [0.15013226866722107:0.54821836948394775] [0.15011824667453766:0.54820287227630615] [0.15007196366786957:0.54811334609985352] [0.15005961060523987:0.54798662662506104] [0.15003423392772675:0.54790008068084717] [0.15000186860561371:0.54787206649780273] [0.14999978244304657:0.54784262180328369] [0.14993251860141754:0.54775983095169067] [0.14992441236972809:0.54763954877853394] [0.14992298185825348:0.54763621091842651] [0.14991842210292816:0.54750263690948486] [0.14987148344516754:0.54744833707809448] [0.14982376992702484:0.54743385314941406] [0.14978845417499542:0.54740196466445923] [0.14976604282855988:0.54713273048400879] [0.14976353943347931:0.54681366682052612] [0.14976312220096588:0.54654616117477417] [0.14967566728591919:0.54650968313217163] [0.14964264631271362:0.54648101329803467] [0.14964158833026886:0.5463443398475647] [0.1496390700340271:0.54630446434020996] [0.14962497353553772:0.54629009962081909] [0.14959529042243958:0.54628944396972656] [0.14957094192504883:0.54610961675643921] [0.14955011010169983:0.54596102237701416] [0.14948266744613647:0.54593724012374878] [0.14946731925010681:0.54592430591583252] [0.1494559645652771:0.54583138227462769] [0.14944362640380859:0.5457918643951416] [0.14940805733203888:0.54568135738372803] [0.14934921264648438:0.54566413164138794] [0.14934881031513214:0.54557931423187256] [0.14931675791740417:0.54553818702697754] [0.14926446974277496:0.54541152715682983] [0.14916160702705383:0.54518991708755493] [0.14916150271892548:0.54507583379745483] [0.14907315373420715:0.54500901699066162] [0.14907315373420715:0.54495143890380859] [0.14902755618095398:0.54480701684951782] [0.14902740716934204:0.54476338624954224] [0.14901538193225861:0.54471397399902344] [0.14895042777061462:0.54466241598129272] [0.14889077842235565:0.54451435804367065] [0.14885865151882172:0.54449319839477539] [0.14884497225284576:0.54437893629074097] [0.1488025039434433:0.54385411739349365] [0.14877773821353912:0.54381901025772095] [0.14873698353767395:0.54381626844406128] [0.14867928624153137:0.54380768537521362] [0.1486247330904007:0.54371678829193115] [0.14858135581016541:0.54342669248580933] [0.14850275218486786:0.54339975118637085] [0.14846168458461761:0.54332643747329712] [0.14845365285873413:0.54332220554351807] [0.1483207494020462:0.54326075315475464] [0.14830948412418365:0.54316592216491699] [0.14827761054039001:0.54310792684555054] [0.14819073677062988:0.54302728176116943] [0.14817400276660919:0.54302167892456055] [0.14816868305206299:0.54298388957977295] [0.1480940580368042:0.54288959503173828] [0.14806264638900757:0.54286038875579834] [0.14804795384407043:0.54275691509246826] [0.1479865163564682:0.54260855913162231] [0.1479838639497757:0.54259264469146729] [0.14794440567493439:0.54258638620376587] [0.14794169366359711:0.54254746437072754] [0.14793500304222107:0.54254043102264404] [0.1478407233953476:0.54238808155059814] [0.14780250191688538:0.54226505756378174] [0.14774309098720551:0.54223555326461792] [0.14772571623325348:0.54207789897918701] [0.14765313267707825:0.54202717542648315] [0.14764909446239471:0.5419999361038208] [0.1476043313741684:0.5419619083404541] [0.14755783975124359:0.54191690683364868] [0.14754065871238708:0.54191207885742188] [0.14748392999172211:0.54186719655990601] [0.1474776566028595:0.54153621196746826] [0.14732003211975098:0.54152983427047729] [0.14728920161724091:0.54149419069290161] [0.14726985991001129:0.5413811206817627] [0.14717212319374084:0.54128599166870117] [0.14711056649684906:0.54118961095809937] [0.14710555970668793:0.54110407829284668] [0.14698760211467743:0.5409281849861145] [0.14697375893592834:0.54088473320007324] [0.14697133004665375:0.54079902172088623] [0.14689312875270844:0.54066747426986694] [0.14686016738414764:0.54050415754318237] [0.14685662090778351:0.54030841588973999] [0.14679953455924988:0.54027032852172852] [0.14673373103141785:0.54004716873168945] [0.1466982513666153:0.54001408815383911] [0.14668811857700348:0.53997474908828735] [0.14667551219463348:0.53995400667190552] [0.14665032923221588:0.53993058204650879] [0.14658153057098389:0.53985697031021118] [0.14656472206115723:0.53977704048156738] [0.14642858505249023:0.53975093364715576] [0.14641290903091431:0.53969395160675049] [0.14637668430805206:0.53961396217346191] [0.14632962644100189:0.53951090574264526] [0.14628005027770996:0.53948080539703369] [0.14624799787998199:0.5393790602684021] [0.14620517194271088:0.53922742605209351] [0.14618690311908722:0.5392071008682251] [0.14613768458366394:0.53918957710266113] [0.14608898758888245:0.53913205862045288] [0.14605174958705902:0.53910297155380249] [0.14595791697502136:0.53909331560134888] [0.14594388008117676:0.53906762599945068] [0.14590397477149963:0.53901529312133789] [0.14588037133216858:0.53889578580856323] [0.14584298431873322:0.53880751132965088] [0.1457986980676651:0.5388038158416748] [0.14577028155326843:0.53863078355789185] [0.14574967324733734:0.53859931230545044] [0.14568059146404266:0.53859800100326538] [0.14564323425292969:0.53856086730957031] [0.14561982452869415:0.5385509729385376] [0.14545793831348419:0.53833240270614624] [0.1454547792673111:0.53829187154769897] [0.14539481699466705:0.53813284635543823] [0.14529961347579956:0.53811913728713989] [0.14524278044700623:0.53803926706314087] [0.14510557055473328:0.53803616762161255] [0.14504440128803253:0.53796947002410889] [0.14499354362487793:0.53795850276947021] [0.1449601799249649:0.53794336318969727] [0.14494876563549042:0.5378914475440979] [0.14494112133979797:0.53776806592941284] [0.14479099214076996:0.53776425123214722] [0.14473751187324524:0.53774166107177734] [0.14472095668315887:0.53773009777069092] [0.14469920098781586:0.53770434856414795] [0.14467748999595642:0.53766459226608276] [0.14466260373592377:0.53764975070953369] [0.14464622735977173:0.53762054443359375] [0.14459942281246185:0.53760981559753418] [0.14455197751522064:0.53759473562240601] [0.14455100893974304:0.53740155696868896] [0.1444944441318512:0.53727990388870239] [0.14443890750408173:0.53723746538162231] [0.14439159631729126:0.53719723224639893] [0.14439153671264648:0.53716427087783813] [0.14425455033779144:0.53709292411804199] [0.14423684775829315:0.53696167469024658] [0.1442248523235321:0.5369495153427124] [0.1442224532365799:0.53691720962524414] [0.14417880773544312:0.5368955135345459] [0.14412233233451843:0.53679758310317993] [0.1440877765417099:0.5366547703742981] [0.14405828714370728:0.53663939237594604] [0.14399456977844238:0.5365220308303833] [0.14397141337394714:0.53649675846099854] [0.14389604330062866:0.5364115834236145] [0.14386947453022003:0.5363813042640686] [0.14386680722236633:0.53632277250289917] [0.14386460185050964:0.53632247447967529] [0.14384974539279938:0.53609490394592285] [0.14384526014328003:0.53608918190002441] [0.14383530616760254:0.53607386350631714] [0.1437935084104538:0.53606969118118286] [0.14374880492687225:0.53602832555770874] [0.14371441304683685:0.53599762916564941] [0.1437114030122757:0.53599286079406738] [0.14368295669555664:0.53590363264083862] [0.14368274807929993:0.53570538759231567] [0.14366805553436279:0.53565299510955811] [0.14366321265697479:0.53561651706695557] [0.14366111159324646:0.53548556566238403] [0.1436358243227005:0.53527092933654785] [0.14359770715236664:0.53521913290023804] [0.14352172613143921:0.53520292043685913] [0.1434941440820694:0.53502702713012695] [0.14340364933013916:0.53494518995285034] [0.14339099824428558:0.53475463390350342] [0.14332440495491028:0.53466159105300903] [0.14326497912406921:0.53462523221969604] [0.14324286580085754:0.53441029787063599] [0.14323557913303375:0.53440040349960327] [0.14322711527347565:0.5343703031539917] [0.1432175487279892:0.53420788049697876] [0.14313444495201111:0.53406625986099243] [0.1430877298116684:0.53388464450836182] [0.14307959377765656:0.53387510776519775] [0.14306895434856415:0.53383451700210571] [0.14303231239318848:0.53380751609802246] [0.14292770624160767:0.53375816345214844] [0.1428932398557663:0.5337146520614624] [0.1428910493850708:0.53358054161071777] [0.14278271794319153:0.53355318307876587] [0.14274293184280396:0.53355264663696289] [0.14273090660572052:0.53338903188705444] [0.1426568329334259:0.53330117464065552] [0.14258439838886261:0.5332985520362854] [0.14255718886852264:0.53323417901992798] [0.14252974092960358:0.53313624858856201] [0.14249667525291443:0.53306585550308228] [0.14244814217090607:0.53302860260009766] [0.14244762063026428:0.5330016016960144] [0.14243663847446442:0.53296518325805664] [0.14239321649074554:0.5328528881072998] [0.14237233996391296:0.53284221887588501] [0.14234438538551331:0.5327569842338562] [0.14228799939155579:0.53271275758743286] [0.1422840803861618:0.53269553184509277] [0.14226524531841278:0.53267979621887207] [0.14226377010345459:0.53260272741317749] [0.14221665263175964:0.53256386518478394] [0.14218521118164062:0.53248900175094604] [0.14215646684169769:0.532448410987854] [0.14214305579662323:0.53240388631820679] [0.14208829402923584:0.5322909951210022] [0.14204877614974976:0.53227043151855469] [0.14191102981567383:0.53226554393768311] [0.14190816879272461:0.53225421905517578] [0.14190281927585602:0.53223854303359985] [0.14189146459102631:0.53222429752349854] [0.14184145629405975:0.53209996223449707] [0.14180399477481842:0.53195768594741821] [0.14178374409675598:0.53186732530593872] [0.14170898497104645:0.53176707029342651] [0.14167612791061401:0.53174400329589844] [0.14166782796382904:0.53165203332901001] [0.14165763556957245:0.53163003921508789] [0.14165222644805908:0.53153306245803833] [0.14158123731613159:0.53139328956604004] [0.1415775865316391:0.53127896785736084] [0.14157532155513763:0.53105181455612183] [0.14155787229537964:0.53096306324005127] [0.14152312278747559:0.53092783689498901] [0.14150857925415039:0.53083139657974243] [0.14149157702922821:0.53081858158111572] [0.14148737490177155:0.53078931570053101] [0.14146126806735992:0.53075337409973145] [0.14129224419593811:0.53056943416595459] [0.14128716289997101:0.53054231405258179] [0.14128030836582184:0.53053385019302368] [0.141227126121521:0.53052812814712524] [0.14118534326553345:0.53048992156982422] [0.14101214706897736:0.53043091297149658] [0.14098118245601654:0.53039580583572388] [0.14096596837043762:0.53035789728164673] [0.14092558622360229:0.53033596277236938] [0.14088726043701172:0.53030234575271606] [0.14087140560150146:0.53027832508087158] [0.14081868529319763:0.53027135133743286] [0.14081390202045441:0.53022456169128418] [0.14079466462135315:0.53017091751098633] [0.14077258110046387:0.53014975786209106] [0.14075538516044617:0.53014761209487915] [0.14073376357555389:0.53007113933563232] [0.14067870378494263:0.5300370454788208] [0.14064919948577881:0.52981245517730713] [0.14054478704929352:0.52958154678344727] [0.1405409574508667:0.52957296371459961] [0.14051809906959534:0.52956360578536987] [0.14048425853252411:0.52951020002365112] [0.14046072959899902:0.52949714660644531] [0.14042188227176666:0.52932256460189819] [0.14042186737060547:0.529152512550354] [0.14040401577949524:0.5291210412979126] [0.14039938151836395:0.52910107374191284] [0.14036083221435547:0.52907991409301758] [0.14035272598266602:0.52906239032745361] [0.14033402502536774:0.52904051542282104] [0.1403072327375412:0.5290338397026062] [0.14028067886829376:0.52901333570480347] [0.14018797874450684:0.52879178524017334] [0.14018632471561432:0.52877223491668701] [0.14013464748859406:0.52875113487243652] [0.14013348519802094:0.52871102094650269] [0.14012598991394043:0.52868688106536865] [0.14011423289775848:0.52865493297576904] [0.14008417725563049:0.52864861488342285] [0.1400841623544693:0.52860134840011597] [0.14001092314720154:0.52858704328536987] [0.1400056779384613:0.52855271100997925] [0.13995984196662903:0.52848458290100098] [0.13990898430347443:0.52841192483901978] [0.1398129016160965:0.52832323312759399] [0.13976521790027618:0.52824598550796509] [0.13976243138313293:0.5282403826713562] [0.139741450548172:0.52822542190551758] [0.13969792425632477:0.52820593118667603] [0.13967221975326538:0.52814841270446777] [0.13966189324855804:0.52812695503234863] [0.13964007794857025:0.52804595232009888] [0.13963688910007477:0.52797460556030273] [0.13959652185440063:0.52794343233108521] [0.13958829641342163:0.52783554792404175] [0.13958530128002167:0.52768349647521973] [0.13955679535865784:0.52760899066925049] [0.13953186571598053:0.52754455804824829] [0.13952617347240448:0.52745074033737183] [0.13952209055423737:0.52739453315734863] [0.13950438797473907:0.52722108364105225] [0.13933800160884857:0.52719378471374512] [0.13933320343494415:0.52715915441513062] [0.13931320607662201:0.5270647406578064] [0.13930694758892059:0.52704483270645142] [0.13928978145122528:0.52701449394226074] [0.13927289843559265:0.52697688341140747] [0.13926328718662262:0.52689266204833984] [0.13925428688526154:0.5268893837928772] [0.13922542333602905:0.52678382396697998] [0.13919755816459656:0.52676397562026978] [0.139190673828125:0.52672439813613892] [0.13915348052978516:0.52666604518890381] [0.13906113803386688:0.52653962373733521] [0.13902761042118073:0.52646607160568237] [0.13901239633560181:0.52639859914779663] [0.13889062404632568:0.52635270357131958] [0.13887372612953186:0.52635222673416138] [0.1388012170791626:0.52631783485412598] [0.1387769877910614:0.52630746364593506] [0.13874742388725281:0.52627533674240112] [0.13868775963783264:0.5262681245803833] [0.13867232203483582:0.5260581374168396] [0.13867130875587463:0.52605438232421875] [0.13867130875587463:0.52600622177124023] [0.13866159319877625:0.52592962980270386] [0.13858591020107269:0.5258411169052124] [0.13855257630348206:0.52571552991867065] [0.13854110240936279:0.52564531564712524] [0.13846956193447113:0.52563434839248657] [0.1384599357843399:0.52563244104385376] [0.13845720887184143:0.52549064159393311] [0.13843108713626862:0.52548509836196899] [0.13840465247631073:0.52529376745223999] [0.1383821964263916:0.52526044845581055] [0.13835513591766357:0.5252341628074646] [0.13828454911708832:0.52511483430862427] [0.13823716342449188:0.52503067255020142] [0.13820582628250122:0.52502721548080444] [0.13816820085048676:0.52501589059829712] [0.1380455493927002:0.52497446537017822] [0.13798730075359344:0.52496331930160522] [0.13794825971126556:0.52484971284866333] [0.13793586194515228:0.52466130256652832] [0.13788971304893494:0.52456128597259521] [0.13780632615089417:0.52450871467590332] [0.13780064880847931:0.52445507049560547] [0.13778522610664368:0.52433204650878906] [0.13775599002838135:0.52432024478912354] [0.13773971796035767:0.52429455518722534] [0.13771331310272217:0.52403742074966431] [0.13770826160907745:0.52400112152099609] [0.13769897818565369:0.52398580312728882] [0.13766390085220337:0.52398151159286499] [0.13765622675418854:0.52380192279815674] [0.13763497769832611:0.52368605136871338] [0.13762933015823364:0.52353173494338989] [0.13760839402675629:0.52350771427154541] [0.13756655156612396:0.52350592613220215]
tree_sizes=1996 2113 2108 2103 2124 2114 2127 2117 2131 2124 2123 2133 2129 2125 2136 2134 2135 2120 2132 2150 2122 2130 2126 2131 2140 2136 2155 2147 2113 2132 2131 2151 2143 2142 2148 2136 2154 2120 2131 2144 2150 2182 2154 2137 2136 2157 2137 2149 2146 2160 2114 2182 2134 2148 2146 2137 2110 2153 2159 2154 2151 2140 2112 2138 2133 2124 2143 2109 2171 2146 2103 2145 2120 2155 2169 2136 2143 2122 2117 2134 2129 2122 2134 2139 2167 2131 2147 2146 2125 2121 2147 2148 2149 2136 2144 2123 2116 2147 2149 2110 2124 2143 2167 2108 2145 2139 2153 2113 2142 2127 2139 2131 2160 2112 2125 2108 2110 2156 2149 2163 2117 2110 2140 2127 2128 2136 2117 2131 2132 2148 2148 2107 2114 2145 2147 2112 2128 2116 2105 2121 2127 2107 2124 2122 2160 2125 2145 2096 2098 2121 2118 2126 2139 2106 2137 2133 2135 2152 2117 2136 2152 2141 2119 2135 2128 2135 2120 2150 2112 2117 2163 2127 2137 2126 2118 2128 2115 2140 2139 2136 2140 2118 2141 2107 2134 2136 2140 2175 2130 2135 2141 2128 2124 2142 2137 2098 2137 2129 2129 2126 2119 2131 2148 2169 2117 2112 2161 2139 2126 2135 2128 2148 2120 2153 2152 2126 2121 2107 2104 2113 2108 2114 2129 2127 2129 2152 2140 2158 2109 2137 2124 2127 2146 2105 2126 2121 2146 2134 2152

Tree=0
num_leaves=22
num_cat=0
split_feature=996 7 71 141 135 0 0 18 926 59 45 18 277 264 5 0 0 627 18 0 7
split_gain=2064.97 1250.79 1470.17 1053.53 508.198 397.971 321.134 276.939 267.173 227.846 264.862 213.5 203.067 258.135 142.236 286.215 211.778 139.98 94.0458 87.4976 84.9093
threshold=0.39028431475162512 0.65171816945076 0.44299538433551794 0.40734009444713598 0.41147163510322576 0.69295692443847667 0.99999943375587474 0.58221712708473217 0.2894206196069718 0.37683933973312383 0.38615922629833227 0.63159218430519115 0.50988805294036876 0.5126120150089265 0.66050115227699291 0.77804452180862438 0.79796713590621959 0.37282909452915197 0.59999221563339245 0.77510151267051708 0.67356842756271373
decision_type=2 2 2 2 2 2 2 2 2 2 2 2 2 2 2 2 2 2 2 2 2
left_child=1 2 3 5 -5 9 8 -3 19 -1 -11 20 -2 -14 18 -16 -17 -6 -4 -7 -9
right_child=12 7 14 4 17 6 -8 11 -10 10 -12 -13 13 -15 15 16 -18 -19 -20 -21 -22
leaf_value=2.442637529881202 2.4320197895084217 2.4683637356562103 2.4666186442591793 2.5744176267579602 2.4547654097258405 2.5273944748320916 2.4283687480624261 2.5407651338999755 2.5006588959467773 2.5696511411247984 2.4825938165800427 2.4438481068954467 2.5295644594767843 2.4188038531445044 2.4201529223821985 2.5696023526407203 2.4846344070285031 2.535662494246032 2.4272522227618141 2.5776452242872545 2.5662996320042608
leaf_weight=503 2153 178 4223 1307 197 198 124 1046 510 150 1448 72 199 139 146 196 273 144 250 422 982
leaf_count=503 2153 178 4223 1307 197 198 124 1046 510 150 1448 72 199 139 146 196 273 144 250 422 982
internal_value=2.49088 2.50131 2.49189 2.51589 2.55673 2.49584 2.52364 2.54305 2.53409 2.47924 2.49077 2.54938 2.43907 2.48401 2.46828 2.49641 2.52014 2.48893 2.46442 2.5616 2.55313
internal_weight=14860 12369 10091 5003 1648 3355 1254 2278 1130 2101 1598 2100 2491 338 5088 615 469 341 4473 620 2028
internal_count=14860 12369 10091 5003 1648 3355 1254 2278 1130 2101 1598 2100 2491 338 5088 615 469 341 4473 620 2028
is_linear=0
shrinkage=1


Tree=1
num_leaves=22
num_cat=0
split_feature=987 6 50 67 34 6 9 20 36 18 386 120 717 6 281 284 13 996 237 985 42
split_gain=1831.04 897.138 1209.04 956.328 357.372 343.509 533.888 323.071 265.105 224.059 206.166 222.572 173.805 205.029 155.862 248.392 147.275 112.991 151.343 98.463 97.3061
threshold=0.390630453824997 0.66679102182388317 0.45932337641716009 0.4505965411663056 0.3861061185598374 0.6517108976840974 0.62297773361206066 0.57909065485000621 0.38545182347297674 0.63159218430519115 0.38384892046451574 0.42267437279224401 0.29851473867893225 0.59123420715332042 0.50956326723098766 0.50936570763587963 0.59933930635452282 0.34423318505287176 0.39270120859146124 0.28439541161060339 0.53822794556617748
decision_type=2 2 2 2 2 2 2 2 2 2 2 2 2 2 2 2 2 2 2 2 2
left_child=1 2 3 4 -1 -4 16 -3 -6 20 12 -12 13 19 -2 -16 -7 -14 -19 -10 -9
right_child=14 7 5 -5 8 6 -8 9 10 -11 11 -13 17 -15 15 -17 -18 18 -20 -21 -22
leaf_value=-0.043042892491037099 -0.053908540827572259 -0.022688418960170879 -0.025095015846125081 0.083275598978798895 0.083145120660562385 0.0075672286196040899 -0.04762571832030757 0.039170692839028222 0.0046874981700241831 -0.048068752491351029 0.07370956915840407 -0.019918995839086705 -0.0096047845463233094 0.085584025611470674 0.044419951406457749 -0.065111133635574706 0.082275463677912192 0.055853134572877182 -0.020885034100774375 0.061870534806473108 0.069663847373331381
leaf_weight=412 2162 230 4369 889 229 147 286 601 647 78 392 132 1677 201 170 153 340 261 162 143 1261
leaf_count=412 2162 230 4369 889 229 147 286 601 647 78 392 132 1677 201 170 153 340 261 162 143 1261
internal_value=0.00100771 0.0107585 0.00307166 0.0244457 0.0121572 -0.0183149 0.0200066 0.0471982 0.0180736 0.0554837 0.0139515 0.0501237 0.0078194 0.0293468 -0.0478716 -0.00746319 0.0597249 -0.00233949 0.026464 0.0150384 0.0598215
internal_weight=14942 12457 10287 5145 4256 5142 773 2170 3844 1940 3615 524 3091 991 2485 323 487 2100 423 790 1862
internal_count=14942 12457 10287 5145 4256 5142 773 2170 3844 1940 3615 524 3091 991 2485 323 487 2100 423 790 1862
is_linear=0
shrinkage=0.0623645


Tree=2
num_leaves=22
num_cat=0
split_feature=996 7 49 49 34 6 33 24 20 836 129 542 0 281 284 1 3 6 139 39 90
split_gain=1564.27 962.987 1109.45 838.261 331.285 291.826 246.017 217.67 194.321 185.532 215.388 210.064 229.135 162.3 228.656 124.471 117.133 115.716 99.9435 93.7022 95.0328
threshold=0.39028431475162512 0.65171816945076 0.46005927026271826 0.45931541919708258 0.3861061185598374 0.66625595092773449 0.3882999867200852 0.5611596703529359 0.60740581154823314 0.34962293505668646 0.41215060651302343 0.30980625748634344 0.71569797396659862 0.50956326723098766 0.50936570763587963 0.85296282172203075 0.79020604491233837 0.66740435361862194 0.40750566124916082 0.55107283592224132 0.46684227883815771
decision_type=2 2 2 2 2 2 2 2 2 2 2 2 2 2 2 2 2 2 2 2 2
left_child=1 2 3 4 -1 19 -6 -3 15 11 18 12 -8 -2 -15 -9 -10 -7 -11 20 -4
right_child=13 7 5 -5 6 17 9 8 16 10 -12 -13 -14 14 -16 -17 -18 -19 -20 -21 -22
leaf_value=-0.044226272371731899 -0.051458398843944 -0.023219033362905424 -0.030475987432532398 0.07789851079815234 0.077877830046869129 0.065452983330128126 -0.0032208199689627423 0.061133960448068188 -0.025113497370425619 0.01379370385949891 -0.002498030324465105 -0.010904834283697248 0.056597299219428951 0.042890682087225039 -0.06117748862449629 -0.016549510683074947 0.074902606322178031 -0.029876473710726211 0.072954115332079988 -0.05082093461371219 -0.012108174857340233
leaf_weight=399 2176 167 2071 845 231 208 520 1783 189 148 369 1629 478 180 151 84 60 65 445 444 2326
leaf_count=399 2176 167 2071 845 231 208 520 1783 189 148 369 1629 478 180 151 84 60 65 445 444 2326
internal_value=-0.000321622 0.00872136 0.000510424 0.021202 0.00984652 -0.0199788 0.0154944 0.0453271 0.050737 0.0114792 0.0349109 0.00289863 0.0254295 -0.0452696 -0.00458453 0.0576388 -0.00101323 0.0427555 0.058189 -0.0235166 -0.0207595
internal_weight=14968 12461 10178 5064 4219 5114 3820 2283 2116 3589 962 2627 998 2507 331 1867 249 273 593 4841 4397
internal_count=14968 12461 10178 5064 4219 5114 3820 2283 2116 3589 962 2627 998 2507 331 1867 249 273 593 4841 4397
is_linear=0
shrinkage=0.0623645


Tree=3
num_leaves=22
num_cat=0
split_feature=987 7 48 65 48 6 0 0 386 1 25 18 28 135 124 120 1 9 23 6 115
split_gain=1363.2 869.672 1029.73 708.225 282.51 237.599 202.17 272.661 248.803 195.523 183.814 164.98 147.183 133.345 129.813 110.5 108.943 91.1308 189.235 102.772 80.598
threshold=0.390630453824997 0.65171816945076 0.46032939851284033 0.45106935501098638 0.37104269862174993 0.66625595092773449 0.99999943375587474 0.76648080348968517 0.38384892046451574 0.73500189185142528 0.55719709396362316 0.63159218430519115 0.39140978455543524 0.56162133812904369 0.42147399485111242 0.47709651291370397 0.85296282172203075 0.66226711869239818 0.56471341848373424 0.66914460062980663 0.40089660882949835
decision_type=2 2 2 2 2 2 2 2 2 2 2 2 2 2 2 2 2 2 2 2 2
left_child=1 2 3 4 -1 -4 7 8 12 -9 -3 16 -6 -2 -10 -7 17 18 -12 -20 -14
right_child=13 10 5 -5 6 15 -8 9 14 -11 11 -13 20 -15 -16 -17 -18 -19 19 -21 -22
leaf_value=-0.040635155474532572 -0.045362307777323224 -0.021514348757916087 -0.022441696578802035 0.07288368314415232 0.063012252272433747 -0.030781295462669059 -0.063106665163010625 0.057187854712987152 0.067038243455158186 -0.050804583562702232 0.078385440071881821 -0.045030619240360163 0.003520330884028657 0.01998297905516102 -0.0098582422300581979 0.062698627907986554 -0.0071979060624105832 0.068808055056291589 -0.027650843948623788 0.03420900007566853 -0.023160512467529582
leaf_weight=388 2376 160 4811 837 136 66 124 799 370 71 360 72 1597 128 111 193 118 919 129 549 608
leaf_count=388 2376 160 4811 837 136 66 124 799 370 71 360 72 1597 128 111 193 118 919 129 549 608
internal_value=-4.48727e-05 0.00841951 0.000536064 0.0204955 0.0100652 -0.0193092 0.0152203 0.017851 0.0084408 0.0483747 0.0429707 0.0477762 4.70069e-05 -0.042022 0.0492929 0.0388775 0.0509965 0.0545054 0.0418425 0.0224392 -0.00383656
internal_weight=14922 12418 10111 5041 4204 5070 3816 3692 2822 870 2307 2147 2341 2504 481 259 2075 1957 1038 678 2205
internal_count=14922 12418 10111 5041 4204 5070 3816 3692 2822 870 2307 2147 2341 2504 481 259 2075 1957 1038 678 2205
is_linear=0
shrinkage=0.0623645


Tree=4
num_leaves=22
num_cat=0
split_feature=987 8 49 67 6 9 34 25 24 1 16 29 966 130 277 253 6 447 1 16 14
split_gain=1212.1 611.719 604.374 639.523 517.286 394.737 263.728 186.815 180.449 179.813 168.438 195.255 205.722 182.142 115.268 195.045 102.057 97.2328 94.9754 90.5427 84.4423
threshold=0.390630453824997 0.66260045766830455 0.46005927026271826 0.4505965411663056 0.6517108976840974 0.62745720148086559 0.3861061185598374 0.48015263676643377 0.56094622611999523 0.76481941342353832 0.49661751091480261 0.39198035001754766 0.34014029800891882 0.41207619011402136 0.50988805294036876 0.51605075597763073 0.66625595092773449 0.31433507800102239 0.85296282172203075 0.50026181340217601 0.59939411282539379
decision_type=2 2 2 2 2 2 2 2 2 2 2 2 2 2 2 2 2 2 2 2 2
left_child=1 2 3 6 -4 8 -1 10 -6 -3 11 -8 17 -14 -2 -16 -7 -13 -11 -12 -10
right_child=14 9 4 -5 5 16 7 -9 20 18 19 12 13 -15 15 -17 -18 -19 -20 -21 -22
leaf_value=-0.040099070502623235 -0.045766521132022578 -0.042912970467268899 -0.021399856463884783 0.068214169443812436 -0.035205608501104421 -0.052597779242105236 0.06989285526836822 -0.029078868619840124 0.030995348328817802 0.062680067332370693 0.070521961922266577 0.015509796373657037 0.04995662520490942 -0.012421569742145125 0.032662057565776031 -0.062138148923068008 0.00010823727170646348 -0.014268301253275328 -0.00047580459220164029 0.016381180695058964 0.066544317783311477
leaf_weight=383 2089 75 4343 861 112 255 216 353 540 1006 336 665 656 252 202 145 325 1189 102 187 501
leaf_count=383 2089 75 4343 861 112 255 216 353 540 1006 336 665 656 252 202 145 325 1189 102 187 501
internal_value=-3.09362e-05 0.00789519 0.00338033 0.0192145 -0.00990515 0.0189013 0.00925727 0.0141622 0.0400114 0.0505403 0.0185221 0.0127895 0.00832379 0.0326446 -0.0402375 -0.00695186 -0.0230642 -0.00358738 0.0568661 0.0511638 0.0481039
internal_weight=14793 12357 11174 5098 6076 1733 4237 3854 1153 1183 3501 2978 2762 908 2436 347 580 1854 1108 523 1041
internal_count=14793 12357 11174 5098 6076 1733 4237 3854 1153 1183 3501 2978 2762 908 2436 347 580 1854 1108 523 1041
is_linear=0
shrinkage=0.0623645


Tree=5
num_leaves=22
num_cat=0
split_feature=982 7 79 82 36 0 0 386 25 1 2 13 282 252 28 26 327 614 88 30 416
split_gain=1155.09 619.667 781.437 605.835 207.517 200.891 237.769 219.107 197.778 175.977 173.193 284.339 135.748 166.661 132.387 127.785 202.269 87.7547 79.3007 79.0302 76.4589
threshold=0.39562927186489111 0.65171816945076 0.43781505525112158 0.43651379644870764 0.383782908320427 0.99999943375587474 0.76648080348968517 0.38384892046451574 0.55719709396362316 0.72627580165863048 0.73817357420921337 0.60519912838935863 0.5095278024673463 0.51605957746505748 0.39140978455543524 0.56070089340209972 0.43870642781257635 0.41374582052230841 0.47181899845600134 0.45170465111732488 0.37127083539962774
decision_type=2 2 2 2 2 2 2 2 2 2 2 2 2 2 2 2 2 2 2 2 2
left_child=1 2 3 4 -1 6 7 14 -3 -8 20 -12 -2 -14 -6 18 -17 -18 -10 -9 -4
right_child=12 8 10 -5 5 -7 9 19 15 -11 11 -13 13 -15 -16 16 17 -19 -20 -21 -22
leaf_value=-0.034226202360453317 -0.048523087043441437 -0.030325017336842945 -0.036801991229565935 0.064818330935028631 0.064350367668749076 -0.065222063728905946 0.051883616791503925 0.067024466278532951 0.03250258388345862 -0.045570727471295598 -0.031046326379433012 0.058758658712368975 0.03433018446372222 -0.057208767415736231 -0.0036633695275188338 -0.0086801341813511259 0.05478053682538004 -0.025008590842208824 0.06809652746077495 -0.004978707150137044 -0.015929532799235785
leaf_weight=403 1856 161 819 896 117 124 821 283 365 79 254 298 183 134 2288 406 587 59 731 75 4098
leaf_count=403 1856 161 819 896 117 124 821 283 365 79 254 298 183 134 2288 406 587 59 731 75 4098
internal_value=-2.57576e-05 0.00707829 0.00067635 0.0182726 0.00831919 0.0128467 0.0154895 0.00642118 0.0363431 0.0433293 -0.0156876 0.0174354 -0.0420812 -0.00436451 -0.000354593 0.0413401 0.0258142 0.0474933 0.0562427 0.05194 -0.0194062
internal_weight=15037 12864 10555 5086 4190 3787 3663 2763 2309 900 5469 552 2173 317 2405 2148 1052 646 1096 358 4917
internal_count=15037 12864 10555 5086 4190 3787 3663 2763 2309 900 5469 552 2173 317 2405 2148 1052 646 1096 358 4917
is_linear=0
shrinkage=0.0623645


Tree=6
num_leaves=22
num_cat=0
split_feature=987 6 43 39 34 25 4 1 31 9 25 16 947 1 98 1 1 563 49 1 971
split_gain=1010.99 557.1 650.896 487.283 208.275 194.808 193.851 269.293 138.092 107.53 98.0925 157.866 147.298 113.247 92.9503 92.669 80.1159 75.2256 82.8955 69.4068 91.9953
threshold=0.390630453824997 0.66679102182388317 0.46803289651870733 0.48063699901103979 0.3861061185598374 0.55719709396362316 0.67128595709800731 0.70310574769973766 0.39049255847930914 0.60478526353836071 0.48015263676643377 0.49786600470542913 0.34086082875728613 0.61572450399398815 0.58254188299179088 0.74361595511436474 0.85296282172203075 0.30221875011920935 0.38971948623657232 0.66970944404602062 0.36927102506160742
decision_type=2 2 2 2 2 2 2 2 2 2 2 2 2 2 2 2 2 2 2 2 2
left_child=1 2 3 4 -1 -3 9 -8 -6 19 11 12 17 -14 -2 -7 -17 18 -10 -4 -21
right_child=14 5 6 -5 8 15 7 -9 10 -11 -12 -13 13 -15 -16 16 -18 -19 -20 20 -22
leaf_value=-0.033617899948489405 -0.038565415465567465 -0.027825523849760621 -0.022551293209662586 0.062183953029404375 0.060443276377848215 -0.013449313409588435 0.056921180231250909 -0.013651555910660555 -0.024163584983784191 -0.03864141590776296 -0.016625210294353283 0.047641320904448385 0.035100759305543371 -0.033646397455638612 0.021953833481652755 0.048922070351614055 0.00066388821737384707 -0.010542347841826664 0.029167739695013302 0.0058062504358016662 -0.030510599424336031
leaf_weight=405 2367 169 1840 790 228 111 328 586 150 937 457 471 897 104 103 1732 145 1243 464 1002 372
leaf_count=405 2367 169 1840 790 228 111 328 586 150 937 457 471 897 104 103 1732 145 1243 464 1002 372
internal_value=0.000400743 0.00764175 0.00159243 0.0170712 0.00900622 0.0364552 -0.0143264 0.0116743 0.0133069 -0.0200514 0.0104682 0.0141876 0.00867436 0.0279582 -0.0360417 0.0419197 0.0451941 -0.00172043 0.0161389 -0.0146318 -0.00402626
internal_weight=14901 12431 10274 5209 4419 2157 5065 914 4014 4151 3786 3329 2858 1001 2470 1988 1877 1857 614 3214 1374
internal_count=14901 12431 10274 5209 4419 2157 5065 914 4014 4151 3786 3329 2858 1001 2470 1988 1877 1857 614 3214 1374
is_linear=0
shrinkage=0.0623645


Tree=7
num_leaves=22
num_cat=0
split_feature=976 6 48 67 6 9 48 25 705 1 277 250 18 25 17 841 29 158 1 1 1
split_gain=830.695 453.178 588.707 409.735 233.101 205.468 186.784 177.904 139.159 128.094 123.288 147.655 114.095 104.398 132.597 120.546 158.71 98.5733 68.4054 83.249 64.3627
threshold=0.39574898779392248 0.66679102182388317 0.46032939851284033 0.4505965411663056 0.65086546540260326 0.62223511934280407 0.37104269862174993 0.55719709396362316 0.4063271582126618 0.73500189185142528 0.50988805294036876 0.51736098527908336 0.63159218430519115 0.48015263676643377 0.49342894554138189 0.34930172562599188 0.39198035001754766 0.40723946690559393 0.75016096234321605 0.85296282172203075 0.72001573443412792
decision_type=2 2 2 2 2 2 2 2 2 2 2 2 2 2 2 2 2 2 2 2 2
left_child=1 2 3 6 -4 20 -1 -3 -7 13 -2 -12 18 14 15 16 -8 -17 -9 -20 -6
right_child=10 7 4 -5 5 8 9 12 -10 -11 11 -13 -14 -15 -16 17 -18 -19 19 -21 -22
leaf_value=-0.033003882143433819 -0.042423855751699067 -0.028074175526350623 -0.019456209432343028 0.05661241901289623 0.05897995173937004 -0.039029584028138373 0.053538353016591884 0.018815360612858562 0.047376151988660541 -0.053278672230815935 0.03088836639405523 -0.052899104151212926 -0.036839953704886227 -0.021031588687104873 0.047394064970816434 0.045053177551587296 -0.0015382704991534946 -0.0048925035866254404 0.051113601711599087 0.0015019117037515834 0.014106570352119376
leaf_weight=393 1841 180 4634 800 309 306 228 467 95 113 210 134 79 302 486 614 1893 205 1329 146 208
leaf_count=393 1841 180 4634 800 309 306 228 467 95 113 210 134 79 302 486 614 1893 205 1329 146 208
internal_value=-0.000483567 0.00558882 0.000235402 0.0156804 -0.0137686 0.0149419 0.00794649 0.0313368 -0.0185594 0.0121364 -0.0360202 -0.00174978 0.0366282 0.0141192 0.0172177 0.0122294 0.00438227 0.0325515 0.0396169 0.0462029 0.0409264
internal_weight=14972 12787 10586 5034 5552 918 4234 2201 401 3841 2185 344 2021 3728 3426 2940 2121 819 1942 1475 517
internal_count=14972 12787 10586 5034 5552 918 4234 2201 401 3841 2185 344 2021 3728 3426 2940 2121 819 1942 1475 517
is_linear=0
shrinkage=0.0623645


Tree=8
num_leaves=22
num_cat=0
split_feature=987 7 45 45 34 0 0 393 76 18 18 33 35 99 202 198 171 20 692 314 281
split_gain=802.688 450.409 543.912 396.039 184.996 119.673 167.71 124.481 118.199 109.389 113.73 109.029 104.655 92.9669 142.02 143.857 122.333 92.3899 90.6198 76.4781 71.6198
threshold=0.390630453824997 0.65171816945076 0.46611857414245611 0.46473810076713568 0.3861061185598374 0.96649119257926952 0.76648080348968517 0.38324964046478277 0.43780940771102911 0.58221712708473217 0.63159218430519115 0.38699196279048925 0.46600085496902471 0.46240311861038214 0.45094203948974615 0.45236942172050482 0.42548245191574102 0.53177931904792797 0.37167744338512426 0.44557850062847143 0.50956326723098766
decision_type=2 2 2 2 2 2 2 2 2 2 2 2 2 2 2 2 2 2 2 2 2
left_child=1 2 3 4 -1 6 7 11 -9 -3 -11 -6 -8 17 15 16 -15 18 -4 -16 -2
right_child=20 9 13 -5 5 -7 12 8 -10 10 -12 -13 -14 14 19 -17 -18 -19 -20 -21 -22
leaf_value=-0.032512307948362441 -0.036436282973228672 -0.017648249159992285 0.00028468917602173064 0.051741746566527559 0.059750720274567605 -0.0508902561164708 0.042398873578395072 0.048719998354400905 -0.020651970653374652 0.038080066058684151 -0.038662128500657061 -0.0032612809790243669 -0.042898153897570901 0.071091686955409947 -0.035902836000611948 0.05005055753911114 -0.0071986980673958466 -0.041738226626193274 -0.034774597789554232 0.015050599466914715 -0.0058976320024005146
leaf_weight=421 2184 164 710 923 112 118 828 416 124 2025 78 2300 60 81 757 213 1863 757 481 135 346
leaf_count=421 2184 164 710 923 112 118 828 416 124 2025 78 2300 60 81 757 213 1863 757 481 135 346
internal_value=-0.000210589 0.00624211 0.000702612 0.0146162 0.00679092 0.0109715 0.0128724 0.00572419 0.0327901 0.0314081 0.0352337 -0.000335351 0.0366356 -0.0140602 -0.00726094 0.00139454 -0.0039366 -0.0247024 -0.0138744 -0.0281913 -0.0322599
internal_weight=15096 12566 10299 5302 4379 3958 3840 2952 540 2267 2103 2412 888 4997 3049 2157 1944 1948 1191 892 2530
internal_count=15096 12566 10299 5302 4379 3958 3840 2952 540 2267 2103 2412 888 4997 3049 2157 1944 1948 1191 892 2530
is_linear=0
shrinkage=0.0623645


Tree=9
num_leaves=22
num_cat=0
split_feature=976 8 48 45 6 8 48 8 1 117 161 67 104 386 76 281 253 419 2 24 134
split_gain=663.747 348.13 348.669 353.192 318.122 191.452 153.527 125.569 122.424 99.4625 90.2334 84.5863 105.705 101.442 97.3116 83.7681 149.618 79.1936 77.4091 72.0341 69.0397
threshold=0.39574898779392248 0.66260045766830455 0.46032939851284033 0.46473810076713568 0.6517108976840974 0.64713603258132946 0.37104269862174993 0.67285725474357616 0.73500189185142528 0.43961396813392645 0.31744740903377539 0.37170402705669409 0.36238555610179907 0.38384892046451574 0.43780940771102911 0.50956326723098766 0.51605075597763073 0.42534181475639349 0.5357196331024171 0.55988585948944103 0.3487361371517182
decision_type=2 2 2 2 2 2 2 2 2 2 2 2 2 2 2 2 2 2 2 2 2
left_child=1 2 3 6 -4 9 -1 -3 10 -6 -8 -12 20 18 -15 -2 -17 -9 -14 -11 -13
right_child=15 7 4 -5 5 -7 8 17 -10 19 11 12 13 14 -16 16 -18 -19 -20 -21 -22
leaf_value=-0.030413997056528808 -0.036997521581247819 0.047027453267594499 -0.016011709895780858 0.050905731593867978 -0.051634344292265426 -0.027501299141530301 0.060574778088338152 -0.039398119433262935 -0.05689807476600426 -0.017031345813874256 -0.031820462775678938 0.0020238030748502725 -0.01962991119106167 0.046288538436369125 -0.02005361209477614 0.033167669024326274 -0.05317002546127346 0.032550750182184951 0.0083502426419341125 0.032989361010621443 0.052069689228730308
leaf_weight=386 1823 990 4614 861 63 333 147 119 101 123 173 148 485 422 108 189 133 119 1857 1249 389
leaf_count=386 1823 990 4614 861 63 333 147 119 101 123 173 148 485 422 108 189 133 119 1857 1249 389
internal_value=0.000267276 0.00569194 0.00231009 0.0145069 -0.00739268 0.0151007 0.00707342 0.0372495 0.0108515 0.0249867 0.0126865 0.0107213 0.0128802 0.00813157 0.0327698 -0.0318179 -0.00249355 -0.00342368 0.00255589 0.028505 0.0382768
internal_weight=14832 12687 11459 5077 6382 1768 4216 1228 3830 1435 3729 3582 3409 2872 530 2145 322 238 2342 1372 537
internal_count=14832 12687 11459 5077 6382 1768 4216 1228 3830 1435 3729 3582 3409 2872 530 2145 322 238 2342 1372 537
is_linear=0
shrinkage=0.0623645


Tree=10
num_leaves=22
num_cat=0
split_feature=985 5 43 41 18 32 18 28 16 783 18 158 17 277 285 944 792 16 219 24 355
split_gain=584.33 353.779 521.079 300.501 251.61 107.534 94.2626 88.2462 82.5552 82.9209 113.473 97.8228 76.0608 74.0621 109.055 70.3197 68.8109 65.788 62.3322 125.166 88.1096
threshold=0.39559033513069158 0.66621750593185436 0.46803289651870733 0.46947903931140905 0.58221712708473217 0.38133142888545996 0.63159218430519115 0.4750294983386994 0.49786600470542913 0.3518101572990418 0.41326564550399786 0.40723946690559393 0.49780718982219702 0.50988805294036876 0.50860154628753673 0.29656983911991125 0.37443101406097418 0.41502261161804205 0.39741435647010809 0.5192951261997224 0.40165412425994879
decision_type=2 2 2 2 2 2 2 2 2 2 2 2 2 2 2 2 2 2 2 2 2
left_child=1 2 3 5 16 -1 -6 8 9 10 17 -11 -10 -2 -15 -14 -3 -7 19 -4 -20
right_child=13 4 18 -5 6 7 -8 -9 12 11 -12 -13 15 14 -16 -17 -18 -19 20 -21 -22
leaf_value=-0.029440697344593886 -0.034676106285194332 0.0013778574824587122 0.0068863858536347177 0.04766387253063905 0.034281790301956466 -0.013484210215401389 -0.036732777828799815 -0.01780288239240425 0.056993472980044195 0.039021996336641065 -0.0030103349351704471 -0.006322069262945788 0.041915195295322769 0.031767220502573343 -0.039999779894102361 -0.037306921197363049 -0.050648827959506044 0.053498649128715624 0.00014686381528115672 -0.050706052426417646 -0.019227204757579296
leaf_weight=298 1842 229 213 831 2368 75 75 416 286 608 1945 266 93 172 158 82 174 238 1405 472 2607
leaf_count=298 1842 229 213 831 2368 75 75 416 286 608 1945 266 93 172 158 82 174 238 1405 472 2607
internal_value=8.68863e-05 0.00520621 -0.000397259 0.0133278 0.0245703 0.00670298 0.0321016 0.00938963 0.012538 0.00891123 0.00259799 0.0252216 0.037178 -0.0298017 -0.00259395 0.00479397 -0.0210853 0.0374484 -0.015411 -0.0327977 -0.0124424
internal_weight=14853 12681 9835 5138 2846 4307 2443 4009 3593 3132 2258 874 461 2172 330 175 403 313 4697 685 4012
internal_count=14853 12681 9835 5138 2846 4307 2443 4009 3593 3132 2258 874 461 2172 330 175 403 313 4697 685 4012
is_linear=0
shrinkage=0.0623645


Tree=11
num_leaves=22
num_cat=0
split_feature=987 6 382 376 0 0 689 451 24 89 61 72 9 12 4 191 107 324 528 538 5
split_gain=537.733 256.252 278.025 310.759 307.716 255.475 173.214 135.649 132.699 115.886 97.1355 90.0753 67.9794 69.8572 64.1484 54.3872 132.421 75.6044 63.2107 126.718 54.1272
threshold=0.390630453824997 0.679866522550583 0.38435325026512152 0.38429865241050726 0.74304765462875377 0.96649119257926952 0.32074986398220068 0.36737762391567236 0.5192951261997224 0.43788880109786993 0.37507678568363195 0.37048044800758367 0.67481169104576122 0.62955453991889965 0.77432650327682506 0.45534539222717291 0.47773367166519171 0.44388477504253393 0.39488342404365545 0.39402008056640631 0.64289021492004406
decision_type=2 2 2 2 2 2 2 2 2 2 2 2 2 2 2 2 2 2 2 2 2
left_child=1 2 3 4 8 6 9 -8 10 -6 -1 -12 13 -3 -14 16 18 -17 19 -4 -18
right_child=-2 12 15 -5 5 -7 7 -9 -10 -11 11 -13 14 -15 -16 17 20 -19 -20 -21 -22
leaf_value=-0.027102696679696017 -0.026467883762280299 -0.0029607122038024453 -0.0096366704633721201 0.049908276944106274 0.04448083555099025 -0.041350975141892822 -0.024657882746302789 0.022259325582812538 -0.039405349094900795 -0.027386977494873795 0.046075590536511994 -0.00050342635470807505 -0.032514934141947185 0.043774551738306522 0.045753669610706309 -0.032324102300156358 -0.018985286849962722 0.013529178005828922 -0.026860399999198006 0.070078904378464174 0.026196731548990482
leaf_weight=507 2461 143 1825 692 1415 237 348 770 437 93 175 2089 112 956 64 730 126 173 831 81 568
leaf_count=507 2461 143 1825 692 1415 237 348 770 437 93 175 2089 112 956 64 730 126 173 831 81 568
internal_value=0.00015594 0.00545187 0.00240956 0.0103118 0.00579844 0.0206608 0.0262575 0.0076554 -0.0074656 0.0400487 -0.00242854 0.00309698 0.0319307 0.0376934 -0.00405362 -0.00992154 -0.00633749 -0.0235394 -0.012507 -0.00624897 0.0179937
internal_weight=14833 12372 11097 6763 6071 2863 2626 1118 3208 1508 2771 2264 1275 1099 176 4334 3431 903 2737 1906 694
internal_count=14833 12372 11097 6763 6071 2863 2626 1118 3208 1508 2771 2264 1275 1099 176 4334 3431 903 2737 1906 694
is_linear=0
shrinkage=0.0623645


Tree=12
num_leaves=22
num_cat=0
split_feature=976 5 43 9 18 34 5 7 18 277 289 845 386 32 5 32 40 18 86 101 5
split_gain=439.046 248.419 425.718 228.488 191.364 115.098 124.697 88.5892 70.0539 63.0026 115.646 62.6852 57.6477 71.6031 59.643 50.951 60.4893 49.3925 50.4665 151.569 67.8929
threshold=0.39574898779392248 0.66621750593185436 0.46803289651870733 0.55394262075424205 0.58221712708473217 0.3861061185598374 0.5604514777660371 0.58048206567764293 0.63159218430519115 0.50988805294036876 0.50837591290473949 0.37176266312599188 0.38384892046451574 0.39101600646972662 0.55673336982727062 0.44966508448123937 0.46628113090991979 0.59808728098869335 0.46948944032192236 0.4636389166116715 0.64899247884750377
decision_type=2 2 2 2 2 2 2 2 2 2 2 2 2 2 2 2 2 2 2 2 2
left_child=1 2 3 5 11 -1 12 -5 -6 -2 -11 -3 13 -7 -15 -14 -17 18 -4 -20 -21
right_child=9 4 17 7 8 6 -8 -9 -10 10 -12 -13 15 14 -16 16 -18 -19 19 20 -22
leaf_value=-0.025833588579537461 -0.030445001335180393 0.0032440283812659718 -0.019661591417008385 0.040885247107744375 0.029447741930492811 0.040897087236074811 -0.023179247888375037 -0.026698306139274527 -0.029907306431509982 0.033333521467958226 -0.039160256547337603 -0.046204869322784718 0.049247747595855214 0.0029728534142017585 0.044133405581720846 -0.014447237065521513 0.042212828394125712 -0.037427413970669066 0.040383495951591498 -0.016497536348436963 0.011319657357216146
leaf_weight=421 1837 222 1914 1098 2324 246 423 81 80 179 164 181 288 2202 146 155 139 320 245 1820 420
leaf_count=421 1837 222 1914 1098 2324 246 423 81 80 179 164 181 288 2202 146 155 139 320 245 1820 420
internal_value=-3.86971e-06 0.00442636 -0.000209285 0.0121005 0.0208055 0.00502021 0.00862939 0.0362421 0.0274725 -0.0258638 -0.00132823 -0.018965 0.0128659 0.00888604 0.00553224 0.0306041 0.012341 -0.0137712 -0.0120504 -0.00618805 -0.0112818
internal_weight=14905 12725 9918 5199 2807 4020 3599 1179 2404 2180 343 403 3176 2594 2348 582 294 4719 4399 2485 2240
internal_count=14905 12725 9918 5199 2807 4020 3599 1179 2404 2180 343 403 3176 2594 2348 582 294 4719 4399 2485 2240
is_linear=0
shrinkage=0.0623645


Tree=13
num_leaves=22
num_cat=0
split_feature=978 7 48 0 0 67 1 989 390 117 984 62 264 326 128 136 2 277 264 1 609
split_gain=416.925 220.666 286.188 233.799 174.126 142.284 123.936 109.529 90.6149 94.5619 79.2172 77.621 74.6944 146.321 88.8904 66.2451 60.671 59.549 86.0683 56.3677 51.1758
threshold=0.39572532474994665 0.65171816945076 0.46032939851284033 0.71815595030784618 0.99999943375587474 0.37170402705669409 0.73500189185142528 0.39493501186370855 0.38362191617488867 0.39987048506736761 0.31843464076519018 0.44607660174369818 0.42047727108001715 0.43876330554485327 0.44926363229751592 0.41114197671413427 0.55965596437454235 0.50988805294036876 0.5126120150089265 0.61758369207382213 0.41414326429367071
decision_type=2 2 2 2 2 2 2 2 2 2 2 2 2 2 2 2 2 2 2 2 2
left_child=1 2 3 5 6 -1 15 11 9 10 19 -4 14 -14 -3 -5 -10 -2 -19 -7 -15
right_child=17 12 7 4 -6 8 -8 -9 16 -11 -12 -13 13 20 -16 -17 -18 18 -20 -21 -22
leaf_value=-0.031023446700049181 -0.029474884400555443 0.010074117094483677 -0.079002638343006665 0.036877109479006714 -0.043433448246664577 -0.010276903553763199 -0.04421988904501941 0.070101599358645753 0.037984170974124813 -0.022700310081545574 0.030970292549167649 -0.0098990068871122553 -0.018810975600290773 0.033795137391461623 0.044678426656463342 -0.023307857047090385 -0.023820454496856915 0.025247862769974226 -0.037857982279700886 0.024647029930993776 -0.026658827469151412
leaf_weight=492 1869 455 64 1834 129 725 81 66 435 535 415 5185 426 590 790 74 72 200 145 239 60
leaf_count=492 1869 455 64 1834 129 725 81 66 435 535 415 5185 426 590 790 74 72 200 145 239 60
internal_value=-0.000111746 0.00425243 0.00035373 0.0110148 0.0267815 -0.000448886 0.0313354 -0.00973769 0.00576453 -0.000445198 0.00818895 -0.0107416 0.0216311 0.00959677 0.0320319 0.0345429 0.0292072 -0.0250806 -0.00127488 -0.00161838 0.0282148
internal_weight=14881 12667 10346 5031 2118 2913 1989 5315 2421 1914 1379 5249 2321 1076 1245 1908 507 2214 345 964 650
internal_count=14881 12667 10346 5031 2118 2913 1989 5315 2421 1914 1379 5249 2321 1076 1245 1908 507 2214 345 964 650
is_linear=0
shrinkage=0.0623645


Tree=14
num_leaves=22
num_cat=0
split_feature=987 7 71 0 393 0 1 6 149 219 84 59 126 973 4 267 342 236 184 187 98
split_gain=354.636 209.49 243.226 212.291 179.039 164.997 116.919 80.874 68.8918 64.5673 56.0633 56.0015 94.2366 58.8012 55.6086 55.2882 126.546 54.2619 84.3677 103.6 57.9929
threshold=0.390630453824997 0.65171816945076 0.44299538433551794 0.69295692443847667 0.38324964046478277 0.99999943375587474 0.72627580165863048 0.66625595092773449 0.40757121145725256 0.39741435647010809 0.47112472355365759 0.37683933973312383 0.39494411647319799 0.31866097450256353 0.60823512077331554 0.42010039091110235 0.43611870706081396 0.42612710595130926 0.44226129353046423 0.4413053840398789 0.46400043368339544
decision_type=2 2 2 2 2 2 2 2 2 2 2 2 2 2 2 2 2 2 2 2 2
left_child=1 2 3 4 11 6 8 9 -5 14 -3 -1 13 -13 -4 -12 -17 20 -19 -20 -11
right_child=-2 10 7 5 -6 -7 -8 -9 -10 17 15 12 -14 -15 -16 16 -18 18 19 -21 -22
leaf_value=-0.026738694262149851 -0.021413067995292783 -0.024880958489811082 -0.00067220569380830122 0.033477545307503999 0.03554598127969371 -0.045582436249529186 -0.036169726545209537 0.024142135680002796 -0.02588192317911028 -0.008277076275982162 0.032848711527796358 -0.0020173900746533694 -0.025194446752822158 0.028930863711436178 -0.041863564880844188 -0.016407355109125756 0.029302070184676666 -0.039789184608936691 0.06906207474974789 -0.011739401539897745 0.013871128739319538
leaf_weight=511 2463 97 181 2032 425 125 105 273 79 1340 1168 885 530 327 431 366 661 424 64 1729 700
leaf_count=511 2463 97 181 2032 425 125 105 273 79 1340 1168 885 530 327 431 366 661 424 64 1729 700
internal_value=0.000209507 0.0044861 0.000644422 0.0104108 -0.00158121 0.024129 0.0280613 -0.0088883 0.0312561 -0.0107403 0.0215172 -0.00858479 -0.0032595 0.00633251 -0.0296812 0.0235676 0.0130122 -0.00801728 -0.0147713 -0.00885524 -0.000677202
internal_weight=14916 12453 10161 5019 2678 2341 2216 5142 2111 4869 2292 2253 1742 1212 612 2195 1027 4257 2217 1793 2040
internal_count=14916 12453 10161 5019 2678 2341 2216 5142 2111 4869 2292 2253 1742 1212 612 2195 1027 4257 2217 1793 2040
is_linear=0
shrinkage=0.0623645


Tree=15
num_leaves=22
num_cat=0
split_feature=976 5 53 18 35 34 20 18 11 25 17 1 558 34 1 151 187 24 367 275 48
split_gain=293.663 181.705 317.127 153.567 150.198 72.168 68.9311 64.9818 69.0183 61.7942 63.8143 86.9261 66.0564 82.2297 66.9251 58.6545 53.0028 66.8906 59.8026 54.3248 49.0671
threshold=0.39574898779392248 0.66621750593185436 0.46167542040348059 0.58221712708473217 0.48562401533126837 0.3861061185598374 0.60644045472145092 0.61007031798362743 0.61038076877594005 0.48015263676643377 0.49342894554138189 0.63321408629417431 0.35296241939067846 0.4148229062557221 0.62432608008384716 0.55619415640831005 0.40834443271160131 0.5192951261997224 0.32763276994228369 0.41649791598320013 0.5010991394519807
decision_type=2 2 2 2 2 2 2 2 2 2 2 2 2 2 2 2 2 2 2 2 2
left_child=1 2 4 -3 5 -1 7 8 -5 10 11 12 13 -7 -15 -2 17 -4 -19 -18 -21
right_child=15 3 16 6 -6 9 -8 -9 -10 -11 -12 -13 -14 14 -16 -17 19 18 -20 20 -22
leaf_value=-0.020015874067883667 -0.023782676909427102 -0.018119492243833846 0.0093604023218643393 0.039482437535746671 0.033953483330988493 0.019541967496427864 -0.00536887920842121 0.043769590878232408 0.011140727122022482 -0.012604734840995994 0.031764828050817213 -0.018433683916684505 0.023988431769740644 -0.015501488021726302 0.036493473278920149 0.018793098522784452 -0.00056731217686504186 0.019750818769251284 -0.04758464118081708 -0.028860039380214152 -0.0096999648270150746
leaf_weight=400 2069 410 137 487 844 706 292 631 1065 507 482 436 1025 772 110 134 1500 58 444 755 1669
leaf_count=400 2069 410 137 487 844 706 292 631 1065 507 482 436 1025 772 110 134 1500 58 444 755 1669
internal_value=-0.000169912 0.00346825 -0.000565154 0.0172321 0.00983818 0.00525203 0.0230884 0.0268948 0.020034 0.00775504 0.0106784 0.00734497 0.0116463 0.00367995 -0.00901686 -0.021193 -0.0126078 -0.0292639 -0.0398048 -0.0098954 -0.0156677
internal_weight=14933 12730 9845 2885 5282 4438 2475 2183 1552 4038 3531 3049 2613 1588 882 2203 4563 639 502 3924 2424
internal_count=14933 12730 9845 2885 5282 4438 2475 2183 1552 4038 3531 3049 2613 1588 882 2203 4563 639 502 3924 2424
is_linear=0
shrinkage=0.0623645


Tree=16
num_leaves=22
num_cat=0
split_feature=976 7 83 81 8 988 7 393 20 148 139 140 33 29 22 208 85 171 169 169 22
split_gain=276.143 152.446 179.995 168.364 108.193 85.4605 75.8271 59.5677 55.7077 51.902 55.8394 51.191 50.095 49.0463 105.42 69.1084 79.4845 66.8359 57.338 83.6984 47.3713
threshold=0.39574898779392248 0.65171816945076 0.43636482954025274 0.43703484535217291 0.57192397117614757 0.39497500658035284 0.57444113492965709 0.38324964046478277 0.60740581154823314 0.40777385234832769 0.4077190905809403 0.4149573296308518 0.44849127531051641 0.56532767415046703 0.57330536842346203 0.43176172673702246 0.46978387236595159 0.42548245191574102 0.44667713344097143 0.44682590663433081 0.59595170617103588
decision_type=2 2 2 2 2 2 2 2 2 2 2 2 2 2 2 2 2 2 2 2 2
left_child=1 2 3 4 6 11 7 9 20 10 -1 -4 -9 14 15 16 -13 -18 -17 -20 -3
right_child=-2 8 5 -5 -6 -7 -8 12 -10 -11 -12 13 -14 -15 -16 18 17 -19 19 -21 -22
leaf_value=0.00020354179215540535 -0.020296344995128973 0.01287446993642207 -0.03276734686609839 0.03376429025471854 -0.044871132366549653 0.06420063489611115 0.037699795624182283 0.039323883086455784 -0.0094318893674153279 -0.038915601556456451 0.033456892798891157 -0.0078964757045351993 -0.015097887853846442 -0.025715335996356267 0.021710976184645472 -0.036424130998543525 0.074292428037786767 0.010923725485336872 0.060007963363856089 -0.014117063216494564 0.032021344862579897
leaf_weight=3033 2198 1088 313 877 171 64 270 291 251 123 210 1604 85 481 518 450 74 517 62 1334 934
leaf_count=3033 2198 1088 313 877 171 64 270 291 251 123 210 1604 85 481 518 450 74 517 62 1334 934
internal_value=0.000118882 0.00363831 0.000462009 0.00891974 0.00371087 -0.00743832 0.00578154 0.00347851 0.0182789 0.000848684 0.00235686 -0.00829483 0.0270211 -0.00677501 -0.0047767 -0.00817205 -0.000692821 0.0188582 -0.0170653 -0.010825 0.0217188
internal_weight=14948 12750 10477 5060 4183 5417 4012 3742 2273 3366 3243 5353 376 5040 4559 4041 2195 591 1846 1396 2022
internal_count=14948 12750 10477 5060 4183 5417 4012 3742 2273 3366 3243 5353 376 5040 4559 4041 2195 591 1846 1396 2022
is_linear=0
shrinkage=0.0623645


Tree=17
num_leaves=22
num_cat=0
split_feature=232 0 2 0 0 931 52 87 954 45 124 493 27 2 930 13 673 0 83 0 23
split_gain=241.929 214.503 175.89 126.402 107.525 85.7773 132.323 81.9076 161.677 68.1822 70.1441 53.8235 49.2665 92.4369 47.5722 47.4869 47.2312 61.7501 46.7493 46.55 43.1486
threshold=0.42776867747306829 0.69557663798332225 0.73388037085533153 0.77884119749069225 0.82169833779335033 0.3195245116949082 0.42996113002300268 0.47587759792804724 0.30520512163639074 0.53121167421340953 0.50874504446983349 0.36271782219409948 0.49964423477649694 0.61601755023002636 0.35584864020347601 0.54820421338081371 0.30060629546642309 0.99999943375587474 0.47787438333034521 0.76648080348968517 0.53461831808090221
decision_type=2 2 2 2 2 2 2 2 2 2 2 2 2 2 2 2 2 2 2 2 2
left_child=1 5 -2 -4 7 12 -7 8 15 -5 -11 16 13 -1 -13 -3 17 -6 -9 20 -10
right_child=2 4 3 9 11 6 -8 18 19 10 -12 14 -14 -15 -16 -17 -18 -19 -20 -21 -22
leaf_value=-0.015501314278208295 -0.016707237017785283 0.032008126020437427 0.030003226506074419 -0.036747986343738444 0.047168685295106469 0.025108690608445634 -0.0080886329900180451 0.087477369630687918 -0.0046262148542158647 0.013641004392659093 -0.024406609988663848 0.016707923434559721 -0.038863176178559382 0.03608110882374907 -0.018742360626192476 -0.013256920166824634 -0.030352561434365152 -0.033788074634029719 0.033038962012018037 0.0096149285917172464 -0.047175533910974579
leaf_weight=1362 4217 1477 602 218 84 731 1293 67 496 624 270 654 280 150 190 96 335 65 728 925 114
leaf_count=1362 4217 1477 602 218 84 731 1293 67 496 624 270 654 280 150 190 96 335 65 728 925 114
internal_value=-7.11808e-05 0.00634632 -0.00986028 0.00698546 0.0145482 -0.00489687 0.00390111 0.0197637 0.0151945 -0.00547559 0.00215011 -0.000780294 -0.0148339 -0.010384 0.00872741 0.0292456 -0.0173598 0.011852 0.0376269 0.000795567 -0.0125781
internal_weight=14978 9047 5931 1714 5231 3816 2024 3903 3108 1112 894 1328 1792 1512 844 1573 484 149 795 1535 610
internal_count=14978 9047 5931 1714 5231 3816 2024 3903 3108 1112 894 1328 1792 1512 844 1573 484 149 795 1535 610
is_linear=0
shrinkage=0.0623645


Tree=18
num_leaves=22
num_cat=0
split_feature=976 5 43 0 0 18 67 20 62 22 386 108 56 78 924 277 286 89 18 0 163
split_gain=235.155 135.773 221.697 154.454 113.777 106.886 96.3264 59.0741 56.2648 55.2313 54.2663 68.3358 67.2205 55.804 69.1185 52.4439 90.5321 44.0245 40.5177 40.117 39.7659
threshold=0.39574898779392248 0.66621750593185436 0.46803289651870733 0.744438797235489 0.96649119257926952 0.58221712708473217 0.37170402705669409 0.60740581154823314 0.44607660174369818 0.49333590269088751 0.38384892046451574 0.40334971249103552 0.43861116468906408 0.36772148311138159 0.32570679485797888 0.50988805294036876 0.50863865017890941 0.52648231387138378 0.59999221563339245 0.82638549804687511 0.3715310692787171
decision_type=2 2 2 2 2 2 2 2 2 2 2 2 2 2 2 2 2 2 2 2 2
left_child=1 2 3 6 -5 19 -1 -7 -4 10 11 12 13 -8 20 -2 -17 -9 -10 -3 -15
right_child=15 5 8 4 -6 7 9 17 18 -11 -12 -13 -14 14 -16 16 -18 -19 -20 -21 -22
leaf_value=-0.024156730137936698 -0.022981823433391776 -0.038285230437109456 -0.068921292839332821 0.025919378144853594 -0.037702088417590318 0.023334615788889419 0.03613719017459719 -0.044666616796611151 -0.0076551260501592994 -0.034776030730087892 0.024053020125009032 -0.017516736566741728 0.064241840286317783 0.001052662319495835 0.030106360676654398 0.033319999490730903 -0.030118405877851074 0.010089282924028225 -0.03216411283581512 0.0021299749486490059 -0.027401625225575408
leaf_weight=527 1845 166 62 1900 116 2218 201 86 4394 129 567 509 81 659 244 185 166 170 279 225 269
leaf_count=527 1845 166 62 1900 116 2218 201 86 4394 129 567 509 81 659 244 185 166 170 279 225 269
internal_value=7.65416e-05 0.0033108 -0.000137771 0.00874942 0.0222586 0.0152719 0.000201231 0.0200606 -0.00990149 0.00502885 0.00705843 0.00214965 0.00903424 0.00577727 0.000570494 -0.0187782 0.00331779 -0.00830528 -0.00911843 -0.0150284 -0.0071954
internal_weight=14998 12802 9937 5202 2016 2865 3186 2474 4735 2659 2530 1963 1454 1373 1172 2196 351 256 4673 391 928
internal_count=14998 12802 9937 5202 2016 2865 3186 2474 4735 2659 2530 1963 1454 1373 1172 2196 351 256 4673 391 928
is_linear=0
shrinkage=0.0623645


Tree=19
num_leaves=22
num_cat=0
split_feature=987 8 382 372 0 0 392 1 461 27 2 61 142 19 85 202 201 522 14 146 198
split_gain=175.993 117.308 97.9223 162.481 142.503 140.358 109.555 73.4391 71.6707 60.7994 82.2346 44.5294 76.7465 40.129 36.8224 57.5109 56.1841 51.8496 46.7684 49.6042 38.9568
threshold=0.390630453824997 0.66260045766830455 0.38435325026512152 0.38452085852622991 0.69557663798332225 0.99999943375587474 0.3467270433902741 0.76481941342353832 0.3671336323022843 0.49964423477649694 0.61601755023002636 0.37507678568363195 0.35777631402015692 0.53220036625862133 0.46928268671035772 0.45094203948974615 0.45113329589366918 0.41558574140071874 0.56220263242721569 0.44290268421173101 0.40857000648975378
decision_type=2 2 2 2 2 2 2 2 2 2 2 2 2 2 2 2 2 2 2 2 2
left_child=1 2 3 4 9 6 13 -3 -8 10 11 -1 -13 -6 18 16 -16 -17 19 20 -4
right_child=-2 7 14 -5 5 -7 8 -9 -10 -11 -12 12 -14 -15 15 17 -18 -19 -20 -21 -22
leaf_value=-0.025267713884723049 -0.015399915803548634 -0.039632647961364148 -0.051917671619997149 0.033775520473424935 0.027521204678278947 -0.036969162452200319 -0.015850784583490679 0.025350271862680237 0.013185656429485441 -0.030477505886279885 0.031280564187652307 0.020291514825290489 -0.011001116061602289 -0.0082574783746665794 -0.00033215284458379228 -0.025216354931681971 0.033601546851868599 0.0065563268353157561 -0.055664818086211001 -0.04034050158401932 -0.003090880635777045
leaf_weight=465 2484 72 68 708 1597 222 565 1117 797 408 227 402 1261 132 1886 652 211 288 102 198 972
leaf_count=465 2484 72 68 708 1597 222 565 1117 797 408 227 402 1261 132 1886 652 211 288 102 198 972
internal_value=-0.000253356 0.00279313 0.000809283 0.00550143 0.00220682 0.0109289 0.014369 0.0214152 0.00114044 -0.00825148 -0.00440086 -0.0082071 -0.00343669 0.0247897 -0.00646318 -0.0026636 0.00308225 -0.0154817 -0.0150746 -0.0117303 -0.0062834
internal_weight=14834 12350 11161 6784 6076 3313 3091 1189 1362 2763 2355 2128 1663 1729 4377 3037 2097 940 1340 1238 1040
internal_count=14834 12350 11161 6784 6076 3313 3091 1189 1362 2763 2355 2128 1663 1729 4377 3037 2097 940 1340 1238 1040
is_linear=0
shrinkage=0.0623645


Tree=20
num_leaves=22
num_cat=0
split_feature=231 0 3 4 102 996 9 747 13 83 928 53 26 0 0 0 4 3 1 6 4
split_gain=183.129 151.444 126.401 94.5314 78.0728 152.489 80.7752 77.6892 79.7385 65.4926 62.1331 85.6969 53.908 44.6964 41.4376 40.6618 40.2489 74.7576 37.0465 36.0455 60.5633
threshold=0.42799168825149542 0.69557663798332225 0.6802649497985841 0.71054840087890636 0.46183902025222784 0.30870865285396581 0.57804057002067577 0.44490362703800207 0.59861108660697948 0.48652434349060064 0.31964500248432165 0.42955324053764349 0.5575416386127473 0.93232402205467235 0.9999995529651643 0.82638549804687511 0.60823512077331554 0.5894812047481538 0.51470315456390392 0.53893607854843151 0.52343547344207775
decision_type=2 2 2 2 2 2 2 2 2 2 2 2 2 2 2 2 2 2 2 2 2
left_child=1 10 -2 7 5 6 14 8 -4 -6 16 18 13 19 -3 -5 17 -1 -12 20 -7
right_child=2 4 3 15 9 12 -8 -9 -10 -11 11 -13 -14 -15 -16 -17 -18 -19 -20 -21 -22
leaf_value=-0.01394704319505209 -0.016028013718477157 0.027110461558295457 -0.017952933435770674 -0.039015058369232795 0.030813395916836184 -0.040613381189537799 -0.018404250476802546 -0.034432300020351171 0.019316461425369979 -0.0097505964519889344 -0.017522934768895205 -0.0056636290791592441 -0.057722993922699091 -0.030436688331827944 -0.021891224329200442 -0.0062859750576951283 -0.037623273252196943 0.025660545991991433 0.026873309125982184 -0.0044126081993424767 0.024606200724313493
leaf_weight=1384 3439 1631 265 232 1188 64 184 143 1418 178 83 1266 70 193 70 406 211 214 613 1228 411
leaf_count=1384 3439 1631 265 232 1188 64 184 143 1418 178 83 1266 70 193 70 406 211 214 613 1228 411
internal_value=0.000230596 0.00583537 -0.00830333 0.002478 0.0127179 0.00817417 0.020848 0.00969846 0.0134481 0.0255276 -0.00368631 0.0040004 -0.00397746 -0.00199318 0.0250939 -0.0181875 -0.0120231 -0.0086429 0.0215789 0.0012303 0.0158187
internal_weight=14891 8988 5903 2464 5217 3851 1885 1826 1683 1366 3771 1962 1966 1896 1701 638 1809 1598 696 1703 475
internal_count=14891 8988 5903 2464 5217 3851 1885 1826 1683 1366 3771 1962 1966 1896 1701 638 1809 1598 696 1703 475
is_linear=0
shrinkage=0.0623645


Tree=21
num_leaves=22
num_cat=0
split_feature=976 5 53 35 18 941 277 285 985 30 13 2 986 359 16 48 184 18 7 4 2
split_gain=154.115 94.9363 132.361 78.4358 72.8142 40.0563 38.8125 69.2358 37.6797 39.858 50.586 61.4302 54.8364 55.4587 42.3662 39.9076 38.8904 36.0481 35.138 46.0486 98.8722
threshold=0.39574898779392248 0.66621750593185436 0.46167542040348059 0.48562401533126837 0.58221712708473217 0.36303249001502996 0.50988805294036876 0.50860154628753673 0.37518653273582464 0.47446219623088842 0.50472611188888561 0.60328957438468944 0.31760732829570776 0.3284809291362763 0.50026181340217601 0.37104269862174993 0.31256850063800817 0.63159218430519115 0.54398253560066234 0.60823512077331554 0.63103637099266063
decision_type=2 2 2 2 2 2 2 2 2 2 2 2 2 2 2 2 2 2 2 2 2
left_child=1 2 3 8 5 -3 -2 -8 9 10 11 12 13 15 -12 -1 -17 -6 -4 20 -20
right_child=6 4 18 -5 17 -7 7 -9 -10 -11 14 -13 -14 -15 -16 16 -18 -19 19 -21 -22
leaf_value=-0.012828457524840161 -0.018798690756888468 0.008697624519082835 -0.026070471083828435 0.024071553251169584 0.018446827994563032 -0.029832562173040613 0.031956291974243677 -0.025497165610434285 0.05017096915529913 -0.015261149925494951 0.033546317729774768 -0.02071531364228937 0.014262266283905105 -0.023004700371314815 -1.9643860243507709e-05 0.042755544619175995 0.0056357297313404386 -0.026354422975913172 -0.0091057117745391349 -0.010931019915707696 0.024336096643676221
leaf_weight=376 1810 205 373 852 2341 215 171 156 66 433 390 419 1309 402 234 132 652 72 979 2735 530
